{"learner":{"attributes":{"best_iteration":"413","best_score":"0.8735670937289278","scikit_learn":"{\"_estimator_type\": \"classifier\"}"},"feature_names":["SLA_hours","urgency_level","month_sin","month_cos","dow_sin","dow_cos","hour_sin","hour_cos","mgmt_A1","mgmt_A2","mgmt_B1","mgmt_B2","mgmt_D1","mgmt_E1","mgmt_E2","mgmt_F1","mgmt_F2","mgmt_F7","mgmt_G1","mgmt_G2","mgmt_H1","mgmt_H2","mgmt_I1","mgmt_M1","mgmt_M2","mgmt_N1","mgmt_P1","cat_ar","cat_av","cat_blackout","cat_ce","cat_ci","cat_el","cat_ia","cat_ie","cat_is","cat_me","cat_ms","cat_msv","cat_mv","cat_pu","cat_se","cat_so","building_code"],"feature_types":["float","float","float","float","float","float","float","float","int","int","int","int","int","int","int","int","int","int","int","int","int","int","int","int","int","int","int","int","int","int","int","int","int","int","int","int","int","int","int","int","int","int","int","int"],"gradient_booster":{"model":{"cats":{"enc":[],"feature_segments":[],"sorted_idx":[]},"gbtree_model_param":{"num_parallel_tree":"1","num_trees":"434"},"iteration_indptr":[0,1,2,3,4,5,6,7,8,9,10,11,12,13,14,15,16,17,18,19,20,21,22,23,24,25,26,27,28,29,30,31,32,33,34,35,36,37,38,39,40,41,42,43,44,45,46,47,48,49,50,51,52,53,54,55,56,57,58,59,60,61,62,63,64,65,66,67,68,69,70,71,72,73,74,75,76,77,78,79,80,81,82,83,84,85,86,87,88,89,90,91,92,93,94,95,96,97,98,99,100,101,102,103,104,105,106,107,108,109,110,111,112,113,114,115,116,117,118,119,120,121,122,123,124,125,126,127,128,129,130,131,132,133,134,135,136,137,138,139,140,141,142,143,144,145,146,147,148,149,150,151,152,153,154,155,156,157,158,159,160,161,162,163,164,165,166,167,168,169,170,171,172,173,174,175,176,177,178,179,180,181,182,183,184,185,186,187,188,189,190,191,192,193,194,195,196,197,198,199,200,201,202,203,204,205,206,207,208,209,210,211,212,213,214,215,216,217,218,219,220,221,222,223,224,225,226,227,228,229,230,231,232,233,234,235,236,237,238,239,240,241,242,243,244,245,246,247,248,249,250,251,252,253,254,255,256,257,258,259,260,261,262,263,264,265,266,267,268,269,270,271,272,273,274,275,276,277,278,279,280,281,282,283,284,285,286,287,288,289,290,291,292,293,294,295,296,297,298,299,300,301,302,303,304,305,306,307,308,309,310,311,312,313,314,315,316,317,318,319,320,321,322,323,324,325,326,327,328,329,330,331,332,333,334,335,336,337,338,339,340,341,342,343,344,345,346,347,348,349,350,351,352,353,354,355,356,357,358,359,360,361,362,363,364,365,366,367,368,369,370,371,372,373,374,375,376,377,378,379,380,381,382,383,384,385,386,387,388,389,390,391,392,393,394,395,396,397,398,399,400,401,402,403,404,405,406,407,408,409,410,411,412,413,414,415,416,417,418,419,420,421,422,423,424,425,426,427,428,429,430,431,432,433,434],"tree_info":[0,0,0,0,0,0,0,0,0,0,0,0,0,0,0,0,0,0,0,0,0,0,0,0,0,0,0,0,0,0,0,0,0,0,0,0,0,0,0,0,0,0,0,0,0,0,0,0,0,0,0,0,0,0,0,0,0,0,0,0,0,0,0,0,0,0,0,0,0,0,0,0,0,0,0,0,0,0,0,0,0,0,0,0,0,0,0,0,0,0,0,0,0,0,0,0,0,0,0,0,0,0,0,0,0,0,0,0,0,0,0,0,0,0,0,0,0,0,0,0,0,0,0,0,0,0,0,0,0,0,0,0,0,0,0,0,0,0,0,0,0,0,0,0,0,0,0,0,0,0,0,0,0,0,0,0,0,0,0,0,0,0,0,0,0,0,0,0,0,0,0,0,0,0,0,0,0,0,0,0,0,0,0,0,0,0,0,0,0,0,0,0,0,0,0,0,0,0,0,0,0,0,0,0,0,0,0,0,0,0,0,0,0,0,0,0,0,0,0,0,0,0,0,0,0,0,0,0,0,0,0,0,0,0,0,0,0,0,0,0,0,0,0,0,0,0,0,0,0,0,0,0,0,0,0,0,0,0,0,0,0,0,0,0,0,0,0,0,0,0,0,0,0,0,0,0,0,0,0,0,0,0,0,0,0,0,0,0,0,0,0,0,0,0,0,0,0,0,0,0,0,0,0,0,0,0,0,0,0,0,0,0,0,0,0,0,0,0,0,0,0,0,0,0,0,0,0,0,0,0,0,0,0,0,0,0,0,0,0,0,0,0,0,0,0,0,0,0,0,0,0,0,0,0,0,0,0,0,0,0,0,0,0,0,0,0,0,0,0,0,0,0,0,0,0,0,0,0,0,0,0,0,0,0,0,0,0,0,0,0,0,0,0,0,0,0,0,0,0,0,0,0,0,0,0,0,0,0,0,0,0,0,0,0,0,0,0,0,0,0,0,0,0,0,0,0,0,0,0,0,0,0,0,0],"trees":[{"base_weights":[-1.1411761E-2,-5.429393E-1,8.193645E-1,-7.6324683E-1,8.26128E-1,1.0555385E0,4.5306286E-1,-5.8266217E-1,-1.5864166E0,1.3249638E0,-1.0102376E0,1.1782564E0,8.6491966E-1,2.3674555E-1,1.1538315E0,-2.5044152E-1,-9.211228E-1,-6.72071E-1,-1.8480479E0,1.4479451E0,-2.750903E-1,-2.728953E-1,-1.5580785E0,1.1157409E-1,1.2113081E0,1.7763E-1,9.5202315E-1,1.1162179E0,1.2901118E-2,1.21891E0,-1.9971669E-2,3.2924393E-1,-3.7239173E-1,-6.726548E-1,-1.2710035E0,6.4000845E-1,-1.061719E0,-2.1556318E0,-1.1764365E0,1.264066E0,8.0080025E-2,3.814137E-2,-7.347156E-1,3.4762555E-1,-9.68254E-1,-9.5661834E-2,-1.228045E0,4.9842533E-2,-5.2779973E-2,7.865263E-1,1.2531708E0,5.779471E-1,-3.993182E-1,7.0489764E-2,8.7931573E-1,1.2971904E0,2.2618675E-1,-9.3338296E-2,1.2873567E0,1.4219304E0,9.791379E-1,4.0445956E-3,3.6324207E-2,-2.478017E-2,7.857729E-3,3.528046E-2,-3.722276E-2,-5.4732557E-2,-8.503371E-2,5.5651218E-2,-1.4817978E-2,-2.8514624E-2,-8.242055E-2,-1.10335164E-1,-6.1320763E-2,-2.7873471E-2,-8.6815834E-2,8.061283E-2,5.1353753E-2,-6.634139E-2,-3.3486568E-4,4.1023318E-2,-4.671929E-3,-7.418417E-2,-1.996879E-2,-2.8225115E-2,-7.405626E-2,3.0359885E-2,5.541143E-2,7.664594E-2,5.87853E-2,4.2663537E-2,1.2453242E-2,1.5914617E-3,-3.4214977E-2,3.3309914E-2,4.983079E-2,5.506633E-2,7.8613214E-2,-8.903319E-3,3.6971807E-2,-2.618648E-3,-8.0903135E-2,7.620918E-2,3.3880625E-2,7.6693505E-2,4.4627056E-2,5.6354802E-2,1.9395243E-2],"categories":[],"categories_nodes":[],"categories_segments":[],"categories_sizes":[],"default_left":[0,0,0,0,0,0,0,0,0,0,0,0,0,0,0,0,0,0,0,0,0,0,0,0,0,0,0,0,0,0,0,0,0,0,0,0,0,0,0,0,0,0,0,0,0,0,0,0,0,0,0,0,0,0,0,0,0,0,0,0,0,0,0,0,0,0,0,0,0,0,0,0,0,0,0,0,0,0,0,0,0,0,0,0,0,0,0,0,0,0,0,0,0,0,0,0,0,0,0,0,0,0,0,0,0,0,0,0,0],"id":0,"left_children":[1,3,5,7,9,11,13,15,17,19,21,23,25,27,29,31,33,35,37,39,41,43,45,47,49,51,53,55,57,59,-1,61,63,65,67,69,71,73,75,77,-1,-1,79,81,83,-1,85,-1,-1,87,89,91,93,-1,95,97,99,101,103,105,107,-1,-1,-1,-1,-1,-1,-1,-1,-1,-1,-1,-1,-1,-1,-1,-1,-1,-1,-1,-1,-1,-1,-1,-1,-1,-1,-1,-1,-1,-1,-1,-1,-1,-1,-1,-1,-1,-1,-1,-1,-1,-1,-1,-1,-1,-1,-1,-1],"loss_changes":[1.0456161E3,4.3619266E2,7.92926E1,1.838598E2,1.8511961E2,1.1894226E1,5.4775986E1,1.1460379E2,5.1905396E1,3.1648895E1,1.6912392E1,1.1651276E1,1.3110001E1,5.490816E1,9.212219E0,3.670551E1,4.2928436E1,2.6958405E1,3.284857E1,1.8462219E0,6.3180523E0,8.933112E0,2.1915436E-1,1.2776808E1,4.6379395E0,6.3738985E0,5.1276245E0,8.673401E0,3.056099E1,2.3776245E0,0E0,8.77125E0,2.804422E1,3.0028915E1,1.3678497E1,5.866368E0,1.0371601E1,2.5163574E0,1.8422668E1,4.0234528E0,0E0,0E0,3.713707E0,2.4667933E0,2.0537777E0,0E0,1.5935421E0,0E0,0E0,1.018877E0,4.3503113E0,1.1412334E0,1.4819208E0,0E0,3.5161896E0,5.19516E-1,2.443384E0,1.2713347E1,1.2555542E0,8.872986E-1,3.0159912E0,0E0,0E0,0E0,0E0,0E0,0E0,0E0,0E0,0E0,0E0,0E0,0E0,0E0,0E0,0E0,0E0,0E0,0E0,0E0,0E0,0E0,0E0,0E0,0E0,0E0,0E0,0E0,0E0,0E0,0E0,0E0,0E0,0E0,0E0,0E0,0E0,0E0,0E0,0E0,0E0,0E0,0E0,0E0,0E0,0E0,0E0,0E0,0E0],"parents":[2147483647,0,0,1,1,2,2,3,3,4,4,5,5,6,6,7,7,8,8,9,9,10,10,11,11,12,12,13,13,14,14,15,15,16,16,17,17,18,18,19,19,20,20,21,21,22,22,23,23,24,24,25,25,26,26,27,27,28,28,29,29,31,31,32,32,33,33,34,34,35,35,36,36,37,37,38,38,39,39,42,42,43,43,44,44,46,46,49,49,50,50,51,51,52,52,54,54,55,55,56,56,57,57,58,58,59,59,60,60],"right_children":[2,4,6,8,10,12,14,16,18,20,22,24,26,28,30,32,34,36,38,40,42,44,46,48,50,52,54,56,58,60,-1,62,64,66,68,70,72,74,76,78,-1,-1,80,82,84,-1,86,-1,-1,88,90,92,94,-1,96,98,100,102,104,106,108,-1,-1,-1,-1,-1,-1,-1,-1,-1,-1,-1,-1,-1,-1,-1,-1,-1,-1,-1,-1,-1,-1,-1,-1,-1,-1,-1,-1,-1,-1,-1,-1,-1,-1,-1,-1,-1,-1,-1,-1,-1,-1,-1,-1,-1,-1,-1,-1],"split_conditions":[1E0,1E0,2E0,1E0,1E0,1E0,1E0,2.5881904E-1,0E0,2.4E2,-7.0710677E-1,5E-1,-8.660254E-1,-5E-1,9.5E1,0E0,6.234898E-1,-5E-1,1.06E2,1.2246469E-16,-5E-1,-2.4492937E-16,1.07E2,-2.4492937E-16,-9.659258E-1,6.6E1,-5E-1,8.5E1,1E0,1E0,-1.9971669E-2,1E0,1E0,-7.818315E-1,8.660254E-1,1E0,1.2246469E-16,1E0,5E-1,1E0,8.0080025E-2,3.814137E-2,-2.5881904E-1,2.5881904E-1,-5E-1,-9.5661834E-2,-5E-1,4.9842533E-2,-5.2779973E-2,8.660254E-1,7.5E-1,4.9E1,6.234898E-1,7.0489764E-2,1E0,1E0,5E-1,3E0,5E-1,8.660254E-1,8.660254E-1,4.0445956E-3,3.6324207E-2,-2.478017E-2,7.857729E-3,3.528046E-2,-3.722276E-2,-5.4732557E-2,-8.503371E-2,5.5651218E-2,-1.4817978E-2,-2.8514624E-2,-8.242055E-2,-1.10335164E-1,-6.1320763E-2,-2.7873471E-2,-8.6815834E-2,8.061283E-2,5.1353753E-2,-6.634139E-2,-3.3486568E-4,4.1023318E-2,-4.671929E-3,-7.418417E-2,-1.996879E-2,-2.8225115E-2,-7.405626E-2,3.0359885E-2,5.541143E-2,7.664594E-2,5.87853E-2,4.2663537E-2,1.2453242E-2,1.5914617E-3,-3.4214977E-2,3.3309914E-2,4.983079E-2,5.506633E-2,7.8613214E-2,-8.903319E-3,3.6971807E-2,-2.618648E-3,-8.0903135E-2,7.620918E-2,3.3880625E-2,7.6693505E-2,4.4627056E-2,5.6354802E-2,1.9395243E-2],"split_indices":[1,37,0,35,26,9,32,6,4,0,7,0,2,6,43,4,5,6,43,2,2,2,43,2,7,43,2,43,37,11,0,32,10,4,6,26,2,3,6,21,0,0,6,6,3,0,7,0,0,3,0,43,5,0,31,8,2,0,3,3,2,0,0,0,0,0,0,0,0,0,0,0,0,0,0,0,0,0,0,0,0,0,0,0,0,0,0,0,0,0,0,0,0,0,0,0,0,0,0,0,0,0,0,0,0,0,0,0,0],"split_type":[0,0,0,0,0,0,0,0,0,0,0,0,0,0,0,0,0,0,0,0,0,0,0,0,0,0,0,0,0,0,0,0,0,0,0,0,0,0,0,0,0,0,0,0,0,0,0,0,0,0,0,0,0,0,0,0,0,0,0,0,0,0,0,0,0,0,0,0,0,0,0,0,0,0,0,0,0,0,0,0,0,0,0,0,0,0,0,0,0,0,0,0,0,0,0,0,0,0,0,0,0,0,0,0,0,0,0,0,0],"sum_hessian":[2.3659502E3,1.4431165E3,9.228337E2,1.2435262E3,1.9959018E2,5.597674E2,3.630663E2,1.0213046E3,2.2222163E2,1.5721638E2,4.2373787E1,3.3706424E2,2.2270316E2,2.785595E2,8.450682E1,5.1643054E2,5.0487405E2,5.0318874E1,1.7190276E2,1.4614142E2,1.1074967E1,1.8779293E1,2.3594496E1,1.0352687E1,3.2671155E2,2.5520576E1,1.9718257E2,5.5615597E1,2.2294391E2,8.137694E1,3.129882E0,8.932202E1,4.2710852E2,2.9709805E2,2.0777602E2,1.1315727E1,3.9003147E1,1.16287155E2,5.5615597E1,7.102425E1,7.511717E1,3.129882E0,7.9450855E0,1.0111927E1,8.667366E0,8.908126E0,1.468637E1,6.019004E0,4.333683E0,3.129882E1,2.9541272E2,1.5167891E1,1.0352687E1,2.4316776E1,1.728658E2,4.574443E1,9.871166E0,2.0657222E2,1.637169E1,4.1169987E1,4.0206947E1,5.5856358E1,3.3465664E1,3.4669464E2,8.0413895E1,1.4204849E1,2.828932E2,1.4999358E2,5.778244E1,7.463565E0,3.8521626E0,2.2390696E1,1.6612452E1,1.0882359E2,7.463565E0,2.744666E1,2.816894E1,2.6242857E1,4.478139E1,3.8521626E0,4.0929227E0,4.574443E0,5.5374837E0,3.6114025E0,5.0559635E0,5.0559635E0,9.630406E0,2.2149935E1,9.148886E0,5.970852E1,2.357042E2,7.222805E0,7.9450855E0,4.333683E0,6.019004E0,6.4042206E1,1.0882359E2,2.985426E1,1.5890171E1,5.778244E0,4.0929227E0,2.0223854E2,4.333683E0,1.0593447E1,5.778244E0,3.226186E1,8.908126E0,3.129882E1,8.908126E0],"tree_param":{"num_deleted":"0","num_feature":"44","num_nodes":"109","size_leaf_vector":"1"}},{"base_weights":[1.3727628E-2,-4.86843E-1,7.985689E-1,-6.9675285E-1,8.040967E-1,1.0006273E0,4.774152E-1,-5.3035396E-1,-1.4603966E0,1.2800947E0,-6.615651E-1,-2.7420202E-1,1.027747E0,1.1370474E0,2.978595E-1,-2.2778839E-1,-8.395118E-1,-5.757244E-1,-1.7073946E0,1.4219995E0,-4.2374086E-1,-5.14944E-2,-1.1212407E0,5.1498212E-2,-8.7222487E-1,1.1618707E0,8.301959E-1,1.2511207E0,3.4062758E-1,8.216544E-2,1.028163E0,-3.4003958E-1,2.6776665E-1,-5.939716E-1,-1.1945508E0,4.9595624E-1,-9.160296E-1,-2.0104468E0,-1.1299487E0,1.2452E0,7.812532E-2,-7.5262934E-1,1.730166E-2,3.0429578E-1,-4.319496E-1,-8.426145E-2,-9.069168E-1,-1.4484408E-2,-6.0956717E-2,1.0905727E0,6.8987235E-2,1.2375915E0,7.7898663E-1,6.935243E-2,1.0183179E0,-4.8762394E-4,3.3925585E-2,-3.348531E-2,6.6625975E-2,7.253724E-1,6.8404764E-2,-3.9549362E-2,-1.0534009E-2,2.452995E-2,-1.0872356E-2,-2.0864448E-2,-5.7451557E-2,-5.0151385E-2,-8.2331516E-2,4.3977894E-2,-1.4197393E-2,-6.766616E-2,-6.6795754E-3,-1.0248857E-1,-4.3953132E-2,-4.0288534E-2,-9.2165455E-2,3.5087798E-2,6.535434E-2,-5.365113E-2,-1.9600308E-2,-5.7448344E-3,5.2723743E-2,-3.0288595E-5,-3.2688737E-2,-3.3120446E-2,-5.8784254E-2,5.8077104E-2,3.777748E-2,2.4628138E-2,6.6058844E-2,4.0181685E-2,2.4152154E-3,-1.5748823E-4,5.842346E-2,-5.496779E-3,5.4144718E-2,2.583572E-2,6.247149E-2],"categories":[],"categories_nodes":[],"categories_segments":[],"categories_sizes":[],"default_left":[0,0,0,0,0,0,0,0,0,0,0,0,0,0,0,0,0,0,0,0,0,0,0,0,0,0,0,0,0,0,0,0,0,0,0,0,0,0,0,0,0,0,0,0,0,0,0,0,0,0,0,0,0,0,0,0,0,0,0,0,0,0,0,0,0,0,0,0,0,0,0,0,0,0,0,0,0,0,0,0,0,0,0,0,0,0,0,0,0,0,0,0,0,0,0,0,0,0,0],"id":1,"left_children":[1,3,5,7,9,11,13,15,17,19,21,23,25,27,29,31,33,35,37,39,41,43,45,-1,47,49,51,53,55,57,59,61,63,65,67,69,71,73,75,77,-1,79,-1,81,83,-1,85,-1,-1,87,-1,89,91,-1,93,-1,-1,95,-1,97,-1,-1,-1,-1,-1,-1,-1,-1,-1,-1,-1,-1,-1,-1,-1,-1,-1,-1,-1,-1,-1,-1,-1,-1,-1,-1,-1,-1,-1,-1,-1,-1,-1,-1,-1,-1,-1,-1,-1],"loss_changes":[9.3677106E2,3.9503592E2,5.9632935E1,1.5821509E2,1.4323177E2,2.0025085E1,4.2241478E1,9.607745E1,4.761786E1,3.8029633E1,1.4020336E1,1.0680297E1,1.3603088E1,6.3834457E0,4.470005E1,2.9148787E1,4.3490173E1,1.886611E1,2.787967E1,1.3209534E0,3.4873917E0,3.2430406E0,1.6847343E0,0E0,1.3565698E0,3.3611755E0,3.6154327E0,4.5490265E-1,1.3869208E0,3.2163795E1,5.467201E0,2.4606777E1,1.0604862E1,2.9088287E1,1.6003693E1,4.1140795E0,1.289555E1,2.92276E0,1.2660797E1,1.1847076E0,0E0,4.9862385E-1,0E0,4.0770454E0,1.0452471E0,0E0,5.5607414E-1,0E0,0E0,4.9487E0,0E0,6.421089E-1,3.5948944E0,0E0,4.504982E0,0E0,0E0,1.7380785E1,0E0,3.174736E0,0E0,0E0,0E0,0E0,0E0,0E0,0E0,0E0,0E0,0E0,0E0,0E0,0E0,0E0,0E0,0E0,0E0,0E0,0E0,0E0,0E0,0E0,0E0,0E0,0E0,0E0,0E0,0E0,0E0,0E0,0E0,0E0,0E0,0E0,0E0,0E0,0E0,0E0,0E0],"parents":[2147483647,0,0,1,1,2,2,3,3,4,4,5,5,6,6,7,7,8,8,9,9,10,10,11,11,12,12,13,13,14,14,15,15,16,16,17,17,18,18,19,19,20,20,21,21,22,22,24,24,25,25,26,26,27,27,28,28,29,29,30,30,31,31,32,32,33,33,34,34,35,35,36,36,37,37,38,38,39,39,41,41,43,43,44,44,46,46,49,49,51,51,52,52,54,54,57,57,59,59],"right_children":[2,4,6,8,10,12,14,16,18,20,22,24,26,28,30,32,34,36,38,40,42,44,46,-1,48,50,52,54,56,58,60,62,64,66,68,70,72,74,76,78,-1,80,-1,82,84,-1,86,-1,-1,88,-1,90,92,-1,94,-1,-1,96,-1,98,-1,-1,-1,-1,-1,-1,-1,-1,-1,-1,-1,-1,-1,-1,-1,-1,-1,-1,-1,-1,-1,-1,-1,-1,-1,-1,-1,-1,-1,-1,-1,-1,-1,-1,-1,-1,-1,-1,-1],"split_conditions":[1E0,1E0,2E0,1E0,9.5E1,5E-1,-5E-1,2.5881904E-1,0E0,2.4E2,-7.0710677E-1,2.5E-1,1E0,9.5E1,1E0,1E0,6.234898E-1,-5E-1,9.5E1,1E0,5E-1,2.5881904E-1,-7.0710677E-1,5.1498212E-2,6.123234E-17,-5E-1,-7.0710677E-1,-7.0710677E-1,5E-1,1E0,1E0,-5E-1,-2.5881904E-1,1E0,8.660254E-1,9.3E1,5E-1,1E0,8.660254E-1,1.6E1,7.812532E-2,-5E-1,1.730166E-2,5E-1,1.07E2,-8.426145E-2,5E-1,-1.4484408E-2,-6.0956717E-2,7.0710677E-1,6.8987235E-2,-9.659258E-1,1.07E2,6.935243E-2,-8.660254E-1,-4.8762394E-4,3.3925585E-2,1E0,6.6625975E-2,8.660254E-1,6.8404764E-2,-3.9549362E-2,-1.0534009E-2,2.452995E-2,-1.0872356E-2,-2.0864448E-2,-5.7451557E-2,-5.0151385E-2,-8.2331516E-2,4.3977894E-2,-1.4197393E-2,-6.766616E-2,-6.6795754E-3,-1.0248857E-1,-4.3953132E-2,-4.0288534E-2,-9.2165455E-2,3.5087798E-2,6.535434E-2,-5.365113E-2,-1.9600308E-2,-5.7448344E-3,5.2723743E-2,-3.0288595E-5,-3.2688737E-2,-3.3120446E-2,-5.8784254E-2,5.8077104E-2,3.777748E-2,2.4628138E-2,6.6058844E-2,4.0181685E-2,2.4152154E-3,-1.5748823E-4,5.842346E-2,-5.496779E-3,5.4144718E-2,2.583572E-2,6.247149E-2],"split_indices":[1,37,0,35,43,0,6,6,4,0,7,0,9,43,32,10,5,6,43,20,6,6,6,0,3,7,6,6,3,37,10,3,6,18,6,43,3,3,6,43,0,6,0,3,43,0,3,0,0,6,0,6,43,0,3,0,0,19,0,3,0,0,0,0,0,0,0,0,0,0,0,0,0,0,0,0,0,0,0,0,0,0,0,0,0,0,0,0,0,0,0,0,0,0,0,0,0,0,0],"split_type":[0,0,0,0,0,0,0,0,0,0,0,0,0,0,0,0,0,0,0,0,0,0,0,0,0,0,0,0,0,0,0,0,0,0,0,0,0,0,0,0,0,0,0,0,0,0,0,0,0,0,0,0,0,0,0,0,0,0,0,0,0,0,0,0,0,0,0,0,0,0,0,0,0,0,0,0,0,0,0,0,0,0,0,0,0,0,0,0,0,0,0,0,0,0,0,0,0,0,0],"sum_hessian":[2.3823706E3,1.4547717E3,9.2759894E2,1.2517688E3,2.0300284E2,5.678814E2,3.5971756E2,1.029307E3,2.2246176E2,1.5338376E2,4.961909E1,1.1562436E1,5.56319E2,7.570634E1,2.840112E2,5.212409E2,5.0806616E2,4.9369804E1,1.7309195E2,1.4179814E2,1.1585616E1,2.1892906E1,2.7726185E1,3.3554285E0,8.207008E0,3.28144E2,2.2817494E2,6.561206E1,1.0094276E1,2.2021922E2,6.3791992E1,4.2539722E2,9.58437E1,3.0209555E2,2.059706E2,1.1717647E1,3.765216E1,1.1177565E2,6.13163E1,6.7472115E1,7.432602E1,8.224047E0,3.3615696E0,1.128079E1,1.0612117E1,5.6166167E0,2.2109568E1,3.8557222E0,4.351286E0,2.5210776E2,7.603626E1,2.2673748E1,2.0550119E2,3.8023464E1,2.7588594E1,5.286963E0,4.8073134E0,2.023923E2,1.7826914E1,3.5552284E1,2.8239706E1,9.351515E1,3.3188208E2,6.581393E1,3.0029768E1,2.3061862E2,7.1476944E1,1.4709418E2,5.8876415E1,7.8546987E0,3.8629477E0,2.3603226E1,1.4048935E1,1.0715117E2,4.624485E0,4.371862E1,1.759768E1,8.324811E0,5.9147305E1,3.162012E0,5.0620346E0,7.6946416E0,3.5861487E0,4.097661E0,6.5144553E0,1.3586305E1,8.523263E0,2.0575604E2,4.6351707E1,3.1031818E0,1.9570566E1,1.9856653E2,6.9346647E0,3.5757906E0,2.4012802E1,1.9034825E2,1.204405E1,2.6984844E1,8.567441E0],"tree_param":{"num_deleted":"0","num_feature":"44","num_nodes":"99","size_leaf_vector":"1"}},{"base_weights":[-1.150569E-2,-5.034073E-1,7.792578E-1,-7.0439106E-1,7.772242E-1,5.303114E-1,9.731386E-1,-5.504282E-1,-1.3944792E0,1.234426E0,-8.655515E-1,4.054133E-1,7.2691806E-2,1.0934311E0,8.048355E-1,-1.9237596E-1,-8.010622E-1,-5.516084E-1,-1.6148055E0,9.452965E-1,7.5490035E-2,-4.8680124E-1,-6.8711184E-2,1.9391043E-1,1.1082412E0,6.8280675E-2,1.0264006E0,3.8122234E-1,8.5958594E-1,3.8491878E-1,-3.0892402E-1,-5.8459234E-1,-1.1089091E0,6.3394034E-1,-9.400114E-1,-1.8821435E0,-1.0736091E0,1.1957531E0,8.466331E-2,-4.9320836E-2,-9.756302E-1,9.955322E-1,-1.3955727E-2,6.681402E-2,8.45415E-1,7.190003E-1,1.1684301E0,1.7007293E-1,5.7168175E-2,6.6501096E-2,7.8547907E-1,2.6302822E-3,4.5388233E-2,-1.2693636E-2,-5.4011203E-2,-2.0715792E-2,-5.3582706E-2,-5.9072655E-2,-6.948626E-5,5.38094E-2,-1.3604851E-2,-6.421585E-2,-1.4436493E-2,-9.5762275E-2,-4.5090936E-2,-3.1572435E-2,-7.503742E-2,4.770718E-2,7.264632E-2,-4.8020016E-2,3.7615996E-2,6.8928413E-3,-2.1837462E-2,-6.296482E-2,-2.1305418E-2,5.9074905E-2,3.5636578E-2,-3.9900374E-3,4.9452107E-2,1.9762244E-2,5.6717496E-2,2.666089E-2,5.961088E-2,6.82754E-2,4.6221264E-2,-0E0,4.0990524E-2,4.1882798E-2,1.2847005E-2],"categories":[],"categories_nodes":[],"categories_segments":[],"categories_sizes":[],"default_left":[0,0,0,0,0,0,0,0,0,0,0,0,0,0,0,0,0,0,0,0,0,0,0,0,0,0,0,0,0,0,0,0,0,0,0,0,0,0,0,0,0,0,0,0,0,0,0,0,0,0,0,0,0,0,0,0,0,0,0,0,0,0,0,0,0,0,0,0,0,0,0,0,0,0,0,0,0,0,0,0,0,0,0,0,0,0,0,0,0],"id":2,"left_children":[1,3,5,7,9,11,13,15,17,19,21,23,-1,25,27,29,31,33,35,37,-1,39,-1,41,43,-1,45,47,49,51,53,55,57,59,61,63,65,67,69,71,73,75,77,-1,79,81,83,85,-1,-1,87,-1,-1,-1,-1,-1,-1,-1,-1,-1,-1,-1,-1,-1,-1,-1,-1,-1,-1,-1,-1,-1,-1,-1,-1,-1,-1,-1,-1,-1,-1,-1,-1,-1,-1,-1,-1,-1,-1],"loss_changes":[9.1950446E2,3.7566818E2,4.3087097E1,1.3294629E2,1.4990475E2,4.5284355E1,9.218872E0,9.237729E1,4.1443024E1,1.0703323E1,7.5589676E0,5.2162216E1,0E0,3.709015E0,4.5569916E0,2.8807735E1,3.9613007E1,2.3233265E1,2.3875824E1,1.6729958E1,0E0,5.5581384E0,0E0,4.557548E1,3.5300293E0,0E0,9.432434E0,3.9746928E0,5.3759003E0,1.2356261E1,1.4689922E1,2.914183E1,1.9900116E1,5.441522E0,7.8687744E0,1.8762207E0,1.0607071E1,2.1493988E0,1.3890132E1,1.1958848E0,1.2349958E0,1.9290619E0,1.435529E1,0E0,4.697178E0,6.096966E0,6.3020935E0,2.4266183E0,0E0,0E0,4.2800446E0,0E0,0E0,0E0,0E0,0E0,0E0,0E0,0E0,0E0,0E0,0E0,0E0,0E0,0E0,0E0,0E0,0E0,0E0,0E0,0E0,0E0,0E0,0E0,0E0,0E0,0E0,0E0,0E0,0E0,0E0,0E0,0E0,0E0,0E0,0E0,0E0,0E0,0E0],"parents":[2147483647,0,0,1,1,2,2,3,3,4,4,5,5,6,6,7,7,8,8,9,9,10,10,11,11,13,13,14,14,15,15,16,16,17,17,18,18,19,19,21,21,23,23,24,24,26,26,27,27,28,28,29,29,30,30,31,31,32,32,33,33,34,34,35,35,36,36,37,37,38,38,39,39,40,40,41,41,42,42,44,44,45,45,46,46,47,47,50,50],"right_children":[2,4,6,8,10,12,14,16,18,20,22,24,-1,26,28,30,32,34,36,38,-1,40,-1,42,44,-1,46,48,50,52,54,56,58,60,62,64,66,68,70,72,74,76,78,-1,80,82,84,86,-1,-1,88,-1,-1,-1,-1,-1,-1,-1,-1,-1,-1,-1,-1,-1,-1,-1,-1,-1,-1,-1,-1,-1,-1,-1,-1,-1,-1,-1,-1,-1,-1,-1,-1,-1,-1,-1,-1,-1,-1],"split_conditions":[1E0,1E0,2E0,1E0,1E0,1E0,1E0,1.2246469E-16,0E0,1.2246469E-16,-5E-1,1E0,7.2691806E-2,-5E-1,-8.660254E-1,0E0,6.234898E-1,-5E-1,1E0,8.660254E-1,7.5490035E-2,-2.4492937E-16,-6.8711184E-2,-5E-1,1E0,6.8280675E-2,2.5881904E-1,9.749279E-1,-5E-1,1E0,-1.8369701E-16,1E0,1E0,1E0,5E-1,1E0,5E-1,1E0,-2.5881904E-1,5E-1,6.234898E-1,-7.0710677E-1,1E0,6.681402E-2,-1.8369701E-16,8.660254E-1,7.0710677E-1,-5E-1,5.7168175E-2,6.6501096E-2,8.660254E-1,2.6302822E-3,4.5388233E-2,-1.2693636E-2,-5.4011203E-2,-2.0715792E-2,-5.3582706E-2,-5.9072655E-2,-6.948626E-5,5.38094E-2,-1.3604851E-2,-6.421585E-2,-1.4436493E-2,-9.5762275E-2,-4.5090936E-2,-3.1572435E-2,-7.503742E-2,4.770718E-2,7.264632E-2,-4.8020016E-2,3.7615996E-2,6.8928413E-3,-2.1837462E-2,-6.296482E-2,-2.1305418E-2,5.9074905E-2,3.5636578E-2,-3.9900374E-3,4.9452107E-2,1.9762244E-2,5.6717496E-2,2.666089E-2,5.961088E-2,6.82754E-2,4.6221264E-2,-0E0,4.0990524E-2,4.1882798E-2,1.2847005E-2],"split_indices":[1,37,1,35,26,37,9,6,4,2,7,32,0,6,2,4,5,6,26,3,0,2,0,6,11,0,6,4,2,32,7,18,36,26,3,3,6,20,6,6,5,6,19,0,3,3,6,7,0,0,6,0,0,0,0,0,0,0,0,0,0,0,0,0,0,0,0,0,0,0,0,0,0,0,0,0,0,0,0,0,0,0,0,0,0,0,0,0,0],"split_type":[0,0,0,0,0,0,0,0,0,0,0,0,0,0,0,0,0,0,0,0,0,0,0,0,0,0,0,0,0,0,0,0,0,0,0,0,0,0,0,0,0,0,0,0,0,0,0,0,0,0,0,0,0,0,0,0,0,0,0,0,0,0,0,0,0,0,0,0,0,0,0,0,0,0,0,0,0,0,0,0,0,0,0,0,0,0,0,0,0],"sum_hessian":[2.361962E3,1.4564523E3,9.055096E2,1.2593384E3,1.9711397E2,3.9831586E2,5.071937E2,1.0312113E3,2.28127E2,1.5444089E2,4.2673084E1,3.5222763E2,4.6088223E1,2.9223288E2,2.149608E2,4.2550595E2,6.057054E2,4.8094864E1,1.8003214E2,7.767841E1,7.6762474E1,2.5694733E1,1.697835E1,2.718405E2,8.0387115E1,5.3623955E1,2.3860893E2,2.5723473E1,1.8923734E2,7.094334E1,3.545626E2,3.5752615E2,2.4817924E2,1.1648803E1,3.6446064E1,1.187232E2,6.1308945E1,5.9776894E1,1.7901518E1,1.4248457E1,1.1446275E1,5.529415E1,2.1654636E2,4.0651447E1,3.973567E1,7.754389E1,1.6106505E2,2.1203463E1,4.520009E0,2.326331E1,1.6597403E2,4.416475E1,2.677859E1,3.3230334E2,2.2259254E1,2.6643616E2,9.1090004E1,2.327751E2,1.5404143E1,7.7758784E0,3.872924E0,2.3105576E1,1.3340487E1,1.1382408E2,4.8991117E0,3.1457556E1,2.9851387E1,3.3450104E1,2.6326788E1,6.749101E0,1.1152416E1,9.8673315E0,4.381126E0,6.577393E0,4.868882E0,3.1227755E1,2.4066397E1,2.0416353E2,1.2382832E1,1.6594664E1,2.3141003E1,5.7362003E1,2.0181892E1,8.633107E1,7.473397E1,1.763733E1,3.566134E0,1.5035687E2,1.5617145E1],"tree_param":{"num_deleted":"0","num_feature":"44","num_nodes":"89","size_leaf_vector":"1"}},{"base_weights":[1.9842768E-3,-4.6327817E-1,7.499638E-1,-6.4792377E-1,7.504375E-1,9.528153E-1,4.346837E-1,-4.950241E-1,-1.3144703E0,1.170497E0,-7.845026E-1,-1.7959426E-1,9.7558826E-1,2.5403377E-1,1.0329728E0,-2.2314332E-1,-7.663858E-1,-5.379438E-1,-1.5218168E0,1.3064657E0,-4.6234086E-1,-2.3576918E-1,-1.1609455E0,4.367125E-2,-5.9815574E-2,1.0955927E0,7.9944056E-1,9.967867E-1,6.2443893E-2,1.1102271E0,-3.422458E-2,-3.2992512E-1,2.453088E-1,-5.2726173E-1,-1.0940146E0,5.460959E-1,-8.7874717E-1,-1.7911716E0,-1.001901E0,1.089633E0,7.393919E-2,3.504799E-2,-9.3387043E-1,2.7739257E-1,-1.0566385E0,-7.232054E-1,-6.6365324E-2,1.3477802E0,1.0270872E0,6.2537976E-2,7.428694E-1,1.0923955E0,-2.3536194E-2,-3.628931E-2,1.2267449E0,6.685578E-2,8.508823E-1,-4.1844383E-2,-8.9847455E-3,1.5791511E-2,-5.6309808E-2,3.0133242E-2,-2.9159931E-2,-4.936773E-2,-7.7944934E-2,4.2491335E-2,-7.4073686E-3,-6.482222E-2,-9.361594E-3,-4.8681762E-2,-9.067914E-2,-3.6552638E-2,-7.894795E-2,3.407735E-2,7.110592E-2,-7.342803E-2,-5.88203E-3,4.835246E-2,-2.8698805E-3,-7.4049436E-2,-1.7539727E-2,-6.6369236E-2,-2.23172E-3,2.6750743E-2,7.125465E-2,6.281776E-2,4.8397716E-2,1.45713305E-2,3.9799538E-2,3.557382E-2,6.2437665E-2,-5.420721E-3,5.0988834E-2,7.0428915E-2,3.361856E-2,6.331571E-2,2.9267875E-2],"categories":[],"categories_nodes":[],"categories_segments":[],"categories_sizes":[],"default_left":[0,0,0,0,0,0,0,0,0,0,0,0,0,0,0,0,0,0,0,0,0,0,0,0,0,0,0,0,0,0,0,0,0,0,0,0,0,0,0,0,0,0,0,0,0,0,0,0,0,0,0,0,0,0,0,0,0,0,0,0,0,0,0,0,0,0,0,0,0,0,0,0,0,0,0,0,0,0,0,0,0,0,0,0,0,0,0,0,0,0,0,0,0,0,0,0,0],"id":3,"left_children":[1,3,5,7,9,11,13,15,17,19,21,23,25,27,29,31,33,35,37,39,41,43,45,-1,-1,47,49,51,53,55,-1,57,59,61,63,65,67,69,71,73,-1,-1,75,77,79,81,-1,83,85,-1,87,89,-1,91,93,-1,95,-1,-1,-1,-1,-1,-1,-1,-1,-1,-1,-1,-1,-1,-1,-1,-1,-1,-1,-1,-1,-1,-1,-1,-1,-1,-1,-1,-1,-1,-1,-1,-1,-1,-1,-1,-1,-1,-1,-1,-1],"loss_changes":[8.2052515E2,3.2621027E2,5.72771E1,1.27801025E2,1.2495499E2,1.4417419E1,3.8090347E1,7.560191E1,3.677719E1,3.4311646E1,8.235392E0,1.3479783E1,1.0319885E1,3.8954712E1,1.1698097E1,2.5865509E1,3.953665E1,1.940171E1,2.3785095E1,3.3673706E0,7.4378552E0,8.121386E0,6.170273E-1,0E0,0E0,3.86026E0,4.5467987E0,8.461681E0,2.5422028E1,3.2932281E0,0E0,3.175383E1,9.565109E0,1.9266037E1,8.906372E0,2.889935E0,1.0975349E1,1.5853882E-1,8.838333E0,7.7895126E0,0E0,0E0,3.7096043E0,2.9260533E0,1.5019312E0,3.5349488E0,0E0,3.0800705E0,2.0056763E0,0E0,4.4599915E0,2.0798035E0,0E0,1.5515249E1,5.8711815E-1,0E0,3.4669704E0,0E0,0E0,0E0,0E0,0E0,0E0,0E0,0E0,0E0,0E0,0E0,0E0,0E0,0E0,0E0,0E0,0E0,0E0,0E0,0E0,0E0,0E0,0E0,0E0,0E0,0E0,0E0,0E0,0E0,0E0,0E0,0E0,0E0,0E0,0E0,0E0,0E0,0E0,0E0,0E0],"parents":[2147483647,0,0,1,1,2,2,3,3,4,4,5,5,6,6,7,7,8,8,9,9,10,10,11,11,12,12,13,13,14,14,15,15,16,16,17,17,18,18,19,19,20,20,21,21,22,22,25,25,26,26,27,27,28,28,29,29,31,31,32,32,33,33,34,34,35,35,36,36,37,37,38,38,39,39,42,42,43,43,44,44,45,45,47,47,48,48,50,50,51,51,53,53,54,54,56,56],"right_children":[2,4,6,8,10,12,14,16,18,20,22,24,26,28,30,32,34,36,38,40,42,44,46,-1,-1,48,50,52,54,56,-1,58,60,62,64,66,68,70,72,74,-1,-1,76,78,80,82,-1,84,86,-1,88,90,-1,92,94,-1,96,-1,-1,-1,-1,-1,-1,-1,-1,-1,-1,-1,-1,-1,-1,-1,-1,-1,-1,-1,-1,-1,-1,-1,-1,-1,-1,-1,-1,-1,-1,-1,-1,-1,-1,-1,-1,-1,-1,-1,-1],"split_conditions":[1E0,1E0,2E0,1E0,1E0,5E-1,1E0,2.5881904E-1,0E0,2.4E2,-7.0710677E-1,-2.4492937E-16,1E0,-5E-1,9.7E1,1E0,6.234898E-1,-5E-1,9.3E1,1.2246469E-16,-5E-1,1.2246469E-16,-5E-1,4.367125E-2,-5.9815574E-2,7.5E-1,-7.0710677E-1,1E0,1E0,1E0,-3.422458E-2,-5E-1,1E0,-7.818315E-1,1E0,1E0,5E-1,-9.659258E-1,8.660254E-1,2.4E1,7.393919E-2,3.504799E-2,1.2246469E-16,1.2246469E-16,-1.8369701E-16,1.07E2,-6.6365324E-2,-9.659258E-1,-5E-1,6.2537976E-2,-8.660254E-1,-5E-1,-2.3536194E-2,1E0,5E-1,6.685578E-2,2.5881904E-1,-4.1844383E-2,-8.9847455E-3,1.5791511E-2,-5.6309808E-2,3.0133242E-2,-2.9159931E-2,-4.936773E-2,-7.7944934E-2,4.2491335E-2,-7.4073686E-3,-6.482222E-2,-9.361594E-3,-4.8681762E-2,-9.067914E-2,-3.6552638E-2,-7.894795E-2,3.407735E-2,7.110592E-2,-7.342803E-2,-5.88203E-3,4.835246E-2,-2.8698805E-3,-7.4049436E-2,-1.7539727E-2,-6.6369236E-2,-2.23172E-3,2.6750743E-2,7.125465E-2,6.281776E-2,4.8397716E-2,1.45713305E-2,3.9799538E-2,3.557382E-2,6.2437665E-2,-5.420721E-3,5.0988834E-2,7.0428915E-2,3.361856E-2,6.331571E-2,2.9267875E-2],"split_indices":[1,37,0,35,26,0,32,6,4,0,7,2,9,6,43,10,5,6,43,2,2,2,7,0,0,0,6,26,37,11,0,3,3,4,26,26,3,6,6,0,0,0,6,6,3,43,0,7,6,0,2,3,0,19,3,0,6,0,0,0,0,0,0,0,0,0,0,0,0,0,0,0,0,0,0,0,0,0,0,0,0,0,0,0,0,0,0,0,0,0,0,0,0,0,0,0,0],"split_type":[0,0,0,0,0,0,0,0,0,0,0,0,0,0,0,0,0,0,0,0,0,0,0,0,0,0,0,0,0,0,0,0,0,0,0,0,0,0,0,0,0,0,0,0,0,0,0,0,0,0,0,0,0,0,0,0,0,0,0,0,0,0,0,0,0,0,0,0,0,0,0,0,0,0,0,0,0,0,0,0,0,0,0,0,0,0,0,0,0,0,0,0,0,0,0,0,0],"sum_hessian":[2.3557043E3,1.4524747E3,9.0322955E2,1.2611598E3,1.9131487E2,5.481865E2,3.5504306E2,1.0273807E3,2.3377905E2,1.5044571E2,4.086916E1,1.0584477E1,5.3760205E2,2.7392477E2,8.111827E1,5.142939E2,5.130869E2,5.0126957E1,1.836521E2,1.3912195E2,1.1323759E1,1.7398968E1,2.347019E1,5.2203326E0,5.364145E0,3.1631683E2,2.2128522E2,5.520031E1,2.1872447E2,7.802057E1,3.0977E0,4.1923917E2,9.505472E1,2.982904E2,2.147965E2,1.1775433E1,3.8351524E1,1.19239685E2,6.441241E1,6.510374E1,7.401821E1,3.0645733E0,8.259186E0,1.1038541E1,6.3604283E0,8.101443E0,1.5368746E1,6.326976E1,2.5304707E2,2.2099617E1,1.991856E2,5.2127914E1,3.0723965E0,2.0244038E2,1.6284084E1,3.919201E1,3.8828564E1,9.46385E1,3.2460068E2,9.120755E1,3.8471692E0,1.3524912E1,2.847655E2,1.774276E2,3.736889E1,8.135914E0,3.6395183E0,2.3273932E1,1.5077593E1,4.4864144E0,1.1475327E2,4.549772E1,1.8914688E1,3.073312E1,3.437062E1,4.433322E0,3.8258636E0,3.0878475E0,7.950693E0,3.197968E0,3.16246E0,3.7018821E0,4.3995614E0,6.2959495E0,5.6973812E1,4.7386093E1,2.0566098E2,2.185167E1,1.7733392E2,1.6971575E1,3.5156338E1,1.9042702E2,1.2013375E1,1.09660225E1,5.3180614E0,1.3523853E1,2.530471E1],"tree_param":{"num_deleted":"0","num_feature":"44","num_nodes":"97","size_leaf_vector":"1"}},{"base_weights":[-6.769606E-3,-4.3488598E-1,6.9921446E-1,-5.683197E-1,9.7086316E-1,9.1980976E-1,3.635274E-1,-6.469221E-1,1.0618908E0,1.1134487E0,-4.6832395E-1,-2.1062954E-1,9.4264805E-1,2.5070485E-1,6.4566694E-2,-5.155571E-1,-1.2490739E0,7.067035E-1,7.256027E-2,1.286781E0,9.775499E-2,-4.0911656E-2,5.2368594E-4,4.05291E-2,-5.6886464E-2,1.067125E0,7.537908E-1,9.252016E-1,8.322539E-2,-2.3837237E-1,-7.9208744E-1,-5.2901703E-1,-1.4462328E0,9.558288E-1,-2.4311462E-2,1.3874267E0,-1.286409E-2,4.4569013E-1,-4.9086787E-2,1.2901194E0,1.0065104E0,1.9061011E-1,8.3325386E-1,1.0460697E0,-3.2433733E-2,4.9392874E-3,1.144137E0,-1.731094E-2,1.2386743E-2,3.3927068E-2,-4.196809E-2,2.6032275E-2,-4.1323178E-2,-8.512776E-2,-4.3422073E-2,5.559624E-2,3.6642678E-2,7.415991E-2,5.0901957E-2,3.765882E-2,-9.2906235E-3,6.612072E-2,3.59605E-2,3.764392E-2,5.605446E-2,2.8404374E-2,-1.823027E-2,4.4613235E-2,5.9416806E-3,5.7905685E-2,2.2368474E-2,2.3774889E-3,-8.745409E-2,6.85915E-2,2.8104251E-2],"categories":[],"categories_nodes":[],"categories_segments":[],"categories_sizes":[],"default_left":[0,0,0,0,0,0,0,0,0,0,0,0,0,0,0,0,0,0,0,0,0,0,0,0,0,0,0,0,0,0,0,0,0,0,0,0,0,0,0,0,0,0,0,0,0,0,0,0,0,0,0,0,0,0,0,0,0,0,0,0,0,0,0,0,0,0,0,0,0,0,0,0,0,0,0],"id":4,"left_children":[1,3,5,7,9,11,13,15,17,19,21,23,25,27,-1,29,31,33,-1,35,37,-1,-1,-1,-1,39,41,43,45,47,49,51,53,55,-1,57,-1,59,-1,61,63,65,67,69,-1,71,73,-1,-1,-1,-1,-1,-1,-1,-1,-1,-1,-1,-1,-1,-1,-1,-1,-1,-1,-1,-1,-1,-1,-1,-1,-1,-1,-1,-1],"loss_changes":[7.117048E2,2.7549033E2,6.535748E1,1.7229742E2,2.6727577E1,1.4097992E1,3.661023E1,1.0032233E2,7.3234634E0,2.0204895E1,2.1205695E0,1.16874075E1,1.136026E1,3.565815E1,0E0,8.030487E1,3.1427185E1,1.075655E1,0E0,1.58785095E1,7.1879435E0,0E0,0E0,0E0,0E0,2.7137756E0,9.2428055E0,1.2680786E1,2.1087347E1,2.770968E1,3.7137726E1,1.6299076E1,2.4689117E1,7.3432922E-3,0E0,1.5406036E0,0E0,3.0040333E0,0E0,9.498596E-3,6.2820435E0,6.0353665E0,7.6199646E0,3.2684479E0,0E0,1.7767828E1,1.348896E0,0E0,0E0,0E0,0E0,0E0,0E0,0E0,0E0,0E0,0E0,0E0,0E0,0E0,0E0,0E0,0E0,0E0,0E0,0E0,0E0,0E0,0E0,0E0,0E0,0E0,0E0,0E0,0E0],"parents":[2147483647,0,0,1,1,2,2,3,3,4,4,5,5,6,6,7,7,8,8,9,9,10,10,11,11,12,12,13,13,15,15,16,16,17,17,19,19,20,20,25,25,26,26,27,27,28,28,29,29,30,30,31,31,32,32,33,33,35,35,37,37,39,39,40,40,41,41,42,42,43,43,45,45,46,46],"right_children":[2,4,6,8,10,12,14,16,18,20,22,24,26,28,-1,30,32,34,-1,36,38,-1,-1,-1,-1,40,42,44,46,48,50,52,54,56,-1,58,-1,60,-1,62,64,66,68,70,-1,72,74,-1,-1,-1,-1,-1,-1,-1,-1,-1,-1,-1,-1,-1,-1,-1,-1,-1,-1,-1,-1,-1,-1,-1,-1,-1,-1,-1,-1],"split_conditions":[1E0,2.4E1,2E0,1E0,2.4E2,5E-1,1E0,1E0,-2.4492937E-16,1E0,1.2246469E-16,-2.4492937E-16,1E0,-5E-1,6.4566694E-2,2.5881904E-1,0E0,6.123234E-17,7.256027E-2,1E0,8.660254E-1,-4.0911656E-2,5.2368594E-4,4.05291E-2,-5.6886464E-2,-5E-1,-8.660254E-1,1E0,1E0,1E0,-7.818315E-1,-5E-1,1.06E2,5.2E1,-2.4311462E-2,8.660254E-1,-1.286409E-2,5E-1,-4.9086787E-2,1E0,2.5881904E-1,6.6E1,8.660254E-1,7.2E1,-3.2433733E-2,3E0,5E-1,-1.731094E-2,1.2386743E-2,3.3927068E-2,-4.196809E-2,2.6032275E-2,-4.1323178E-2,-8.512776E-2,-4.3422073E-2,5.559624E-2,3.6642678E-2,7.415991E-2,5.0901957E-2,3.765882E-2,-9.2906235E-3,6.612072E-2,3.59605E-2,3.764392E-2,5.605446E-2,2.8404374E-2,-1.823027E-2,4.4613235E-2,5.9416806E-3,5.7905685E-2,2.2368474E-2,2.3774889E-3,-8.745409E-2,6.85915E-2,2.8104251E-2],"split_indices":[1,0,0,21,0,0,10,35,2,13,6,2,9,6,0,6,4,3,0,12,2,0,0,0,0,6,2,26,37,10,4,6,43,43,0,3,0,6,0,10,6,43,6,43,0,0,3,0,0,0,0,0,0,0,0,0,0,0,0,0,0,0,0,0,0,0,0,0,0,0,0,0,0,0,0],"split_type":[0,0,0,0,0,0,0,0,0,0,0,0,0,0,0,0,0,0,0,0,0,0,0,0,0,0,0,0,0,0,0,0,0,0,0,0,0,0,0,0,0,0,0,0,0,0,0,0,0,0,0,0,0,0,0,0,0,0,0,0,0,0,0,0,0,0,0,0,0,0,0,0,0,0,0],"sum_hessian":[2.3528223E3,1.4649727E3,8.878497E2,1.3385814E3,1.2639129E2,5.345406E2,3.5330908E2,1.277643E3,6.093847E1,1.15267166E2,1.1124123E1,1.0335939E1,5.2420465E2,3.1623276E2,3.7076336E1,1.0504908E3,2.2715207E2,3.347238E1,2.746609E1,9.81518E1,1.7115362E1,6.1382E0,4.9859223E0,4.9268126E0,5.409127E0,3.1283408E2,2.1137056E2,6.1883896E1,2.5434885E2,5.257352E2,5.247557E2,4.972794E1,1.7742413E2,2.7923567E1,5.548814E0,9.230157E1,5.8502316E0,1.3457564E1,3.6577978E0,6.217291E1,2.5066118E2,2.671188E1,1.8465868E2,5.784082E1,4.043077E0,2.378933E2,1.6455555E1,4.3067935E2,9.505587E1,1.5861466E1,5.088942E2,1.0740189E1,3.898775E1,1.2143352E2,5.5990612E1,1.3816177E1,1.4107389E1,7.068818E1,2.1613392E1,9.0275955E0,4.429968E0,5.743259E1,4.7403164E0,8.062753E1,1.7003365E2,1.5994524E1,1.0717356E1,1.7021045E2,1.4448223E1,4.7794827E1,1.0045991E1,2.3325668E2,4.636609E0,1.0729563E1,5.7259917E0],"tree_param":{"num_deleted":"0","num_feature":"44","num_nodes":"75","size_leaf_vector":"1"}},{"base_weights":[1.4203227E-3,-4.1187105E-1,6.95963E-1,-5.771288E-1,6.8883365E-1,8.8068306E-1,4.096243E-1,-4.3787378E-1,-1.2088751E0,1.1590025E0,-7.872775E-1,-1.9529046E-1,9.03495E-1,3.083157E-1,6.1561555E-2,-1.1246086E-1,-6.6600394E-1,-5.157207E-1,-1.3952467E0,1.265263E0,-7.134325E-2,-2.7285007E-1,-1.0968621E0,-5.006286E-2,2.7239999E-2,5.877511E-2,8.2673836E-1,8.815335E-1,1.7654482E-1,4.6392187E-1,-2.31412E-1,-6.942219E-1,1.123799E0,6.170884E-1,-8.099741E-1,-1.6485887E0,-9.0482426E-1,1.1039772E0,6.915895E-2,-4.2018373E-2,3.3437026E-1,-5.420212E-2,3.640936E-2,-6.947383E-1,-6.275391E-2,1.1890944E0,7.8144556E-1,1.138979E0,-2.4818077E-3,1.1034185E-1,1.1465378E0,2.8129179E-2,-2.2538397E-2,2.5584192E-3,-2.2204269E-2,-1.399985E-2,-4.032664E-2,2.6165763E-2,7.0232406E-2,4.114943E-2,2.722781E-3,-6.0197897E-2,-8.777234E-3,-4.3127123E-2,-8.355475E-2,-3.3510547E-2,-6.9808714E-2,2.5717268E-2,5.863432E-2,-4.888888E-3,3.514194E-2,2.9419353E-2,-8.430968E-3,-5.6922715E-2,-1.041614E-2,1.6734893E-2,6.476252E-2,5.801804E-2,3.6536727E-2,6.0516525E-2,2.7596215E-2,-1.891004E-2,2.5858855E-2,-1.661205E-2,1.1574018E-2,6.6632055E-2,2.9796569E-2],"categories":[],"categories_nodes":[],"categories_segments":[],"categories_sizes":[],"default_left":[0,0,0,0,0,0,0,0,0,0,0,0,0,0,0,0,0,0,0,0,0,0,0,0,0,0,0,0,0,0,0,0,0,0,0,0,0,0,0,0,0,0,0,0,0,0,0,0,0,0,0,0,0,0,0,0,0,0,0,0,0,0,0,0,0,0,0,0,0,0,0,0,0,0,0,0,0,0,0,0,0,0,0,0,0,0,0],"id":5,"left_children":[1,3,5,7,9,11,13,15,17,19,21,23,25,27,-1,29,31,33,35,37,39,41,43,-1,-1,-1,45,47,49,51,53,55,57,59,61,63,65,67,-1,-1,69,-1,71,73,-1,75,77,79,81,83,85,-1,-1,-1,-1,-1,-1,-1,-1,-1,-1,-1,-1,-1,-1,-1,-1,-1,-1,-1,-1,-1,-1,-1,-1,-1,-1,-1,-1,-1,-1,-1,-1,-1,-1,-1,-1],"loss_changes":[6.781834E2,2.6979086E2,4.6132477E1,1.1264667E2,1.3539066E2,1.3372009E1,2.8410301E1,7.8341034E1,2.9059845E1,1.9476791E1,7.10306E0,7.649147E0,9.765839E0,2.322982E1,0E0,3.005539E1,3.2110657E1,1.7472569E1,2.0882599E1,8.0667114E-1,4.259091E0,4.970523E0,7.8458786E-1,0E0,0E0,0E0,5.639557E0,1.3256889E1,1.607589E1,7.0305805E0,2.1887777E1,2.8147797E1,7.5329876E-1,1.1399732E0,9.8678E0,4.0600586E-1,6.2804375E0,1.7666245E0,0E0,0E0,1.5417483E0,0E0,1.8168641E0,1.9235959E0,0E0,3.3617287E0,6.065033E0,1.0325508E0,2.9019666E0,1.2892563E1,6.568165E-1,0E0,0E0,0E0,0E0,0E0,0E0,0E0,0E0,0E0,0E0,0E0,0E0,0E0,0E0,0E0,0E0,0E0,0E0,0E0,0E0,0E0,0E0,0E0,0E0,0E0,0E0,0E0,0E0,0E0,0E0,0E0,0E0,0E0,0E0,0E0,0E0],"parents":[2147483647,0,0,1,1,2,2,3,3,4,4,5,5,6,6,7,7,8,8,9,9,10,10,11,11,12,12,13,13,15,15,16,16,17,17,18,18,19,19,20,20,21,21,22,22,26,26,27,27,28,28,29,29,30,30,31,31,32,32,33,33,34,34,35,35,36,36,37,37,40,40,42,42,43,43,45,45,46,46,47,47,48,48,49,49,50,50],"right_children":[2,4,6,8,10,12,14,16,18,20,22,24,26,28,-1,30,32,34,36,38,40,42,44,-1,-1,-1,46,48,50,52,54,56,58,60,62,64,66,68,-1,-1,70,-1,72,74,-1,76,78,80,82,84,86,-1,-1,-1,-1,-1,-1,-1,-1,-1,-1,-1,-1,-1,-1,-1,-1,-1,-1,-1,-1,-1,-1,-1,-1,-1,-1,-1,-1,-1,-1,-1,-1,-1,-1,-1,-1],"split_conditions":[1E0,1E0,2E0,1E0,1E0,5E-1,1E0,1.2246469E-16,0E0,2.4E2,-7.0710677E-1,5E-1,2.5E1,-5E-1,6.1561555E-2,0E0,1E0,-5E-1,9.5E1,2.4E1,-5E-1,-5E-1,-5E-1,-5.006286E-2,2.7239999E-2,5.877511E-2,7.5E-1,8.5E1,1E0,1E0,3E1,0E0,4.3388373E-1,1E0,5E-1,-9.659258E-1,8.660254E-1,1.6E1,6.915895E-2,-4.2018373E-2,4.3388373E-1,-5.420212E-2,0E0,1.07E2,-6.275391E-2,-9.659258E-1,-7.0710677E-1,1E0,5E-1,1.2246469E-16,5E-1,2.8129179E-2,-2.2538397E-2,2.5584192E-3,-2.2204269E-2,-1.399985E-2,-4.032664E-2,2.6165763E-2,7.0232406E-2,4.114943E-2,2.722781E-3,-6.0197897E-2,-8.777234E-3,-4.3127123E-2,-8.355475E-2,-3.3510547E-2,-6.9808714E-2,2.5717268E-2,5.863432E-2,-4.888888E-3,3.514194E-2,2.9419353E-2,-8.430968E-3,-5.6922715E-2,-1.041614E-2,1.6734893E-2,6.476252E-2,5.801804E-2,3.6536727E-2,6.0516525E-2,2.7596215E-2,-1.891004E-2,2.5858855E-2,-1.661205E-2,1.1574018E-2,6.6632055E-2,2.9796569E-2],"split_indices":[1,37,0,35,26,0,10,6,4,0,7,6,43,6,0,4,14,6,43,0,6,3,7,0,0,0,0,43,37,26,43,4,4,26,3,6,6,43,0,0,4,0,4,43,0,7,6,18,3,6,3,0,0,0,0,0,0,0,0,0,0,0,0,0,0,0,0,0,0,0,0,0,0,0,0,0,0,0,0,0,0,0,0,0,0,0,0],"split_type":[0,0,0,0,0,0,0,0,0,0,0,0,0,0,0,0,0,0,0,0,0,0,0,0,0,0,0,0,0,0,0,0,0,0,0,0,0,0,0,0,0,0,0,0,0,0,0,0,0,0,0,0,0,0,0,0,0,0,0,0,0,0,0,0,0,0,0,0,0,0,0,0,0,0,0,0,0,0,0,0,0,0,0,0,0,0,0],"sum_hessian":[2.3605112E3,1.4800579E3,8.8045337E2,1.2873448E3,1.9271307E2,5.337202E2,3.467332E2,1.0563469E3,2.3099788E2,1.463731E2,4.633998E1,1.0832617E1,5.228876E2,3.1000485E2,3.6728325E1,4.361453E2,6.2020166E2,4.986044E1,1.8113744E2,1.347851E2,1.1587993E1,1.8238298E1,2.8101683E1,5.0812807E0,5.7513366E0,1.1164107E2,4.1124652E2,5.673829E1,2.5326657E2,7.3971664E1,3.621736E2,6.1123303E2,8.968668E0,9.984682E0,3.987576E1,1.17746574E2,6.339086E1,6.165867E1,7.312643E1,3.7172139E0,7.8707786E0,4.431768E0,1.3806529E1,9.635388E0,1.8466293E1,4.2641327E1,3.6860522E2,4.3805756E1,1.2932533E1,2.3822437E2,1.5042197E1,6.7215805E1,6.755861E0,1.5564989E2,2.0652373E2,1.3131192E2,4.7992108E2,3.8838978E0,5.0847697E0,6.840765E0,3.1439173E0,2.3948372E1,1.5927385E1,4.4958067E0,1.1325076E2,4.464228E1,1.8748579E1,7.472679E0,5.418599E1,3.835575E0,4.0352035E0,3.365066E0,1.0441463E1,4.2303305E0,5.4050584E0,5.2755876E0,3.7365738E1,4.0692844E1,3.2791235E2,3.796E1,5.8457565E0,7.7754483E0,5.157085E0,5.064034E1,1.8758403E2,1.0045064E1,4.997133E0],"tree_param":{"num_deleted":"0","num_feature":"44","num_nodes":"87","size_leaf_vector":"1"}},{"base_weights":[4.306036E-3,1.1779611E-1,-9.217924E-1,1.236879E-2,1.1613674E0,-6.087974E-1,-1.3730623E0,-8.5269235E-2,6.2118465E-1,9.12346E-1,6.996214E-2,-5.0441265E-1,-9.138693E-2,-8.136628E-2,-1.0583053E0,1.2611277E-2,-5.4996026E-1,6.7132246E-1,1.755357E-1,1.0911981E0,1.3577567E-1,-7.500597E-1,5.235929E-2,-6.261987E-1,-1.543908E0,-7.091194E-2,9.0665865E-1,1.2844777E-1,-7.088255E-1,7.665606E-1,4.3485436E-1,4.7983396E-1,-3.8325384E-2,8.396065E-1,6.67915E-2,-7.233748E-1,7.388041E-1,-7.30332E-2,-5.3853106E-1,2.8011036E-1,-6.89323E-2,2.455352E-2,-8.808194E-1,-8.394043E-2,-4.3836094E-2,2.7957032E-3,-2.061954E-2,2.7708834E-2,5.736319E-2,5.2222967E-2,-9.56821E-3,-3.8897898E-2,1.0467679E-2,4.0068425E-2,-2.7955E-2,3.1246541E-2,8.231684E-3,-1.6703286E-3,4.634287E-2,1.887138E-2,-1.8368803E-2,5.221056E-2,-4.799263E-3,-5.6637216E-2,-5.900916E-3,2.2105158E-3,5.247704E-2,-5.443244E-2,-1.113008E-2,-3.61534E-2,3.2348894E-2,-2.0241195E-2,2.242334E-2,-2.8481558E-2,-6.725663E-2],"categories":[],"categories_nodes":[],"categories_segments":[],"categories_sizes":[],"default_left":[0,0,0,0,0,0,0,0,0,0,0,0,0,0,0,0,0,0,0,0,0,0,0,0,0,0,0,0,0,0,0,0,0,0,0,0,0,0,0,0,0,0,0,0,0,0,0,0,0,0,0,0,0,0,0,0,0,0,0,0,0,0,0,0,0,0,0,0,0,0,0,0,0,0,0],"id":6,"left_children":[1,3,5,7,9,11,13,15,17,19,-1,21,-1,-1,23,25,27,29,31,33,35,37,39,41,43,45,47,49,51,53,55,57,59,61,-1,63,65,-1,67,69,-1,71,73,-1,-1,-1,-1,-1,-1,-1,-1,-1,-1,-1,-1,-1,-1,-1,-1,-1,-1,-1,-1,-1,-1,-1,-1,-1,-1,-1,-1,-1,-1,-1,-1],"loss_changes":[2.4528775E2,2.2868471E2,3.4949966E1,1.1245623E2,9.790436E0,1.8230385E1,6.2850494E0,7.417909E1,5.639946E0,1.3099083E1,0E0,1.9502167E1,0E0,0E0,9.148895E0,1.0072006E2,3.0727196E1,4.8272095E0,1.8846207E0,3.4612732E0,1.0517902E1,1.383078E1,1.4687565E1,4.721513E0,2.88208E-1,5.343956E1,8.968025E0,1.6268799E1,1.4829361E1,8.111084E0,3.4102345E0,2.8328366E0,2.487356E0,8.109411E0,0E0,1.8186221E0,2.4091926E0,0E0,1.3123079E1,1.4827584E1,0E0,1.7684181E0,1.9542828E0,0E0,0E0,0E0,0E0,0E0,0E0,0E0,0E0,0E0,0E0,0E0,0E0,0E0,0E0,0E0,0E0,0E0,0E0,0E0,0E0,0E0,0E0,0E0,0E0,0E0,0E0,0E0,0E0,0E0,0E0,0E0,0E0],"parents":[2147483647,0,0,1,1,2,2,3,3,4,4,5,5,6,6,7,7,8,8,9,9,11,11,14,14,15,15,16,16,17,17,18,18,19,19,20,20,21,21,22,22,23,23,24,24,25,25,26,26,27,27,28,28,29,29,30,30,31,31,32,32,33,33,35,35,36,36,38,38,39,39,41,41,42,42],"right_children":[2,4,6,8,10,12,14,16,18,20,-1,22,-1,-1,24,26,28,30,32,34,36,38,40,42,44,46,48,50,52,54,56,58,60,62,-1,64,66,-1,68,70,-1,72,74,-1,-1,-1,-1,-1,-1,-1,-1,-1,-1,-1,-1,-1,-1,-1,-1,-1,-1,-1,-1,-1,-1,-1,-1,-1,-1,-1,-1,-1,-1,-1,-1],"split_conditions":[1E0,1E0,7.0710677E-1,1E0,1.2246469E-16,1E0,1.07E2,1E0,8.3E1,8.660254E-1,6.996214E-2,8.660254E-1,-9.138693E-2,-8.136628E-2,6.123234E-17,1E0,0E0,1E0,8.660254E-1,1E0,-2.5881904E-1,-7.0710677E-1,1.08E2,8.660254E-1,1E0,1E0,2.5881904E-1,-5E-1,8E1,-1.8369701E-16,4.8E1,1.2246469E-16,5E-1,6.123234E-17,6.67915E-2,7.818315E-1,3.2E1,-7.30332E-2,-5E-1,1.06E2,-6.89323E-2,-5E-1,-2.4492937E-16,-8.394043E-2,-4.3836094E-2,2.7957032E-3,-2.061954E-2,2.7708834E-2,5.736319E-2,5.2222967E-2,-9.56821E-3,-3.8897898E-2,1.0467679E-2,4.0068425E-2,-2.7955E-2,3.1246541E-2,8.231684E-3,-1.6703286E-3,4.634287E-2,1.887138E-2,-1.8368803E-2,5.221056E-2,-4.799263E-3,-5.6637216E-2,-5.900916E-3,2.2105158E-3,5.247704E-2,-5.443244E-2,-1.113008E-2,-3.61534E-2,3.2348894E-2,-2.0241195E-2,2.242334E-2,-2.8481558E-2,-6.725663E-2],"split_indices":[26,37,6,31,2,31,43,35,43,3,0,3,0,0,3,8,4,5,3,20,6,6,43,6,37,18,6,6,43,7,43,6,6,3,0,4,43,0,3,43,0,3,2,0,0,0,0,0,0,0,0,0,0,0,0,0,0,0,0,0,0,0,0,0,0,0,0,0,0,0,0,0,0,0,0],"split_type":[0,0,0,0,0,0,0,0,0,0,0,0,0,0,0,0,0,0,0,0,0,0,0,0,0,0,0,0,0,0,0,0,0,0,0,0,0,0,0,0,0,0,0,0,0,0,0,0,0,0,0,0,0,0,0,0,0,0,0,0,0,0,0,0,0,0,0,0,0,0,0,0,0,0,0],"sum_hessian":[2.332517E3,2.078754E3,2.5376312E2,1.8890221E3,1.8973174E2,1.5135553E2,1.0240759E2,1.6285425E3,2.604796E2,9.526191E1,9.4469826E1,1.4079437E2,1.0561154E1,5.416491E1,4.824268E1,1.345822E3,2.827205E2,2.33481E2,2.6998594E1,7.699521E1,1.8266705E1,9.75763E1,4.321808E1,2.6847914E1,2.1394766E1,1.2315753E3,1.14246735E2,5.3560635E1,2.2915985E2,1.6454535E2,6.893566E1,1.0822879E1,1.6175716E1,4.0344147E1,3.665106E1,7.3828154E0,1.088389E1,2.0920027E1,7.665627E1,3.8038254E1,5.179826E0,7.6941786E0,1.9153736E1,1.6410532E1,4.984235E0,8.9843713E2,3.3313815E2,4.7856598E1,6.639014E1,1.335521E1,4.020542E1,2.1335718E2,1.5802669E1,1.6079431E2,3.7510421E0,3.9481308E1,2.9454355E1,5.364876E0,5.458003E0,6.9471374E0,9.228579E0,3.309696E1,7.247188E0,3.7860932E0,3.5967221E0,3.8166256E0,7.067264E0,2.6956102E1,4.970017E1,9.852808E0,2.8185446E1,3.727632E0,3.9665465E0,1.2930056E1,6.2236795E0],"tree_param":{"num_deleted":"0","num_feature":"44","num_nodes":"75","size_leaf_vector":"1"}},{"base_weights":[-1.140471E-2,-3.978954E-1,6.3755405E-1,-5.479092E-1,6.630087E-1,8.130938E-1,3.769884E-1,-4.24834E-1,-1.1019799E0,1.0575778E0,-5.844512E-1,9.2905337E-1,6.3834876E-1,2.1748658E-1,9.3100023E-1,-1.4982827E-1,-6.1860216E-1,-1.3197258E0,-7.2080487E-1,1.1716045E0,-2.7669173E-1,-7.565408E-2,-9.440745E-1,-0E0,9.618732E-1,1.8091907E-1,6.9647986E-1,8.593422E-1,6.20957E-2,9.940959E-1,-2.1334887E-2,-2.4192755E-1,2.6386076E-1,-3.2292992E-1,-8.000354E-1,-1.1023912E0,-8.026434E-2,-3.7701163E-1,-1.255279E0,9.6637774E-1,6.708241E-2,-3.804025E-2,1.9420799E-2,4.656158E-1,-7.4783534E-1,-5.60144E-1,-1.1176684E0,4.391262E-2,-4.8600953E-2,8.784217E-1,1.2056156E0,5.7774657E-1,-2.0106438E-1,5.8744233E-2,6.2253934E-1,1.0713806E0,-0E0,-9.762104E-3,1.0285908E0,1.1990106E0,7.6915485E-1,4.677662E-3,-1.7712643E-2,-4.008302E-2,1.829665E-2,-1.800505E-2,6.681679E-2,-4.27306E-2,4.1615153E-3,-5.869639E-2,2.6651716E-3,-1.1912177E-2,-8.412142E-2,-1.8763272E-2,-7.249554E-2,3.2614898E-2,6.36491E-2,4.1554E-2,-3.8350858E-3,-5.3494688E-2,-1.8648E-2,-1.8169492E-3,-5.4060396E-2,-6.6800706E-2,-3.530419E-2,3.5609923E-2,5.0435644E-2,6.2060237E-2,3.3484202E-2,3.6264073E-2,1.3131559E-2,8.1206625E-3,-5.1605966E-2,3.3486065E-2,-1.966369E-3,3.3827394E-2,6.094873E-2,1.9179419E-2,-2.517356E-2,-3.841957E-3,4.947133E-2,6.324791E-2,2.4962531E-2,6.494676E-2,3.510257E-2,4.6493996E-2,9.472369E-3],"categories":[],"categories_nodes":[],"categories_segments":[],"categories_sizes":[],"default_left":[0,0,0,0,0,0,0,0,0,0,0,0,0,0,0,0,0,0,0,0,0,0,0,0,0,0,0,0,0,0,0,0,0,0,0,0,0,0,0,0,0,0,0,0,0,0,0,0,0,0,0,0,0,0,0,0,0,0,0,0,0,0,0,0,0,0,0,0,0,0,0,0,0,0,0,0,0,0,0,0,0,0,0,0,0,0,0,0,0,0,0,0,0,0,0,0,0,0,0,0,0,0,0,0,0,0,0],"id":7,"left_children":[1,3,5,7,9,11,13,15,17,19,21,23,25,27,29,31,33,35,37,39,41,43,45,47,49,51,53,55,57,59,-1,61,63,65,67,69,-1,71,73,75,-1,-1,-1,77,79,81,83,-1,-1,85,87,89,91,-1,93,95,97,99,101,103,105,-1,-1,-1,-1,-1,-1,-1,-1,-1,-1,-1,-1,-1,-1,-1,-1,-1,-1,-1,-1,-1,-1,-1,-1,-1,-1,-1,-1,-1,-1,-1,-1,-1,-1,-1,-1,-1,-1,-1,-1,-1,-1,-1,-1,-1,-1],"loss_changes":[5.8447534E2,2.3281099E2,3.9356354E1,8.66864E1,8.991219E1,9.758057E0,3.080352E1,5.5749146E1,1.8094604E1,2.143454E1,7.9054976E0,9.426666E0,5.3807373E0,2.7272448E1,7.1870346E0,1.6646587E1,3.2625427E1,7.0353546E0,1.5292908E1,2.923767E0,4.0735745E0,7.4662366E0,9.1677856E-1,1.0713442E1,4.806793E0,3.9838676E0,5.6727066E0,9.754593E0,1.5566086E1,2.3461685E0,0E0,1.3502668E1,8.90097E0,1.4926367E1,1.848059E1,7.320137E0,0E0,9.243475E0,4.992672E0,4.9125977E0,0E0,0E0,0E0,2.3844206E0,5.623784E-1,2.6262677E0,3.344326E-1,0E0,0E0,4.0138245E0,3.733673E-1,3.048458E-1,4.32886E0,0E0,5.195694E0,1.4821281E0,2.4248023E0,1.3926574E1,1.1320152E0,7.4113464E-1,3.3325787E0,0E0,0E0,0E0,0E0,0E0,0E0,0E0,0E0,0E0,0E0,0E0,0E0,0E0,0E0,0E0,0E0,0E0,0E0,0E0,0E0,0E0,0E0,0E0,0E0,0E0,0E0,0E0,0E0,0E0,0E0,0E0,0E0,0E0,0E0,0E0,0E0,0E0,0E0,0E0,0E0,0E0,0E0,0E0,0E0,0E0,0E0],"parents":[2147483647,0,0,1,1,2,2,3,3,4,4,5,5,6,6,7,7,8,8,9,9,10,10,11,11,12,12,13,13,14,14,15,15,16,16,17,17,18,18,19,19,20,20,21,21,22,22,23,23,24,24,25,25,26,26,27,27,28,28,29,29,31,31,32,32,33,33,34,34,35,35,37,37,38,38,39,39,43,43,44,44,45,45,46,46,49,49,50,50,51,51,52,52,54,54,55,55,56,56,57,57,58,58,59,59,60,60],"right_children":[2,4,6,8,10,12,14,16,18,20,22,24,26,28,30,32,34,36,38,40,42,44,46,48,50,52,54,56,58,60,-1,62,64,66,68,70,-1,72,74,76,-1,-1,-1,78,80,82,84,-1,-1,86,88,90,92,-1,94,96,98,100,102,104,106,-1,-1,-1,-1,-1,-1,-1,-1,-1,-1,-1,-1,-1,-1,-1,-1,-1,-1,-1,-1,-1,-1,-1,-1,-1,-1,-1,-1,-1,-1,-1,-1,-1,-1,-1,-1,-1,-1,-1,-1,-1,-1,-1,-1,-1,-1],"split_conditions":[1E0,1E0,2E0,1E0,1E0,1E0,1E0,1.2246469E-16,8.3E1,2.4E2,-7.0710677E-1,5E-1,-8.660254E-1,-5E-1,9.7E1,1E0,-2.2252093E-1,6.234898E-1,7.0710677E-1,1.2246469E-16,1.2246469E-16,-2.4492937E-16,-5E-1,-2.4492937E-16,-5E-1,5.3E1,-5E-1,7.2E1,1E0,1E0,-2.1334887E-2,2.5E1,-8.660254E-1,1E0,1E0,1E0,-8.026434E-2,1.08E2,-8.660254E-1,2.4E1,6.708241E-2,-3.804025E-2,1.9420799E-2,6.234898E-1,-5E-1,6.123234E-17,6.123234E-17,4.391262E-2,-4.8600953E-2,2.5881904E-1,1E0,1E0,1E0,5.8744233E-2,8.3E1,-5E-1,-7.0710677E-1,1E0,5E-1,8.660254E-1,8.660254E-1,4.677662E-3,-1.7712643E-2,-4.008302E-2,1.829665E-2,-1.800505E-2,6.681679E-2,-4.27306E-2,4.1615153E-3,-5.869639E-2,2.6651716E-3,-1.1912177E-2,-8.412142E-2,-1.8763272E-2,-7.249554E-2,3.2614898E-2,6.36491E-2,4.1554E-2,-3.8350858E-3,-5.3494688E-2,-1.8648E-2,-1.8169492E-3,-5.4060396E-2,-6.6800706E-2,-3.530419E-2,3.5609923E-2,5.0435644E-2,6.2060237E-2,3.3484202E-2,3.6264073E-2,1.3131559E-2,8.1206625E-3,-5.1605966E-2,3.3486065E-2,-1.966369E-3,3.3827394E-2,6.094873E-2,1.9179419E-2,-2.517356E-2,-3.841957E-3,4.947133E-2,6.324791E-2,2.4962531E-2,6.494676E-2,3.510257E-2,4.6493996E-2,9.472369E-3],"split_indices":[1,37,0,35,26,9,32,6,43,0,7,0,2,6,43,10,5,5,6,2,6,2,7,2,7,43,2,43,37,11,0,43,2,14,36,3,0,43,2,0,0,0,0,5,3,3,3,0,0,6,11,5,5,0,43,3,6,19,3,3,2,0,0,0,0,0,0,0,0,0,0,0,0,0,0,0,0,0,0,0,0,0,0,0,0,0,0,0,0,0,0,0,0,0,0,0,0,0,0,0,0,0,0,0,0,0,0],"split_type":[0,0,0,0,0,0,0,0,0,0,0,0,0,0,0,0,0,0,0,0,0,0,0,0,0,0,0,0,0,0,0,0,0,0,0,0,0,0,0,0,0,0,0,0,0,0,0,0,0,0,0,0,0,0,0,0,0,0,0,0,0,0,0,0,0,0,0,0,0,0,0,0,0,0,0,0,0,0,0,0,0,0,0,0,0,0,0,0,0,0,0,0,0,0,0,0,0,0,0,0,0,0,0,0,0,0,0],"sum_hessian":[2.3283745E3,1.4596271E3,8.687473E2,1.2793083E3,1.803188E2,5.1756573E2,3.5118158E2,1.0483799E3,2.3092845E2,1.3716588E2,4.3152924E1,3.0817444E2,2.0939131E2,2.738984E2,7.728319E1,4.3429517E2,6.140847E2,1.452372E2,8.5691246E1,1.2654795E2,1.0617928E1,1.8486523E1,2.46664E1,1.0549803E1,2.9762463E2,2.4267159E1,1.8512416E2,5.2376972E1,2.2152142E2,7.417743E1,3.1057544E0,3.557514E2,7.854374E1,2.3479028E2,3.792944E2,8.5429344E1,5.980786E1,5.329953E1,3.2391716E1,6.0636524E1,6.591142E1,6.148833E0,4.4690943E0,1.0328278E1,8.158246E0,9.175695E0,1.54907055E1,5.5931773E0,4.9566255E0,2.2545016E2,7.217445E1,1.1779353E1,1.2487804E1,2.2607649E1,1.6251651E2,4.1837967E1,1.0539002E1,2.0701643E2,1.4505001E1,3.6317963E1,3.785947E1,8.905343E1,2.66698E2,6.18156E0,7.236218E1,2.3047049E2,4.3197875E0,3.5735904E2,2.193539E1,8.0516205E1,4.913135E0,4.9316235E1,3.9832945E0,6.4899144E0,2.59018E1,3.1659128E1,2.8977396E1,5.962274E0,4.3660035E0,3.2475212E0,4.910725E0,5.2049847E0,3.970711E0,8.495079E0,6.9956264E0,1.02243454E2,1.2320672E2,6.6271095E1,5.903359E0,6.9203234E0,4.8590302E0,9.163998E0,3.323807E0,1.5183221E2,1.06842985E1,1.3087806E1,2.8750162E1,6.086723E0,4.4522796E0,1.9495218E2,1.2064254E1,8.93613E0,5.568871E0,2.8726814E1,7.59115E0,2.903336E1,8.826109E0],"tree_param":{"num_deleted":"0","num_feature":"44","num_nodes":"107","size_leaf_vector":"1"}},{"base_weights":[-5.3397017E-3,-3.6508778E-1,5.981191E-1,-5.0561506E-1,6.233725E-1,7.823279E-1,3.2339942E-1,-3.816843E-1,-1.0915897E0,1.0263886E0,-6.4944816E-1,9.2548394E-1,6.777211E-1,2.2694796E-1,1.1216602E0,-3.0138883E-1,-9.769925E-1,-4.2345503E-1,-1.2773777E0,1.140675E0,-1.8385588E-1,-2.570301E-1,-8.7891996E-1,9.726738E-1,1.7581244E-1,7.513697E-1,4.6941683E-1,1.6260651E-1,5.7657707E-2,6.181941E-2,6.0383135E-1,1.3704664E-1,-4.0610182E-1,-7.955883E-1,-9.3891665E-2,-6.6077924E-1,3.1241918E-1,-1.4923477E0,-8.4533614E-1,9.423079E-1,6.569707E-2,-2.3126772E-2,-4.515332E-5,-5.280191E-1,9.271693E-2,-9.9559873E-1,-5.3811485E-1,6.400909E-2,9.1906106E-1,3.6941428E-2,-3.1264693E-2,9.30299E-1,6.400949E-1,5.1620585E-1,-9.103808E-3,2.0428526E-1,-1.1658288E0,3.7465703E-2,1.534895E-2,1.8612219E-2,-2.0153044E-2,-1.8280378E-2,-5.2041024E-2,-3.315751E-2,-8.8733695E-2,-1.9993735E-2,-3.7556835E-2,3.958446E-2,-1.947698E-2,-7.621005E-2,-3.8467374E-2,-3.875941E-2,-7.6001786E-2,3.0855233E-2,6.270961E-2,-1.5540055E-2,1.2655498E-2,-1.0629154E-2,-4.048964E-2,1.7412763E-2,-8.449971E-3,-7.0067525E-2,-3.6737494E-2,2.103742E-3,-4.478746E-2,2.1555996E-2,4.7893714E-2,-3.9534713E-3,4.872681E-2,6.3973933E-4,3.4573343E-2,2.3325684E-2,5.7968523E-2,5.9418594E-3,3.4858953E-2,-7.510114E-2,-3.3741158E-2],"categories":[],"categories_nodes":[],"categories_segments":[],"categories_sizes":[],"default_left":[0,0,0,0,0,0,0,0,0,0,0,0,0,0,0,0,0,0,0,0,0,0,0,0,0,0,0,0,0,0,0,0,0,0,0,0,0,0,0,0,0,0,0,0,0,0,0,0,0,0,0,0,0,0,0,0,0,0,0,0,0,0,0,0,0,0,0,0,0,0,0,0,0,0,0,0,0,0,0,0,0,0,0,0,0,0,0,0,0,0,0,0,0,0,0,0,0],"id":8,"left_children":[1,3,5,7,9,11,13,15,17,19,21,23,25,27,29,31,33,35,37,39,41,43,45,47,49,51,53,55,-1,-1,57,59,61,63,-1,65,67,69,71,73,-1,-1,75,77,79,81,83,-1,85,-1,-1,87,89,91,-1,93,95,-1,-1,-1,-1,-1,-1,-1,-1,-1,-1,-1,-1,-1,-1,-1,-1,-1,-1,-1,-1,-1,-1,-1,-1,-1,-1,-1,-1,-1,-1,-1,-1,-1,-1,-1,-1,-1,-1,-1,-1],"loss_changes":[5.063764E2,2.0331618E2,4.371991E1,9.240735E1,9.420642E1,7.0075684E0,2.6679855E1,5.0170837E1,2.6947632E1,1.9515747E1,3.6575813E0,7.378006E0,4.20282E0,1.8455452E1,1.299366E0,4.2972588E1,1.8698273E1,8.98928E0,1.4639648E1,2.9053802E0,6.0783684E-1,1.7940156E0,4.0183067E-1,1.9578247E0,6.8668303E0,3.6922684E0,2.64719E0,1.6522215E1,0E0,0E0,4.9597025E-2,2.3097994E1,1.8872665E1,1.2329506E1,0E0,4.8744392E-1,4.652032E0,1.2359314E0,1.4404907E0,5.4359703E0,0E0,0E0,7.854464E-1,6.5227675E-1,6.470573E-1,7.722664E-1,2.071857E0,0E0,2.8016815E0,0E0,0E0,3.8748322E0,4.470722E0,1.7743626E0,0E0,1.1955474E1,2.6686764E-1,0E0,0E0,0E0,0E0,0E0,0E0,0E0,0E0,0E0,0E0,0E0,0E0,0E0,0E0,0E0,0E0,0E0,0E0,0E0,0E0,0E0,0E0,0E0,0E0,0E0,0E0,0E0,0E0,0E0,0E0,0E0,0E0,0E0,0E0,0E0,0E0,0E0,0E0,0E0,0E0],"parents":[2147483647,0,0,1,1,2,2,3,3,4,4,5,5,6,6,7,7,8,8,9,9,10,10,11,11,12,12,13,13,14,14,15,15,16,16,17,17,18,18,19,19,20,20,21,21,22,22,23,23,24,24,25,25,26,26,27,27,30,30,31,31,32,32,33,33,35,35,36,36,37,37,38,38,39,39,42,42,43,43,44,44,45,45,46,46,48,48,51,51,52,52,53,53,55,55,56,56],"right_children":[2,4,6,8,10,12,14,16,18,20,22,24,26,28,30,32,34,36,38,40,42,44,46,48,50,52,54,56,-1,-1,58,60,62,64,-1,66,68,70,72,74,-1,-1,76,78,80,82,84,-1,86,-1,-1,88,90,92,-1,94,96,-1,-1,-1,-1,-1,-1,-1,-1,-1,-1,-1,-1,-1,-1,-1,-1,-1,-1,-1,-1,-1,-1,-1,-1,-1,-1,-1,-1,-1,-1,-1,-1,-1,-1,-1,-1,-1,-1,-1,-1],"split_conditions":[1E0,1E0,2E0,1E0,1E0,3.4E1,1E0,1E0,0E0,2.4E2,4.3388373E-1,1E0,1E0,1E0,8.660254E-1,0E0,1E0,1E0,9.3E1,1.2246469E-16,2E1,5E-1,6.234898E-1,7.5E-1,5E-1,1E0,9.7E1,3E0,5.7657707E-2,6.181941E-2,7.818315E-1,1E0,1E0,1E0,-9.3891665E-2,-5E-1,1.2246469E-16,1E0,1.09E2,2.4E1,6.569707E-2,-2.3126772E-2,4.3388373E-1,-2.4492937E-16,-2.2252093E-1,1.07E2,-5E-1,6.400909E-2,-8.660254E-1,3.6941428E-2,-3.1264693E-2,5E-1,3.7E1,8.3E1,-9.103808E-3,1E0,6.123234E-17,3.7465703E-2,1.534895E-2,1.8612219E-2,-2.0153044E-2,-1.8280378E-2,-5.2041024E-2,-3.315751E-2,-8.8733695E-2,-1.9993735E-2,-3.7556835E-2,3.958446E-2,-1.947698E-2,-7.621005E-2,-3.8467374E-2,-3.875941E-2,-7.6001786E-2,3.0855233E-2,6.270961E-2,-1.5540055E-2,1.2655498E-2,-1.0629154E-2,-4.048964E-2,1.7412763E-2,-8.449971E-3,-7.0067525E-2,-3.6737494E-2,2.103742E-3,-4.478746E-2,2.1555996E-2,4.7893714E-2,-3.9534713E-3,4.872681E-2,6.3973933E-4,3.4573343E-2,2.3325684E-2,5.7968523E-2,5.9418594E-3,3.4858953E-2,-7.510114E-2,-3.3741158E-2],"split_indices":[1,37,0,35,26,43,10,26,4,0,4,12,5,37,3,4,31,9,43,2,43,3,5,0,2,9,43,0,0,0,4,18,12,30,0,2,2,3,43,0,0,0,4,2,5,43,2,0,2,0,0,0,43,43,0,11,3,0,0,0,0,0,0,0,0,0,0,0,0,0,0,0,0,0,0,0,0,0,0,0,0,0,0,0,0,0,0,0,0,0,0,0,0,0,0,0,0],"split_type":[0,0,0,0,0,0,0,0,0,0,0,0,0,0,0,0,0,0,0,0,0,0,0,0,0,0,0,0,0,0,0,0,0,0,0,0,0,0,0,0,0,0,0,0,0,0,0,0,0,0,0,0,0,0,0,0,0,0,0,0,0,0,0,0,0,0,0,0,0,0,0,0,0,0,0,0,0,0,0,0,0,0,0,0,0,0,0,0,0,0,0,0,0,0,0,0,0],"sum_hessian":[2.330632E3,1.4605157E3,8.7011633E2,1.2792388E3,1.81277E2,5.1953735E2,3.5057904E2,1.0574213E3,2.218174E2,1.3788904E2,4.3387955E1,2.1563461E2,3.039027E2,3.1404364E2,3.6535378E1,9.3322205E2,1.2419925E2,4.9091408E1,1.72726E2,1.2611939E2,1.1769643E1,1.6952866E1,2.6435091E1,2.0245947E2,1.3175134E1,2.2223984E2,8.166288E1,2.9484497E2,1.9198685E1,2.8614845E1,7.9205317E0,1.7967123E2,7.5355084E2,1.0504108E2,1.9158173E1,3.729989E1,1.1791517E1,1.1354436E2,5.9181637E1,6.207143E1,6.404796E1,3.8588092E0,7.9108334E0,9.425815E0,7.52705E0,1.8043085E1,8.392007E0,2.6384048E1,1.7607542E2,7.8563037E0,5.31883E0,8.204803E1,1.401918E2,7.652794E1,5.134942E0,2.8676926E2,8.075694E0,4.066525E0,3.8540063E0,1.25511406E2,5.4159836E1,7.09988E2,4.356283E1,9.409286E1,1.0948222E1,1.1275214E1,2.6024675E1,7.0159383E0,4.775579E0,1.07559135E2,5.98522E0,5.5688866E1,3.49277E0,3.2002026E1,3.0069407E1,3.6264977E0,4.284336E0,5.442483E0,3.9833317E0,3.8345003E0,3.6925497E0,5.19954E0,1.2843544E1,3.4300988E0,4.9619083E0,1.4055856E1,1.6201958E2,3.3169339E0,7.8731094E1,1.0853689E1,1.2933812E2,7.2785225E1,3.742709E0,2.456307E2,4.1138565E1,3.4504302E0,4.625264E0],"tree_param":{"num_deleted":"0","num_feature":"44","num_nodes":"97","size_leaf_vector":"1"}},{"base_weights":[1.001285E-2,-3.4219688E-1,6.0610425E-1,-4.7041124E-1,5.939793E-1,7.718304E-1,3.6302274E-1,-3.5315463E-1,-1.0004313E0,2.7855483E-1,1.015175E0,-1.2221836E-1,7.925289E-1,2.1470113E-1,8.760087E-1,-1.1995362E-1,-5.902258E-1,-3.4233043E-1,-1.179232E0,-5.628858E-1,9.270721E-1,6.2235404E-2,-2.039324E-1,4.0514875E-2,-4.788144E-2,1.1880193E0,7.3706275E-1,8.809226E-1,5.6329437E-2,1.0953076E0,6.677808E-1,2.6619866E-1,-1.9889456E-1,7.80205E-1,-6.3294846E-1,5.538453E-1,-6.1132604E-1,-1.0237417E0,-1.4184115E0,-1.8783253E-2,-9.525645E-1,5.917466E-1,6.53904E-2,-4.0924367E-2,8.698867E-2,1.9409748E-2,6.3391104E-2,3.6425164E-1,7.772555E-1,6.63803E-1,6.7249E-2,-2.2087658E-2,1.0623484E0,6.0695823E-2,5.518138E-1,2.5749835E-1,8.3037335E-1,3.9222143E-3,3.0047545E-2,-7.822493E-3,-4.8726454E-2,5.2227437E-2,-0E0,-1.6884124E-2,-4.106518E-2,1.49833625E-2,4.129688E-2,-1.45852165E-2,-5.8380753E-2,-4.0226668E-2,-6.49046E-2,-7.3617764E-2,-1.1661939E-2,2.045533E-2,-2.8305432E-2,-5.6937404E-2,-2.578046E-2,4.0541146E-2,-2.080415E-2,-3.552959E-3,9.788564E-3,5.6905992E-2,1.3226278E-2,2.3553161E-2,4.0486164E-2,3.702086E-2,-3.7101475E-3,-4.48399E-3,4.5915972E-2,6.148116E-2,3.1115074E-2,3.5328646E-3,3.9300796E-2,-1.4355339E-2,2.456078E-2,5.1467486E-2,1.810863E-2],"categories":[],"categories_nodes":[],"categories_segments":[],"categories_sizes":[],"default_left":[0,0,0,0,0,0,0,0,0,0,0,0,0,0,0,0,0,0,0,0,0,0,0,0,0,0,0,0,0,0,0,0,0,0,0,0,0,0,0,0,0,0,0,0,0,0,0,0,0,0,0,0,0,0,0,0,0,0,0,0,0,0,0,0,0,0,0,0,0,0,0,0,0,0,0,0,0,0,0,0,0,0,0,0,0,0,0,0,0,0,0,0,0,0,0,0,0],"id":9,"left_children":[1,3,5,7,9,11,13,15,17,19,21,23,25,27,29,31,33,35,37,39,41,-1,43,-1,-1,45,47,49,51,53,55,57,59,61,63,65,67,69,71,73,75,77,-1,-1,79,-1,-1,81,83,85,-1,87,89,-1,91,93,95,-1,-1,-1,-1,-1,-1,-1,-1,-1,-1,-1,-1,-1,-1,-1,-1,-1,-1,-1,-1,-1,-1,-1,-1,-1,-1,-1,-1,-1,-1,-1,-1,-1,-1,-1,-1,-1,-1,-1,-1],"loss_changes":[4.8305576E2,1.738447E2,3.4033966E1,7.859894E1,2.2776806E1,9.546692E0,2.622519E1,5.7561188E1,2.6487915E1,5.58456E1,2.1128296E1,1.0318159E1,9.80777E0,2.8542269E1,2.6406212E0,1.6130037E1,3.07547E1,1.2549717E1,5.00531E0,9.352754E0,6.397957E0,0E0,2.388328E0,0E0,0E0,3.116066E0,6.1608734E0,4.148323E0,1.754995E1,1.4775162E0,2.5228386E0,5.526933E0,1.418243E1,3.223297E0,2.7530624E1,4.7867727E-1,6.5371895E0,5.5443115E0,3.8428345E0,4.875437E0,1.3538418E0,7.580328E0,0E0,0E0,1.8648344E-1,0E0,0E0,3.0097208E0,3.4069214E0,2.2455463E0,0E0,1.3078773E1,2.334137E-1,0E0,8.1017065E-1,1.9090757E0,2.2758312E0,0E0,0E0,0E0,0E0,0E0,0E0,0E0,0E0,0E0,0E0,0E0,0E0,0E0,0E0,0E0,0E0,0E0,0E0,0E0,0E0,0E0,0E0,0E0,0E0,0E0,0E0,0E0,0E0,0E0,0E0,0E0,0E0,0E0,0E0,0E0,0E0,0E0,0E0,0E0,0E0],"parents":[2147483647,0,0,1,1,2,2,3,3,4,4,5,5,6,6,7,7,8,8,9,9,10,10,11,11,12,12,13,13,14,14,15,15,16,16,17,17,18,18,19,19,20,20,22,22,25,25,26,26,27,27,28,28,29,29,30,30,31,31,32,32,33,33,34,34,35,35,36,36,37,37,38,38,39,39,40,40,41,41,44,44,47,47,48,48,49,49,51,51,52,52,54,54,55,55,56,56],"right_children":[2,4,6,8,10,12,14,16,18,20,22,24,26,28,30,32,34,36,38,40,42,-1,44,-1,-1,46,48,50,52,54,56,58,60,62,64,66,68,70,72,74,76,78,-1,-1,80,-1,-1,82,84,86,-1,88,90,-1,92,94,96,-1,-1,-1,-1,-1,-1,-1,-1,-1,-1,-1,-1,-1,-1,-1,-1,-1,-1,-1,-1,-1,-1,-1,-1,-1,-1,-1,-1,-1,-1,-1,-1,-1,-1,-1,-1,-1,-1,-1,-1],"split_conditions":[1E0,1E0,2E0,1E0,2.4E1,5E-1,1E0,2.5881904E-1,0E0,1E0,2.4E2,-2.4492937E-16,7.5E-1,-5E-1,1E0,0E0,-7.818315E-1,-5E-1,1E0,-7.0710677E-1,-2.4492937E-16,6.2235404E-2,-5E-1,4.0514875E-2,-4.788144E-2,-9.659258E-1,-8.660254E-1,1E0,1E0,8.660254E-1,-5E-1,1E0,1E0,8.660254E-1,-2.2252093E-1,1E0,1E0,5E-1,1E0,-2.4492937E-16,6.234898E-1,6.123234E-17,6.53904E-2,-4.0924367E-2,1.2246469E-16,1.9409748E-2,6.3391104E-2,-7.0710677E-1,-9.659258E-1,3E0,6.7249E-2,1E0,5E-1,6.0695823E-2,-2.5881904E-1,-2.2252093E-1,8.660254E-1,3.9222143E-3,3.0047545E-2,-7.822493E-3,-4.8726454E-2,5.2227437E-2,-0E0,-1.6884124E-2,-4.106518E-2,1.49833625E-2,4.129688E-2,-1.45852165E-2,-5.8380753E-2,-4.0226668E-2,-6.49046E-2,-7.3617764E-2,-1.1661939E-2,2.045533E-2,-2.8305432E-2,-5.6937404E-2,-2.578046E-2,4.0541146E-2,-2.080415E-2,-3.552959E-3,9.788564E-3,5.6905992E-2,1.3226278E-2,2.3553161E-2,4.0486164E-2,3.702086E-2,-3.7101475E-3,-4.48399E-3,4.5915972E-2,6.148116E-2,3.1115074E-2,3.5328646E-3,3.9300796E-2,-1.4355339E-2,2.456078E-2,5.1467486E-2,1.810863E-2],"split_indices":[1,37,0,35,0,0,32,6,4,21,0,2,0,6,11,4,4,6,8,7,2,0,6,0,0,7,2,8,37,3,3,32,31,3,5,8,8,6,3,2,5,3,0,0,6,0,0,6,7,0,0,19,3,0,6,5,2,0,0,0,0,0,0,0,0,0,0,0,0,0,0,0,0,0,0,0,0,0,0,0,0,0,0,0,0,0,0,0,0,0,0,0,0,0,0,0,0],"split_type":[0,0,0,0,0,0,0,0,0,0,0,0,0,0,0,0,0,0,0,0,0,0,0,0,0,0,0,0,0,0,0,0,0,0,0,0,0,0,0,0,0,0,0,0,0,0,0,0,0,0,0,0,0,0,0,0,0,0,0,0,0,0,0,0,0,0,0,0,0,0,0,0,0,0,0,0,0,0,0,0,0,0,0,0,0,0,0,0,0,0,0,0,0,0,0,0,0],"sum_hessian":[2.2987085E3,1.4451045E3,8.5360394E2,1.2715616E3,1.7354283E2,5.0602432E2,3.4757962E2,1.0427324E3,2.2882921E2,1.0031662E2,7.322621E1,1.1229848E1,4.9479446E2,2.708742E2,7.670543E1,5.2662866E2,5.161037E2,4.9630634E1,1.7919858E2,4.3654045E1,5.6662575E1,6.167508E1,1.1551131E1,5.264159E0,5.965689E0,5.8124958E1,4.366695E2,5.1026684E1,2.1984752E2,3.5050743E1,4.1654686E1,8.876781E1,4.3786087E2,1.5010277E1,5.0109344E2,1.1127611E1,3.8503025E1,1.1205202E2,6.714655E1,1.8761902E1,2.4892143E1,3.1625727E1,2.5036848E1,3.2390714E0,8.31206E0,5.9190197E0,5.220594E1,4.371724E1,3.9295227E2,3.65649E1,1.4461784E1,2.0476514E2,1.50823765E1,2.7608166E1,7.442578E0,1.2730231E1,2.8924454E1,5.78527E1,3.0915108E1,4.164048E2,2.1456102E1,1.0886428E1,4.123849E0,1.9645453E2,3.0463892E2,7.0296507E0,4.09796E0,2.5535484E1,1.2967541E1,6.4673935E1,4.737808E1,6.3910927E1,3.2356296E0,1.0569035E1,8.192867E0,1.6168081E1,8.724062E0,2.6220715E1,5.405011E0,3.155303E0,5.1567574E0,3.687474E0,4.0029766E1,3.945499E1,3.5349728E2,3.3245804E1,3.3190968E0,1.9197765E2,1.2787497E1,9.463478E0,5.618898E0,3.002587E0,4.439991E0,3.6255991E0,9.104632E0,1.930717E1,9.617283E0],"tree_param":{"num_deleted":"0","num_feature":"44","num_nodes":"97","size_leaf_vector":"1"}},{"base_weights":[4.2581996E-3,-3.2828054E-1,5.827838E-1,-4.5540068E-1,5.898102E-1,7.484598E-1,3.383557E-1,-3.4784412E-1,-9.5531315E-1,9.8458856E-1,-5.67281E-1,-9.8227404E-2,7.6785254E-1,1.9140543E-1,8.574689E-1,-2.6913738E-1,-9.242635E-1,-3.9131907E-1,-1.1100442E0,1.0977554E0,-1.1029775E-1,-2.542973E-1,-1.0545409E0,4.8313297E-2,-6.530953E-1,8.8613814E-1,5.988959E-1,3.986708E-2,6.272928E-1,9.328657E-1,-2.7810201E-2,7.116679E-2,-2.9066747E-1,-7.6654893E-1,-8.537588E-2,-5.169709E-1,2.868615E-2,-1.3590506E0,-6.478781E-1,9.364635E-1,6.2168818E-2,3.4909528E-2,-4.498187E-1,-3.3142403E-1,7.3652896E-3,-3.3478934E-2,-6.260394E-2,-4.5404803E-2,-6.819459E-3,8.0694884E-1,1.1322939E0,6.7950064E-1,3.3251637E-1,-2.4062647E-2,9.638716E-1,7.287759E-1,-4.0650167E-2,1.1132503E0,7.377412E-1,-3.6873773E-3,-2.1047803E-2,-3.2372996E-2,-8.706252E-2,2.2821639E-2,-3.157571E-2,-6.893078E-2,-3.8667273E-2,4.0020193E-3,-3.632757E-2,1.2447461E-2,5.032426E-2,-3.6401235E-2,-8.029112E-3,-5.92314E-3,-3.6083728E-2,3.832408E-2,6.3860804E-2,6.109042E-2,3.926587E-2,5.160996E-2,3.171778E-2,2.1435732E-2,-4.11021E-2,-1.4809406E-2,5.3836387E-3,5.9469976E-2,1.9287847E-2,2.6708273E-2,5.848821E-2,6.052481E-2,3.3080753E-2,2.9104466E-2,5.51412E-2],"categories":[],"categories_nodes":[],"categories_segments":[],"categories_sizes":[],"default_left":[0,0,0,0,0,0,0,0,0,0,0,0,0,0,0,0,0,0,0,0,0,0,0,0,0,0,0,0,0,0,0,0,0,0,0,0,0,0,0,0,0,0,0,0,0,0,0,0,0,0,0,0,0,0,0,0,0,0,0,0,0,0,0,0,0,0,0,0,0,0,0,0,0,0,0,0,0,0,0,0,0,0,0,0,0,0,0,0,0,0,0,0,0],"id":10,"left_children":[1,3,5,7,9,11,13,15,17,19,21,23,25,27,29,31,33,35,37,39,41,43,45,-1,47,49,51,53,55,57,-1,-1,59,61,-1,63,-1,65,67,69,-1,-1,71,73,-1,-1,-1,-1,-1,75,77,79,81,83,85,87,-1,89,91,-1,-1,-1,-1,-1,-1,-1,-1,-1,-1,-1,-1,-1,-1,-1,-1,-1,-1,-1,-1,-1,-1,-1,-1,-1,-1,-1,-1,-1,-1,-1,-1,-1,-1],"loss_changes":[4.4003802E2,1.6974489E2,3.344922E1,6.816211E1,8.1437256E1,8.295715E0,2.5619244E1,4.736151E1,1.9071503E1,1.6622055E1,6.553338E0,7.622508E0,9.027008E0,1.7474056E1,8.490337E0,3.40876E1,1.3987541E1,6.375018E0,1.918071E1,1.4396667E0,3.9199247E0,9.717101E-1,2.9167747E-1,0E0,8.8827014E-1,4.413513E0,4.0408173E0,1.1846832E1,1.0576616E1,1.4964027E0,0E0,0E0,2.5820763E1,1.10145E1,0E0,5.324417E0,0E0,1.7791748E-2,3.770647E0,2.5790215E0,0E0,0E0,5.99725E-1,1.9092796E0,0E0,0E0,0E0,0E0,0E0,2.9669495E0,8.944626E-1,1.645401E0,5.811294E0,6.7398205E0,1.0753574E0,4.7365E0,0E0,5.367241E-1,1.3142262E0,0E0,0E0,0E0,0E0,0E0,0E0,0E0,0E0,0E0,0E0,0E0,0E0,0E0,0E0,0E0,0E0,0E0,0E0,0E0,0E0,0E0,0E0,0E0,0E0,0E0,0E0,0E0,0E0,0E0,0E0,0E0,0E0,0E0,0E0],"parents":[2147483647,0,0,1,1,2,2,3,3,4,4,5,5,6,6,7,7,8,8,9,9,10,10,11,11,12,12,13,13,14,14,15,15,16,16,17,17,18,18,19,19,20,20,21,21,22,22,24,24,25,25,26,26,27,27,28,28,29,29,32,32,33,33,35,35,37,37,38,38,39,39,42,42,43,43,49,49,50,50,51,51,52,52,53,53,54,54,55,55,57,57,58,58],"right_children":[2,4,6,8,10,12,14,16,18,20,22,24,26,28,30,32,34,36,38,40,42,44,46,-1,48,50,52,54,56,58,-1,-1,60,62,-1,64,-1,66,68,70,-1,-1,72,74,-1,-1,-1,-1,-1,76,78,80,82,84,86,88,-1,90,92,-1,-1,-1,-1,-1,-1,-1,-1,-1,-1,-1,-1,-1,-1,-1,-1,-1,-1,-1,-1,-1,-1,-1,-1,-1,-1,-1,-1,-1,-1,-1,-1,-1,-1],"split_conditions":[1E0,1E0,2E0,1E0,1E0,5E-1,1E0,1E0,0E0,2.4E2,-5E-1,2.5E-1,1E0,-5E-1,1E2,-7.818315E-1,1E0,-2.5881904E-1,9.5E1,1E0,8.660254E-1,1E0,4.3388373E-1,4.8313297E-2,5.7E1,-5E-1,6.9E1,1E0,1E0,1E0,-2.7810201E-2,7.116679E-2,-2.2252093E-1,1E0,-8.537588E-2,-7.818315E-1,2.868615E-2,-1.8369701E-16,-9.659258E-1,1.6E1,6.2168818E-2,3.4909528E-2,6.234898E-1,-7.0710677E-1,7.3652896E-3,-3.3478934E-2,-6.260394E-2,-4.5404803E-2,-6.819459E-3,1E0,1E0,1.6E1,1E0,-5E-1,5E-1,-2.5881904E-1,-4.0650167E-2,8.660254E-1,8.660254E-1,-3.6873773E-3,-2.1047803E-2,-3.2372996E-2,-8.706252E-2,2.2821639E-2,-3.157571E-2,-6.893078E-2,-3.8667273E-2,4.0020193E-3,-3.632757E-2,1.2447461E-2,5.032426E-2,-3.6401235E-2,-8.029112E-3,-5.92314E-3,-3.6083728E-2,3.832408E-2,6.3860804E-2,6.109042E-2,3.926587E-2,5.160996E-2,3.171778E-2,2.1435732E-2,-4.11021E-2,-1.4809406E-2,5.3836387E-3,5.9469976E-2,1.9287847E-2,2.6708273E-2,5.848821E-2,6.052481E-2,3.3080753E-2,2.9104466E-2,5.51412E-2],"split_indices":[1,37,0,35,26,0,32,26,4,0,7,0,9,7,43,4,31,7,43,20,3,5,4,0,43,7,43,37,26,11,0,0,5,30,0,4,0,7,7,43,0,0,5,7,0,0,0,0,0,20,0,43,3,3,3,7,0,3,3,0,0,0,0,0,0,0,0,0,0,0,0,0,0,0,0,0,0,0,0,0,0,0,0,0,0,0,0,0,0,0,0,0,0],"split_type":[0,0,0,0,0,0,0,0,0,0,0,0,0,0,0,0,0,0,0,0,0,0,0,0,0,0,0,0,0,0,0,0,0,0,0,0,0,0,0,0,0,0,0,0,0,0,0,0,0,0,0,0,0,0,0,0,0,0,0,0,0,0,0,0,0,0,0,0,0,0,0,0,0,0,0,0,0,0,0,0,0,0,0,0,0,0,0,0,0,0,0,0,0],"sum_hessian":[2.285185E3,1.4512568E3,8.339283E2,1.2752911E3,1.7596573E2,4.9556073E2,3.3836755E2,1.0510522E3,2.2423888E2,1.313776E2,4.4588127E1,1.0889822E1,4.846709E2,2.649321E2,7.343547E1,9.262223E2,1.24829926E2,4.917426E1,1.7506462E2,1.1915093E2,1.22266655E1,2.8200867E1,1.6387262E1,3.415553E0,7.4742684E0,2.822398E2,2.0243108E2,1.9756763E2,6.736446E1,7.010722E1,3.3282459E0,1.07583475E1,9.154639E2,1.05660645E2,1.9169277E1,4.4011707E1,5.162551E0,1.1236662E2,6.2698E1,6.0385036E1,5.8765896E1,3.2164721E0,9.010194E0,2.4012989E1,4.1878777E0,7.21755E0,9.169713E0,4.3677344E0,3.106534E0,2.1708664E2,6.515318E1,1.5392735E2,4.8503723E1,1.8559264E2,1.1974989E1,6.3456745E1,3.9077156E0,3.3718254E1,3.638897E1,3.4439978E2,5.7106415E2,9.573109E1,9.929561E0,4.227557E0,3.978415E1,1.0725921E2,5.1074104E0,5.9897614E0,5.670824E1,6.1346726E0,5.4250366E1,3.6431684E0,5.3670254E0,1.654443E1,7.468559E0,2.0250342E2,1.4583218E1,4.955838E1,1.5594804E1,1.4734429E1,1.3919293E2,4.5433475E1,3.0702453E0,6.0378887E1,1.25213745E2,7.7293477E0,4.2456417E0,4.5718838E1,1.773791E1,2.6179602E1,7.5386515E0,2.7522957E1,8.866014E0],"tree_param":{"num_deleted":"0","num_feature":"44","num_nodes":"93","size_leaf_vector":"1"}},{"base_weights":[6.7634117E-3,-3.1439555E-1,5.59405E-1,-4.33373E-1,5.7267267E-1,7.0968866E-1,3.3748367E-1,-3.0724546E-1,-8.1935173E-1,9.628276E-1,-5.6451654E-1,8.1264323E-1,5.53797E-1,9.070874E-1,1.960688E-1,-4.661615E-1,2.6373165E-2,4.463644E-1,-8.777953E-1,1.0785794E0,-1.6990422E-1,-9.25137E-2,-8.681543E-1,5.537145E-3,8.4171665E-1,7.456776E-2,6.175516E-1,1.0067459E0,-1.7292961E-2,3.3974875E-2,7.7768975E-1,-9.0510654E-1,-3.1634018E-1,1.9877796E-1,-2.0312388E-1,6.388637E-2,-3.7945878E-2,-9.3383574E-1,2.7766427E-1,8.381385E-1,5.959944E-2,-3.0419672E-2,1.8409058E-2,3.9000055E-1,-4.5650188E-2,-1.055019E0,-5.205595E-1,4.5759335E-2,-4.0772293E-2,9.1566044E-1,6.1306965E-1,4.6520635E-1,-4.5091578E-1,5.4330017E-2,5.456775E-1,5.364828E-2,7.187791E-1,-3.707844E-2,1.0001109E0,5.070891E-2,5.641681E-1,-4.8409797E-2,3.6214963E-2,-1.1344383E-2,-5.1427316E-2,1.2473869E-2,-1.8746106E-2,-4.3161068E-2,-5.0429427E-3,-5.5682953E-2,-3.030226E-2,5.0561637E-2,-1.5361823E-2,2.8533598E-2,6.1248936E-2,4.9089964E-2,2.6368168E-3,-7.144522E-2,-3.245297E-2,1.9029204E-3,-3.789441E-2,3.8883712E-2,5.630782E-2,1.8360125E-2,4.4648673E-2,3.995291E-2,-2.8943554E-3,9.54812E-3,-4.7790658E-2,3.1716194E-2,1.1440455E-2,4.8995685E-2,2.0424617E-2,-1.8241653E-5,-6.623092E-2,5.9331503E-2,2.483588E-2,8.20678E-3,4.0715884E-2],"categories":[],"categories_nodes":[],"categories_segments":[],"categories_sizes":[],"default_left":[0,0,0,0,0,0,0,0,0,0,0,0,0,0,0,0,0,0,0,0,0,0,0,0,0,0,0,0,0,0,0,0,0,0,0,0,0,0,0,0,0,0,0,0,0,0,0,0,0,0,0,0,0,0,0,0,0,0,0,0,0,0,0,0,0,0,0,0,0,0,0,0,0,0,0,0,0,0,0,0,0,0,0,0,0,0,0,0,0,0,0,0,0,0,0,0,0,0,0],"id":11,"left_children":[1,3,5,7,9,11,13,15,17,19,21,23,25,27,29,31,33,35,37,39,41,43,45,47,49,51,53,55,-1,57,59,61,63,65,67,-1,-1,69,71,73,-1,-1,-1,75,-1,77,79,-1,-1,81,83,85,87,-1,89,-1,91,93,95,-1,97,-1,-1,-1,-1,-1,-1,-1,-1,-1,-1,-1,-1,-1,-1,-1,-1,-1,-1,-1,-1,-1,-1,-1,-1,-1,-1,-1,-1,-1,-1,-1,-1,-1,-1,-1,-1,-1,-1],"loss_changes":[4.0263147E2,1.5163922E2,2.7465302E1,6.1246902E1,7.6002686E1,7.37381E0,2.7006458E1,5.0723244E1,2.3433502E1,1.692566E1,6.1277733E0,6.8607025E0,6.019867E0,8.777611E0,2.5618166E1,4.2178497E1,1.2269485E1,1.5360155E1,1.9594955E1,1.9457855E0,3.211098E0,7.7197223E0,1.015768E0,9.288083E0,4.117157E0,5.3222694E0,5.207695E0,2.3898697E-1,0E0,1.4863722E1,2.2640266E0,1.7592773E1,3.0507854E1,5.2366066E0,8.783642E0,0E0,0E0,1.5901627E1,6.582856E0,3.3272915E0,0E0,0E0,0E0,2.2903616E0,0E0,1.3063755E0,1.6165936E0,0E0,0E0,5.137192E0,4.5828133E0,2.7195053E0,3.8289688E0,0E0,4.1389923E0,0E0,6.740904E-1,9.356438E0,6.348715E-1,0E0,3.1343317E0,0E0,0E0,0E0,0E0,0E0,0E0,0E0,0E0,0E0,0E0,0E0,0E0,0E0,0E0,0E0,0E0,0E0,0E0,0E0,0E0,0E0,0E0,0E0,0E0,0E0,0E0,0E0,0E0,0E0,0E0,0E0,0E0,0E0,0E0,0E0,0E0,0E0,0E0],"parents":[2147483647,0,0,1,1,2,2,3,3,4,4,5,5,6,6,7,7,8,8,9,9,10,10,11,11,12,12,13,13,14,14,15,15,16,16,17,17,18,18,19,19,20,20,21,21,22,22,23,23,24,24,25,25,26,26,27,27,29,29,30,30,31,31,32,32,33,33,34,34,37,37,38,38,39,39,43,43,45,45,46,46,49,49,50,50,51,51,52,52,54,54,56,56,57,57,58,58,60,60],"right_children":[2,4,6,8,10,12,14,16,18,20,22,24,26,28,30,32,34,36,38,40,42,44,46,48,50,52,54,56,-1,58,60,62,64,66,68,-1,-1,70,72,74,-1,-1,-1,76,-1,78,80,-1,-1,82,84,86,88,-1,90,-1,92,94,96,-1,98,-1,-1,-1,-1,-1,-1,-1,-1,-1,-1,-1,-1,-1,-1,-1,-1,-1,-1,-1,-1,-1,-1,-1,-1,-1,-1,-1,-1,-1,-1,-1,-1,-1,-1,-1,-1,-1,-1],"split_conditions":[1E0,1E0,2E0,7.0710677E-1,1E0,1E0,-5E-1,1E0,-7.818315E-1,2.4E2,-7.0710677E-1,5E-1,-8.660254E-1,1E0,1E0,-5E-1,6.234898E-1,1E0,1E0,-5E-1,-2.5881904E-1,1.2246469E-16,6.234898E-1,-2.4492937E-16,7.0710677E-1,6.6E1,-5E-1,6.7E1,-1.7292961E-2,1E0,1E0,2.4E1,1E0,1E0,-8.660254E-1,6.388637E-2,-3.7945878E-2,1E0,5E1,2.4E1,5.959944E-2,-3.0419672E-2,1.8409058E-2,1.2246469E-16,-4.5650188E-2,-5E-1,-5E-1,4.5759335E-2,-4.0772293E-2,2.5881904E-1,8.660254E-1,5E-1,6.234898E-1,5.4330017E-2,6.9E1,5.364828E-2,-8.660254E-1,3E0,5E-1,5.070891E-2,-1.8369701E-16,-4.8409797E-2,3.6214963E-2,-1.1344383E-2,-5.1427316E-2,1.2473869E-2,-1.8746106E-2,-4.3161068E-2,-5.0429427E-3,-5.5682953E-2,-3.030226E-2,5.0561637E-2,-1.5361823E-2,2.8533598E-2,6.1248936E-2,4.9089964E-2,2.6368168E-3,-7.144522E-2,-3.245297E-2,1.9029204E-3,-3.789441E-2,3.8883712E-2,5.630782E-2,1.8360125E-2,4.4648673E-2,3.995291E-2,-2.8943554E-3,9.54812E-3,-4.7790658E-2,3.1716194E-2,1.1440455E-2,4.8995685E-2,2.0424617E-2,-1.8241653E-5,-6.623092E-2,5.9331503E-2,2.483588E-2,8.20678E-3,4.0715884E-2],"split_indices":[1,37,0,6,26,9,6,32,4,0,7,0,2,26,32,3,5,26,19,2,6,2,5,2,6,43,2,43,0,37,11,0,8,26,2,0,0,32,43,0,0,0,0,6,0,6,7,0,0,6,6,6,5,0,43,0,6,0,3,0,3,0,0,0,0,0,0,0,0,0,0,0,0,0,0,0,0,0,0,0,0,0,0,0,0,0,0,0,0,0,0,0,0,0,0,0,0,0,0],"split_type":[0,0,0,0,0,0,0,0,0,0,0,0,0,0,0,0,0,0,0,0,0,0,0,0,0,0,0,0,0,0,0,0,0,0,0,0,0,0,0,0,0,0,0,0,0,0,0,0,0,0,0,0,0,0,0,0,0,0,0,0,0,0,0,0,0,0,0,0,0,0,0,0,0,0,0,0,0,0,0,0,0,0,0,0,0,0,0,0,0,0,0,0,0,0,0,0,0,0,0],"sum_hessian":[2.266399E3,1.4335588E3,8.3283997E2,1.264573E3,1.6898586E2,4.9498853E2,3.3785144E2,9.546681E2,3.099049E2,1.2599863E2,4.2987236E1,2.951862E2,1.9980234E2,6.597795E1,2.718735E2,6.465789E2,3.0808917E2,1.3309586E1,2.965953E2,1.1444026E2,1.155836E1,1.7467754E1,2.5519482E1,1.0424405E1,2.847618E2,2.3898756E1,1.7590358E2,6.137271E1,4.6052356E0,2.135804E2,5.82931E1,1.6308E2,4.8349893E2,1.7625267E2,1.318365E2,7.890114E0,5.419472E0,2.8314114E2,1.3454156E1,3.9649933E1,7.479033E1,6.398975E0,5.1593847E0,1.1252924E1,6.2148304E0,1.5086298E1,1.0433184E1,4.9485116E0,5.475893E0,2.1257393E2,7.2187874E1,1.3883171E1,1.0015586E1,2.1312077E1,1.5459149E2,4.7399624E1,1.397309E1,1.9974828E2,1.3832131E1,2.5657606E1,3.2635494E1,1.574508E2,5.629207E0,4.308442E2,5.2654713E1,1.6262088E2,1.363179E1,1.655552E1,1.1528098E2,1.8109262E2,1.0204854E2,5.7210393E0,7.7331166E0,2.5058125E1,1.4591809E1,3.2836025E0,7.9693213E0,6.413431E0,8.672867E0,3.2355998E0,7.1975837E0,1.3152501E2,8.104892E1,3.9851505E1,3.2336365E1,8.269176E0,5.613995E0,4.596172E0,5.4194136E0,1.1976804E2,3.4823456E1,6.240644E0,7.732446E0,1.9525851E2,4.4897556E0,8.957317E0,4.874814E0,1.3347094E1,1.92884E1],"tree_param":{"num_deleted":"0","num_feature":"44","num_nodes":"99","size_leaf_vector":"1"}},{"base_weights":[-6.9281682E-3,-3.034062E-1,5.1734936E-1,-4.171363E-1,5.6101114E-1,9.1036594E-1,4.2141387E-1,-2.9370385E-1,-7.888247E-1,9.259874E-1,-4.8724797E-1,9.433755E-1,-2.214167E-2,6.026584E-1,1.5870284E-1,1.1002072E-1,-3.9040703E-1,3.905752E-1,-8.4260017E-1,1.0326548E0,-1.10697724E-1,-1.5922223E-1,-5.042505E-2,1.0478122E0,5.3079873E-1,5.7183576E-1,6.2661566E-2,6.474699E-2,5.1235564E-2,5.5161184E-1,-1.0853534E-1,-3.296493E-1,-1.0934147E0,6.230929E-2,-4.2709958E-2,-9.4967455E-1,-3.274182E-1,8.460131E-1,6.02186E-2,-2.8917903E-2,1.7239144E-2,3.2140633E-1,-7.2481024E-1,1.0790807E0,1.292945E-2,8.0932146E-1,-1.7159203E-1,-1.9732499E-1,5.9048635E-1,4.9975235E-3,9.844918E-1,4.0354837E-2,-3.9792847E-2,-6.2219094E-4,-5.195705E-2,-1.361839E-2,-5.1253643E-2,-6.134502E-2,-1.6940849E-2,-4.9584504E-2,-6.154744E-3,5.0360723E-3,-4.044106E-2,2.728175E-2,5.7656266E-2,2.7045825E-2,-8.877311E-3,-5.536839E-2,-1.7901199E-2,5.599404E-2,2.8299127E-2,4.9222037E-2,2.0624192E-2,-2.1094281E-2,1.6234007E-3,4.722203E-2,-5.6187388E-2,3.512649E-2,2.220938E-2,1.9344799E-3,-6.546851E-2,5.8530983E-2,2.383178E-2],"categories":[],"categories_nodes":[],"categories_segments":[],"categories_sizes":[],"default_left":[0,0,0,0,0,0,0,0,0,0,0,0,0,0,0,0,0,0,0,0,0,0,0,0,0,0,0,0,0,0,0,0,0,0,0,0,0,0,0,0,0,0,0,0,0,0,0,0,0,0,0,0,0,0,0,0,0,0,0,0,0,0,0,0,0,0,0,0,0,0,0,0,0,0,0,0,0,0,0,0,0,0,0],"id":12,"left_children":[1,3,5,7,9,11,13,15,17,19,21,23,-1,25,27,29,31,33,35,37,39,41,-1,43,45,47,-1,49,-1,51,53,55,57,-1,-1,59,61,63,-1,-1,-1,65,67,69,-1,71,73,75,77,79,81,-1,-1,-1,-1,-1,-1,-1,-1,-1,-1,-1,-1,-1,-1,-1,-1,-1,-1,-1,-1,-1,-1,-1,-1,-1,-1,-1,-1,-1,-1,-1,-1],"loss_changes":[3.5191913E2,1.4241782E2,3.031662E1,5.833493E1,6.496184E1,7.5873413E0,3.1224854E1,3.762435E1,2.054509E1,1.4073334E1,7.2632113E0,6.0069275E0,0E0,6.913452E0,2.1856873E1,1.809948E1,3.2660957E1,1.6515846E1,1.636206E1,2.426033E0,2.888535E0,7.9860277E0,0E0,2.62883E0,6.800993E0,5.5205765E0,0E0,1.3384447E1,0E0,2.2003332E1,1.1096459E1,2.8121841E1,5.5925446E0,0E0,0E0,8.499832E0,1.1301651E1,4.5708923E0,0E0,0E0,0E0,1.877713E0,1.3424397E0,1.6703491E0,0E0,1.151865E0,5.787132E-1,1.1102533E1,5.5644073E0,1.0178875E1,6.82456E-1,0E0,0E0,0E0,0E0,0E0,0E0,0E0,0E0,0E0,0E0,0E0,0E0,0E0,0E0,0E0,0E0,0E0,0E0,0E0,0E0,0E0,0E0,0E0,0E0,0E0,0E0,0E0,0E0,0E0,0E0,0E0,0E0],"parents":[2147483647,0,0,1,1,2,2,3,3,4,4,5,5,6,6,7,7,8,8,9,9,10,10,11,11,13,13,14,14,15,15,16,16,17,17,18,18,19,19,20,20,21,21,23,23,24,24,25,25,27,27,29,29,30,30,31,31,32,32,35,35,36,36,37,37,41,41,42,42,43,43,45,45,46,46,47,47,48,48,49,49,50,50],"right_children":[2,4,6,8,10,12,14,16,18,20,22,24,-1,26,28,30,32,34,36,38,40,42,-1,44,46,48,-1,50,-1,52,54,56,58,-1,-1,60,62,64,-1,-1,-1,66,68,70,-1,72,74,76,78,80,82,-1,-1,-1,-1,-1,-1,-1,-1,-1,-1,-1,-1,-1,-1,-1,-1,-1,-1,-1,-1,-1,-1,-1,-1,-1,-1,-1,-1,-1,-1,-1,-1],"split_conditions":[1E0,1E0,-5E-1,7.0710677E-1,1E0,1E0,2E0,0E0,-7.818315E-1,2.4E2,-5E-1,1E0,-2.214167E-2,1E0,1E0,-5E-1,1E0,1E0,1E0,1.2246469E-16,-2.5881904E-1,-2.4492937E-16,-5.042505E-2,1E0,6.4E1,5E-1,6.2661566E-2,1E0,5.1235564E-2,1.06E2,1E0,1E0,1E0,6.230929E-2,-4.2709958E-2,1E0,5E-1,2.4E1,6.02186E-2,-2.8917903E-2,1.7239144E-2,-7.0710677E-1,1.07E2,1E0,1.292945E-2,4.8E1,-5E-1,-2.4492937E-16,1E0,3E0,5E-1,4.0354837E-2,-3.9792847E-2,-6.2219094E-4,-5.195705E-2,-1.361839E-2,-5.1253643E-2,-6.134502E-2,-1.6940849E-2,-4.9584504E-2,-6.154744E-3,5.0360723E-3,-4.044106E-2,2.728175E-2,5.7656266E-2,2.7045825E-2,-8.877311E-3,-5.536839E-2,-1.7901199E-2,5.599404E-2,2.8299127E-2,4.9222037E-2,2.0624192E-2,-2.1094281E-2,1.6234007E-3,4.722203E-2,-5.6187388E-2,3.512649E-2,2.220938E-2,1.9344799E-3,-6.546851E-2,5.8530983E-2,2.383178E-2],"split_indices":[1,37,6,6,26,26,0,4,4,0,7,30,0,37,10,6,8,26,10,2,6,2,0,12,43,0,0,37,0,43,8,9,31,0,0,36,3,0,0,0,0,7,43,18,0,43,3,2,9,0,3,0,0,0,0,0,0,0,0,0,0,0,0,0,0,0,0,0,0,0,0,0,0,0,0,0,0,0,0,0,0,0,0],"split_type":[0,0,0,0,0,0,0,0,0,0,0,0,0,0,0,0,0,0,0,0,0,0,0,0,0,0,0,0,0,0,0,0,0,0,0,0,0,0,0,0,0,0,0,0,0,0,0,0,0,0,0,0,0,0,0,0,0,0,0,0,0,0,0,0,0,0,0,0,0,0,0,0,0,0,0,0,0,0,0,0,0,0,0],"sum_hessian":[2.262194E3,1.4454222E3,8.167718E2,1.2779211E3,1.6750108E2,1.5838556E2,6.583862E2,9.608842E2,3.1703693E2,1.2440023E2,4.310085E1,1.5498174E2,3.403828E0,3.8860962E2,2.6977664E2,1.8545583E2,7.754284E2,1.3470937E1,3.03566E2,1.12885475E2,1.15147505E1,2.7372545E1,1.5728302E1,1.22253334E2,3.2728397E1,3.7297177E2,1.5637838E1,2.4444618E2,2.533046E1,6.1046143E1,1.2440968E2,7.152258E2,6.0202545E1,8.030368E0,5.440568E0,2.504711E2,5.3094902E1,5.72111E1,5.5674374E1,5.6566315E0,5.8581195E0,1.4935497E1,1.2437048E1,1.1711918E2,5.1341543E0,2.3428358E1,9.300038E0,8.475981E0,3.644958E2,2.3058109E2,1.3865101E1,5.171587E1,9.330272E0,1.1378175E2,1.0627933E1,6.6221515E2,5.3010696E1,5.0509216E1,9.693325E0,2.3805014E2,1.2420958E1,2.8410679E1,2.4684223E1,3.0490978E1,2.6720125E1,1.0453069E1,4.482429E0,4.9658875E0,7.471161E0,1.0721617E2,9.903004E0,1.5052972E1,8.375386E0,3.9175227E0,5.382516E0,3.7396612E0,4.7363195E0,2.0387323E2,1.6062256E2,2.2583865E2,4.742429E0,9.047347E0,4.817754E0],"tree_param":{"num_deleted":"0","num_feature":"44","num_nodes":"83","size_leaf_vector":"1"}},{"base_weights":[-1.4688399E-3,-3.003367E-1,5.230553E-1,-4.0712494E-1,5.18746E-1,8.7234366E-1,4.3820363E-1,-2.9078898E-1,-7.6554245E-1,8.894521E-1,-5.732064E-1,9.114235E-1,-1.9095076E-2,5.289427E-1,-1.27331475E-2,-2.0542656E-1,-7.3549587E-1,4.1379803E-1,-8.2225084E-1,6.0654116E-1,5.9538435E-2,-1.4694375E-1,-8.611007E-1,1.0008463E0,5.734154E-1,6.6659737E-1,2.6652318E-1,-3.5846132E-1,2.2439273E-1,1.3156903E-1,-2.8134802E-1,-5.4813977E-2,-9.373864E-1,6.1090477E-2,-4.0383864E-2,-8.703782E-1,1.0343811E-1,2.3367335E-1,8.075963E-1,3.038537E-1,-3.4992445E-2,-5.308881E-2,-4.9249506E-1,1.0507236E0,4.340465E-1,7.807217E-1,-0E0,7.472817E-1,1.664526E-1,-3.9246964E-1,4.547017E-1,-1.2589194E0,-0E0,6.401697E-1,-1.7195673E-1,2.2993911E-2,-5.0506233E-3,-1.810768E-2,3.1043638E-3,1.20866615E-2,-2.8382285E-2,-5.8487523E-2,-2.0920148E-2,-5.1953305E-2,-2.7721418E-2,4.5412928E-2,-1.7791249E-2,2.8231615E-2,-5.779721E-3,1.2827165E-2,4.6336498E-2,3.5559434E-2,-2.5212013E-3,-4.4843205E-3,-3.3800945E-2,5.3646E-2,1.6350297E-2,4.5616724E-2,-1.22280205E-2,5.491343E-2,2.8826734E-2,2.8872013E-2,-1.6971726E-2,2.4306234E-2,4.32648E-2,-1.3820029E-2,4.2860027E-2,2.9701343E-2,-2.748837E-2,-5.7722745E-3,2.6745677E-2,-2.9065466E-2,-7.451402E-2,-8.162232E-3,3.255423E-2,1.5221535E-2,5.4448467E-2,-2.119802E-2,2.4311928E-2],"categories":[],"categories_nodes":[],"categories_segments":[],"categories_sizes":[],"default_left":[0,0,0,0,0,0,0,0,0,0,0,0,0,0,0,0,0,0,0,0,0,0,0,0,0,0,0,0,0,0,0,0,0,0,0,0,0,0,0,0,0,0,0,0,0,0,0,0,0,0,0,0,0,0,0,0,0,0,0,0,0,0,0,0,0,0,0,0,0,0,0,0,0,0,0,0,0,0,0,0,0,0,0,0,0,0,0,0,0,0,0,0,0,0,0,0,0,0,0],"id":13,"left_children":[1,3,5,7,9,11,13,15,17,19,21,23,-1,25,27,29,31,33,35,37,-1,39,41,43,45,47,49,51,53,55,57,59,61,-1,-1,63,65,67,69,71,-1,-1,73,75,77,79,81,83,85,87,89,91,93,95,97,-1,-1,-1,-1,-1,-1,-1,-1,-1,-1,-1,-1,-1,-1,-1,-1,-1,-1,-1,-1,-1,-1,-1,-1,-1,-1,-1,-1,-1,-1,-1,-1,-1,-1,-1,-1,-1,-1,-1,-1,-1,-1,-1,-1],"loss_changes":[3.530887E2,1.2571991E2,2.3714798E1,5.263446E1,6.767464E1,8.171707E0,2.7061577E1,3.622631E1,2.114215E1,9.691734E0,4.9971294E0,3.926941E0,0E0,1.9582367E1,9.221812E0,2.0714905E1,2.1032356E1,1.5661437E1,1.3380692E1,4.677721E0,0E0,4.865315E0,1.175703E0,2.7963333E0,4.21463E0,1.42947235E1,2.3872555E1,1.4919483E1,1.1113615E1,1.1454557E1,1.83596E1,5.710985E0,1.3667099E1,0E0,0E0,1.430246E1,6.0889826E0,2.977878E0,2.4336586E0,1.6594728E0,0E0,0E0,6.668303E-1,1.2714157E0,4.053543E0,8.6550045E-1,2.156701E0,8.972992E0,1.6021029E1,6.971156E0,6.9256096E0,9.851551E-1,3.7365441E0,4.4689465E0,5.9562306E0,0E0,0E0,0E0,0E0,0E0,0E0,0E0,0E0,0E0,0E0,0E0,0E0,0E0,0E0,0E0,0E0,0E0,0E0,0E0,0E0,0E0,0E0,0E0,0E0,0E0,0E0,0E0,0E0,0E0,0E0,0E0,0E0,0E0,0E0,0E0,0E0,0E0,0E0,0E0,0E0,0E0,0E0,0E0,0E0],"parents":[2147483647,0,0,1,1,2,2,3,3,4,4,5,5,6,6,7,7,8,8,9,9,10,10,11,11,13,13,14,14,15,15,16,16,17,17,18,18,19,19,21,21,22,22,23,23,24,24,25,25,26,26,27,27,28,28,29,29,30,30,31,31,32,32,35,35,36,36,37,37,38,38,39,39,42,42,43,43,44,44,45,45,46,46,47,47,48,48,49,49,50,50,51,51,52,52,53,53,54,54],"right_children":[2,4,6,8,10,12,14,16,18,20,22,24,-1,26,28,30,32,34,36,38,-1,40,42,44,46,48,50,52,54,56,58,60,62,-1,-1,64,66,68,70,72,-1,-1,74,76,78,80,82,84,86,88,90,92,94,96,98,-1,-1,-1,-1,-1,-1,-1,-1,-1,-1,-1,-1,-1,-1,-1,-1,-1,-1,-1,-1,-1,-1,-1,-1,-1,-1,-1,-1,-1,-1,-1,-1,-1,-1,-1,-1,-1,-1,-1,-1,-1,-1,-1,-1],"split_conditions":[1E0,1E0,-5E-1,7.0710677E-1,1E0,1E0,1E0,1E0,-7.818315E-1,1.2246469E-16,-7.0710677E-1,1E0,-1.9095076E-2,1E0,-8.660254E-1,0E0,0E0,1E0,1E0,-2.5881904E-1,5.9538435E-2,1.2246469E-16,6.234898E-1,1E0,6.4E1,1E0,2E0,1.2246469E-16,7.0710677E-1,-2.5881904E-1,1E0,1.2246469E-16,9.3E1,6.1090477E-2,-4.0383864E-2,1E0,4.6E1,-5E-1,2E1,2.5881904E-1,-3.4992445E-2,-5.308881E-2,-5E-1,1E0,-7.0710677E-1,-5E-1,-7.0710677E-1,2.5881904E-1,7.0710677E-1,0E0,-8.660254E-1,1E0,2E0,1.2246469E-16,8.660254E-1,2.2993911E-2,-5.0506233E-3,-1.810768E-2,3.1043638E-3,1.20866615E-2,-2.8382285E-2,-5.8487523E-2,-2.0920148E-2,-5.1953305E-2,-2.7721418E-2,4.5412928E-2,-1.7791249E-2,2.8231615E-2,-5.779721E-3,1.2827165E-2,4.6336498E-2,3.5559434E-2,-2.5212013E-3,-4.4843205E-3,-3.3800945E-2,5.3646E-2,1.6350297E-2,4.5616724E-2,-1.22280205E-2,5.491343E-2,2.8826734E-2,2.8872013E-2,-1.6971726E-2,2.4306234E-2,4.32648E-2,-1.3820029E-2,4.2860027E-2,2.9701343E-2,-2.748837E-2,-5.7722745E-3,2.6745677E-2,-2.9065466E-2,-7.451402E-2,-8.162232E-3,3.255423E-2,1.5221535E-2,5.4448467E-2,-2.119802E-2,2.4311928E-2],"split_indices":[1,37,6,6,26,26,35,35,4,2,7,30,0,9,7,4,4,26,19,6,0,2,5,18,43,18,1,6,6,6,10,2,43,0,0,32,43,2,43,6,0,0,7,34,6,2,6,6,6,4,2,8,1,2,2,0,0,0,0,0,0,0,0,0,0,0,0,0,0,0,0,0,0,0,0,0,0,0,0,0,0,0,0,0,0,0,0,0,0,0,0,0,0,0,0,0,0,0,0],"split_type":[0,0,0,0,0,0,0,0,0,0,0,0,0,0,0,0,0,0,0,0,0,0,0,0,0,0,0,0,0,0,0,0,0,0,0,0,0,0,0,0,0,0,0,0,0,0,0,0,0,0,0,0,0,0,0,0,0,0,0,0,0,0,0,0,0,0,0,0,0,0,0,0,0,0,0,0,0,0,0,0,0,0,0,0,0,0,0,0,0,0,0,0,0,0,0,0,0,0,0],"sum_hessian":[2.2505068E3,1.4340308E3,8.164762E2,1.2691852E3,1.6484552E2,1.575342E2,6.58942E2,9.597558E2,3.094294E2,1.23272766E2,4.1572754E1,1.5311644E2,4.417754E0,5.485997E2,1.1034236E2,8.066118E2,1.53144E2,1.3826445E1,2.9560297E2,6.530331E1,5.796946E1,1.750791E1,2.4064844E1,1.1929824E2,3.3818195E1,3.585812E2,1.9001845E2,4.485461E1,6.548775E1,1.4793164E2,6.586802E2,3.543621E1,1.1770778E2,8.37075E0,5.4556947E0,2.8115332E2,1.4449627E1,2.3808584E1,4.149472E1,9.793005E0,7.7149043E0,1.4188538E1,9.876307E0,1.0870244E2,1.0595805E1,2.4697056E1,9.12114E0,3.0817218E2,5.0409027E1,4.1848793E1,1.4816965E2,1.2131326E1,3.2723286E1,3.1783491E1,3.3704254E1,6.111506E1,8.681658E1,5.334123E2,1.252679E2,2.2664183E1,1.2772029E1,8.030588E1,3.74019E1,1.8159387E2,9.955946E1,4.97371E0,9.475917E0,1.2055108E1,1.1753476E1,8.085948E0,3.340877E1,4.218066E0,5.5749393E0,3.72783E0,6.1484766E0,1.04865524E2,3.836916E0,6.0996547E0,4.49615E0,7.7601566E0,1.69369E1,3.0113857E0,6.109754E0,9.777335E1,2.1039882E2,3.0993513E1,1.9415514E1,5.2859097E0,3.6562885E1,1.8066525E1,1.3010313E2,4.091862E0,8.039464E0,2.664683E1,6.076457E0,1.926948E1,1.2514011E1,2.4739885E1,8.964371E0],"tree_param":{"num_deleted":"0","num_feature":"44","num_nodes":"99","size_leaf_vector":"1"}},{"base_weights":[1.1421227E-2,-2.7012432E-1,5.1795053E-1,-3.533744E-1,7.128679E-1,6.531481E-1,3.2589975E-1,-4.0129837E-1,8.3487713E-1,8.2121354E-1,-2.3985933E-1,-1.8720664E-1,6.722319E-1,2.0982349E-1,7.5337744E-1,-5.4335576E-1,-1.0914471E-1,5.4516315E-1,6.041659E-2,4.0309724E-1,5.9220593E-2,-3.0309035E-2,-1.3196764E-2,3.097172E-2,-4.0731575E-2,1.0338364E0,6.2495166E-1,7.546331E-1,8.384688E-2,8.375707E-1,-2.3734225E-2,-5.8996695E-1,3.5053748E-1,2.2026971E-2,-4.7891378E-1,7.4577814E-1,-1.8322023E-2,8.313122E-2,1.0358343E0,-7.4030235E-3,3.5194864E-3,1.2933767E-2,1.119665E0,8.77919E-1,5.637075E-1,9.500438E-1,2.5654465E-1,2.4777927E-2,9.3241286E-1,4.6955395E-2,4.637405E-1,-3.81705E-2,-1.7466187E-2,3.3719275E-2,-1.4669831E-3,2.3370923E-2,-3.9506494E-3,-1.3177524E-2,-4.4507753E-2,4.9052756E-2,2.1833314E-2,1.708196E-2,-5.2097697E-2,7.230825E-2,-1.8373936E-3,5.9426714E-2,2.8806195E-2,1.7967528E-2,4.7204126E-2,4.4023532E-2,2.6117189E-2,5.2704073E-2,2.0615522E-2,-0E0,3.631585E-2,-1.7667944E-3,4.8192408E-2,5.6923427E-2,1.8227192E-2,3.8994845E-2,-1.8740602E-2],"categories":[],"categories_nodes":[],"categories_segments":[],"categories_sizes":[],"default_left":[0,0,0,0,0,0,0,0,0,0,0,0,0,0,0,0,0,0,0,0,0,0,0,0,0,0,0,0,0,0,0,0,0,0,0,0,0,0,0,0,0,0,0,0,0,0,0,0,0,0,0,0,0,0,0,0,0,0,0,0,0,0,0,0,0,0,0,0,0,0,0,0,0,0,0,0,0,0,0,0,0],"id":14,"left_children":[1,3,5,7,9,11,13,15,17,19,21,23,25,27,29,31,33,35,-1,37,-1,-1,39,-1,-1,41,43,45,47,49,-1,51,53,55,57,59,-1,61,63,-1,-1,-1,65,67,69,71,73,75,77,-1,79,-1,-1,-1,-1,-1,-1,-1,-1,-1,-1,-1,-1,-1,-1,-1,-1,-1,-1,-1,-1,-1,-1,-1,-1,-1,-1,-1,-1,-1,-1],"loss_changes":[3.1986548E2,1.18172516E2,2.0496307E1,7.600839E1,1.189669E1,7.695587E0,1.6287415E1,5.2950577E1,4.769413E0,1.4790337E1,9.4268066E-1,6.131624E0,7.033844E0,1.79548E1,7.735733E0,3.6061707E1,2.0421253E1,6.0057974E0,0E0,9.69512E0,0E0,0E0,1.16542324E-1,0E0,0E0,2.9850159E0,5.6915436E0,4.430084E0,1.0682348E1,1.9494667E0,0E0,3.375653E1,5.3915844E0,1.4057218E1,9.40885E0,1.3164444E0,0E0,1.007181E1,7.3324833E0,0E0,0E0,0E0,8.5181046E-1,2.1905708E0,3.750946E0,1.3692532E0,1.8832339E0,1.1564058E1,1.0595837E0,0E0,4.6796665E0,0E0,0E0,0E0,0E0,0E0,0E0,0E0,0E0,0E0,0E0,0E0,0E0,0E0,0E0,0E0,0E0,0E0,0E0,0E0,0E0,0E0,0E0,0E0,0E0,0E0,0E0,0E0,0E0,0E0,0E0],"parents":[2147483647,0,0,1,1,2,2,3,3,4,4,5,5,6,6,7,7,8,8,9,9,10,10,11,11,12,12,13,13,14,14,15,15,16,16,17,17,19,19,22,22,25,25,26,26,27,27,28,28,29,29,31,31,32,32,33,33,34,34,35,35,37,37,38,38,42,42,43,43,44,44,45,45,46,46,47,47,48,48,50,50],"right_children":[2,4,6,8,10,12,14,16,18,20,22,24,26,28,30,32,34,36,-1,38,-1,-1,40,-1,-1,42,44,46,48,50,-1,52,54,56,58,60,-1,62,64,-1,-1,-1,66,68,70,72,74,76,78,-1,80,-1,-1,-1,-1,-1,-1,-1,-1,-1,-1,-1,-1,-1,-1,-1,-1,-1,-1,-1,-1,-1,-1,-1,-1,-1,-1,-1,-1,-1,-1],"split_conditions":[1E0,2.4E1,2E0,1E0,2.4E2,5E-1,1E0,1E0,-2.4492937E-16,1E0,-5E-1,-2.4492937E-16,7.5E-1,-5E-1,9.3E1,1E0,7.0710677E-1,6.123234E-17,6.041659E-2,1E0,5.9220593E-2,-3.0309035E-2,2E1,3.097172E-2,-4.0731575E-2,-9.659258E-1,2.5E1,6.6E1,1E0,8.660254E-1,-2.3734225E-2,1E0,5E-1,0E0,6.9E1,5.2E1,-1.8322023E-2,8.660254E-1,8.660254E-1,-7.4030235E-3,3.5194864E-3,1.2933767E-2,8.660254E-1,1E0,-7.0710677E-1,1E0,1E0,1E0,5E-1,4.6955395E-2,6.1E1,-3.81705E-2,-1.7466187E-2,3.3719275E-2,-1.4669831E-3,2.3370923E-2,-3.9506494E-3,-1.3177524E-2,-4.4507753E-2,4.9052756E-2,2.1833314E-2,1.708196E-2,-5.2097697E-2,7.230825E-2,-1.8373936E-3,5.9426714E-2,2.8806195E-2,1.7967528E-2,4.7204126E-2,4.4023532E-2,2.6117189E-2,5.2704073E-2,2.0615522E-2,-0E0,3.631585E-2,-1.7667944E-3,4.8192408E-2,5.6923427E-2,1.8227192E-2,3.8994845E-2,-1.8740602E-2],"split_indices":[1,0,0,21,0,0,32,32,2,20,6,2,0,6,43,23,6,3,0,14,0,0,43,0,0,7,43,43,21,2,0,40,3,4,43,43,0,2,3,0,0,0,3,43,6,18,35,19,3,0,43,0,0,0,0,0,0,0,0,0,0,0,0,0,0,0,0,0,0,0,0,0,0,0,0,0,0,0,0,0,0],"split_type":[0,0,0,0,0,0,0,0,0,0,0,0,0,0,0,0,0,0,0,0,0,0,0,0,0,0,0,0,0,0,0,0,0,0,0,0,0,0,0,0,0,0,0,0,0,0,0,0,0,0,0,0,0,0,0,0,0,0,0,0,0,0,0,0,0,0,0,0,0,0,0,0,0,0,0,0,0,0,0,0,0],"sum_hessian":[2.2407668E3,1.4404094E3,8.003573E2,1.3286294E3,1.1178E2,4.6798755E2,3.3236975E2,1.2778387E3,5.0790726E1,1.0058439E2,1.1195613E1,1.0079668E1,4.579079E2,2.6274844E2,6.96213E1,8.589694E2,4.1886926E2,3.0138111E1,2.0652615E1,4.7865967E1,5.2718422E1,3.4707656E0,7.7248473E0,4.345843E0,5.7338257E0,5.029156E1,4.0761633E2,4.8259045E1,2.1448941E2,6.552823E1,4.093072E0,8.168286E2,4.214085E1,3.0968262E2,1.0918665E2,2.4940992E1,5.1971188E0,3.264652E1,1.5219448E1,3.1184173E0,4.60643E0,5.529637E0,4.4761925E1,7.6532684E1,3.3108365E2,3.3864956E1,1.4394092E1,2.0160281E2,1.2886591E1,5.013208E1,1.5396149E1,4.7318997E2,3.436386E2,2.247161E1,1.966924E1,5.677554E1,2.5290707E2,7.289581E1,3.6290836E1,1.2743856E1,1.2197135E1,2.718542E1,5.4610987E0,1.0823647E1,4.3958015E0,3.8511684E1,6.2502418E0,9.558542E0,6.6974144E1,3.5617954E1,2.954657E2,2.7414717E1,6.4502387E0,9.903667E0,4.4904237E0,1.902782E2,1.132462E1,8.589074E0,4.297517E0,1.1318122E1,4.0780272E0],"tree_param":{"num_deleted":"0","num_feature":"44","num_nodes":"81","size_leaf_vector":"1"}},{"base_weights":[-1.1150163E-3,-2.655973E-1,4.7774172E-1,-3.446954E-1,7.2375137E-1,6.2415594E-1,2.683797E-1,-3.8887605E-1,7.9847175E-1,8.3932996E-1,-3.157463E-1,7.416413E-1,4.5561624E-1,7.425699E-1,1.5777585E-1,-3.029718E-1,-7.9877573E-1,4.874568E-1,5.9590768E-2,9.384635E-1,-2.5085395E-2,-3.1805076E-2,3.7461512E-3,-1.9091828E-1,7.8026104E-1,5.6016666E-1,9.2971765E-2,8.7448746E-1,1.379163E-1,3.0193686E-1,-1.9406395E-1,-1.0867846E-1,-4.9299237E-1,-2.865809E-1,-9.4695383E-1,7.7023673E-1,-3.36699E-2,1.1547606E0,1.0055292E-1,4.001673E-2,-4.773025E-2,5.2239694E-2,7.133343E-1,6.333976E-1,3.042697E-1,-1.3813883E-1,7.2326076E-1,9.6436095E-1,6.0394453E-3,-2.2383319E-1,4.6237346E-2,4.6955693E-1,-1.9349356E-1,5.5840737E-1,-3.5846537E-1,1.7700708E-2,-1.0149909E-2,-2.650532E-2,3.4629524E-2,2.0002509E-2,-3.0962039E-2,-6.284986E-2,-2.822253E-2,2.5679061E-2,5.951918E-2,6.0224105E-2,3.982875E-2,3.0312924E-2,-4.9721554E-2,2.2005558E-2,4.2233225E-2,3.8463753E-2,2.2574348E-2,2.2246812E-2,-6.863965E-3,-2.2236317E-2,1.1207876E-2,4.5868192E-2,5.0421027E-3,5.1110476E-2,1.9236892E-2,-4.3669116E-2,1.3136703E-2,3.4860026E-2,-4.3975925E-3,1.673617E-2,-4.3953463E-2,3.9151773E-2,-7.721414E-3,-3.8988486E-2,-0E0],"categories":[],"categories_nodes":[],"categories_segments":[],"categories_sizes":[],"default_left":[0,0,0,0,0,0,0,0,0,0,0,0,0,0,0,0,0,0,0,0,0,0,0,0,0,0,0,0,0,0,0,0,0,0,0,0,0,0,0,0,0,0,0,0,0,0,0,0,0,0,0,0,0,0,0,0,0,0,0,0,0,0,0,0,0,0,0,0,0,0,0,0,0,0,0,0,0,0,0,0,0,0,0,0,0,0,0,0,0,0,0],"id":15,"left_children":[1,3,5,7,9,11,13,15,17,19,21,23,25,27,29,31,33,35,-1,37,-1,-1,-1,39,41,43,45,47,49,51,53,55,57,59,61,63,-1,65,67,-1,-1,-1,69,71,73,75,77,79,-1,81,-1,83,85,87,89,-1,-1,-1,-1,-1,-1,-1,-1,-1,-1,-1,-1,-1,-1,-1,-1,-1,-1,-1,-1,-1,-1,-1,-1,-1,-1,-1,-1,-1,-1,-1,-1,-1,-1,-1,-1],"loss_changes":[2.8015555E2,1.1174477E2,2.3867111E1,6.6962585E1,1.3021484E1,8.69191E0,1.6885704E1,4.444197E1,5.291874E0,1.3213165E1,1.5080763E0,9.944122E0,7.190342E0,4.659645E0,1.3546492E1,3.878208E1,1.6271896E1,1.0182376E1,0E0,1.59543E1,0E0,0E0,0E0,9.447588E0,3.6799774E0,2.5093765E0,6.647196E0,3.1561432E0,3.7734082E0,1.5819893E1,9.784095E0,2.2856964E1,2.3763168E1,1.1886837E1,1.9238068E1,1.8260946E0,0E0,1.0202026E-1,1.1375997E1,0E0,0E0,0E0,7.066101E0,2.3674889E0,2.2921016E0,3.8225133E0,1.2829571E0,9.5261765E-1,0E0,3.1769602E0,0E0,1.8108152E1,1.7859745E1,2.4578862E0,9.726991E0,0E0,0E0,0E0,0E0,0E0,0E0,0E0,0E0,0E0,0E0,0E0,0E0,0E0,0E0,0E0,0E0,0E0,0E0,0E0,0E0,0E0,0E0,0E0,0E0,0E0,0E0,0E0,0E0,0E0,0E0,0E0,0E0,0E0,0E0,0E0,0E0],"parents":[2147483647,0,0,1,1,2,2,3,3,4,4,5,5,6,6,7,7,8,8,9,9,10,10,11,11,12,12,13,13,14,14,15,15,16,16,17,17,19,19,23,23,24,24,25,25,26,26,27,27,28,28,29,29,30,30,31,31,32,32,33,33,34,34,35,35,37,37,38,38,42,42,43,43,44,44,45,45,46,46,47,47,49,49,51,51,52,52,53,53,54,54],"right_children":[2,4,6,8,10,12,14,16,18,20,22,24,26,28,30,32,34,36,-1,38,-1,-1,-1,40,42,44,46,48,50,52,54,56,58,60,62,64,-1,66,68,-1,-1,-1,70,72,74,76,78,80,-1,82,-1,84,86,88,90,-1,-1,-1,-1,-1,-1,-1,-1,-1,-1,-1,-1,-1,-1,-1,-1,-1,-1,-1,-1,-1,-1,-1,-1,-1,-1,-1,-1,-1,-1,-1,-1,-1,-1,-1,-1],"split_conditions":[1E0,2.4E1,2E0,1E0,2.4E2,1E0,-5E-1,1E0,-2.4492937E-16,1E0,1.2246469E-16,5E-1,7E1,7.3E1,1E0,2.5881904E-1,0E0,6.123234E-17,5.9590768E-2,1E0,-2.5085395E-2,-3.1805076E-2,3.7461512E-3,-2.4492937E-16,-5E-1,7.0710677E-1,5E-1,1E0,1E0,1E0,0E0,0E0,1E0,-2.5881904E-1,6.5E1,-5E-1,-3.36699E-2,1E0,8.660254E-1,4.001673E-2,-4.773025E-2,5.2239694E-2,2.5881904E-1,1E0,1E0,7.2E1,7.5E1,-1.8369701E-16,6.0394453E-3,-5E-1,4.6237346E-2,1E0,5E-1,8.660254E-1,6.123234E-17,1.7700708E-2,-1.0149909E-2,-2.650532E-2,3.4629524E-2,2.0002509E-2,-3.0962039E-2,-6.284986E-2,-2.822253E-2,2.5679061E-2,5.951918E-2,6.0224105E-2,3.982875E-2,3.0312924E-2,-4.9721554E-2,2.2005558E-2,4.2233225E-2,3.8463753E-2,2.2574348E-2,2.2246812E-2,-6.863965E-3,-2.2236317E-2,1.1207876E-2,4.5868192E-2,5.0421027E-3,5.1110476E-2,1.9236892E-2,-4.3669116E-2,1.3136703E-2,3.4860026E-2,-4.3975925E-3,1.673617E-2,-4.3953463E-2,3.9151773E-2,-7.721414E-3,-3.8988486E-2,-0E0],"split_indices":[1,0,0,21,0,9,6,35,2,12,6,0,43,43,9,6,4,3,0,13,0,0,0,2,6,6,2,18,35,35,4,4,23,6,43,7,0,5,2,0,0,0,6,30,5,43,43,7,0,3,0,18,3,3,3,0,0,0,0,0,0,0,0,0,0,0,0,0,0,0,0,0,0,0,0,0,0,0,0,0,0,0,0,0,0,0,0,0,0,0,0],"split_type":[0,0,0,0,0,0,0,0,0,0,0,0,0,0,0,0,0,0,0,0,0,0,0,0,0,0,0,0,0,0,0,0,0,0,0,0,0,0,0,0,0,0,0,0,0,0,0,0,0,0,0,0,0,0,0,0,0,0,0,0,0,0,0,0,0,0,0,0,0,0,0,0,0,0,0,0,0,0,0,0,0,0,0,0,0,0,0,0,0,0,0],"sum_hessian":[2.2102263E3,1.4242424E3,7.859838E2,1.3195013E3,1.0474101E2,4.6107733E2,3.2490646E2,1.2711229E3,4.8378525E1,9.452035E1,1.0220669E1,2.6933566E2,1.917417E2,6.0198856E1,2.647076E2,1.0525244E3,2.1859845E2,2.8409088E1,1.9969437E1,8.8363045E1,6.157297E0,5.411163E0,4.809506E0,1.0450572E1,2.5888507E2,1.4819627E2,4.3545418E1,4.8915333E1,1.12835245E1,1.8807343E2,7.663418E1,5.214487E2,5.3107574E2,4.9860104E1,1.6873836E2,2.318415E1,5.2249374E0,6.9837746E1,1.8525303E1,4.4698486E0,5.980723E0,4.902096E1,2.0986412E2,1.137718E2,3.442448E1,3.2317577E1,1.122784E1,4.3335663E1,5.579672E0,8.132841E0,3.150683E0,1.4071805E2,4.735538E1,1.3202228E1,6.3431946E1,8.7651924E1,4.3379678E2,5.155732E2,1.5502512E1,1.6108322E1,3.375178E1,9.178947E1,7.694888E1,1.5919679E1,7.2644715E0,5.9005047E1,1.0832698E1,1.3040403E1,5.484901E0,6.978791E1,1.400762E2,6.2963154E1,5.0808643E1,2.6273273E1,8.151206E0,1.753086E1,1.47867155E1,8.075073E0,3.1527677E0,3.855193E1,4.7837324E0,3.2306187E0,4.9022226E0,9.9868324E1,4.0849716E1,2.6953985E1,2.0401394E1,1.0070596E1,3.1316316E0,2.8613684E1,3.4818264E1],"tree_param":{"num_deleted":"0","num_feature":"44","num_nodes":"91","size_leaf_vector":"1"}},{"base_weights":[8.151905E-3,-2.519617E-1,4.823839E-1,-3.2841802E-1,7.014018E-1,6.295666E-1,2.7463144E-1,-2.3597173E-1,-8.1033754E-1,8.2134384E-1,-2.2041215E-1,6.018705E-1,6.018972E-2,2.0008597E-1,9.846103E-1,-2.7980146E-1,7.181596E-1,-2.7617446E-1,-9.705364E-1,4.6280915E-1,5.7339866E-2,-2.7476912E-2,5.9804518E-2,9.4900006E-1,5.59154E-1,7.228684E-1,8.1228904E-2,1.1017463E0,4.494887E-1,-3.8262766E-2,-4.063109E-1,3.4751835E-1,5.89046E-2,3.2146183E-1,-5.821739E-1,-1.1880211E0,-5.7993335E-1,8.8878566E-1,3.1236494E-2,-2.2901983E-3,9.209177E-3,5.7210475E-2,6.8548447E-1,7.775224E-1,5.0338006E-1,8.796479E-1,1.5878595E-1,1.1459935E-1,-6.474795E-2,5.8439832E-2,2.4638731E-2,1.7255662E-3,3.6828786E-2,1.2990795E-3,-3.8377974E-2,-1.2433412E-2,-3.1264946E-2,3.019532E-2,-3.1942092E-2,-0E0,2.8883383E-2,-4.367254E-2,1.5726706E-2,-6.0834248E-2,-2.5140489E-2,-1.8580955E-2,-5.509158E-2,6.895915E-2,2.3226993E-2,-8.099103E-3,3.747262E-2,4.7281798E-2,1.735401E-2,4.172614E-2,1.0505051E-2,3.085261E-2,1.9478269E-2,5.0116103E-2,2.0739196E-2,-1.2613537E-2,2.373688E-2,3.3112813E-3,5.0705414E-2],"categories":[],"categories_nodes":[],"categories_segments":[],"categories_sizes":[],"default_left":[0,0,0,0,0,0,0,0,0,0,0,0,0,0,0,0,0,0,0,0,0,0,0,0,0,0,0,0,0,0,0,0,0,0,0,0,0,0,0,0,0,0,0,0,0,0,0,0,0,0,0,0,0,0,0,0,0,0,0,0,0,0,0,0,0,0,0,0,0,0,0,0,0,0,0,0,0,0,0,0,0,0,0],"id":16,"left_children":[1,3,5,7,9,11,13,15,17,19,21,23,-1,25,27,29,31,33,35,37,-1,-1,39,41,43,45,47,49,51,53,55,57,-1,59,61,63,65,67,69,-1,-1,-1,71,73,75,77,79,81,-1,-1,-1,-1,-1,-1,-1,-1,-1,-1,-1,-1,-1,-1,-1,-1,-1,-1,-1,-1,-1,-1,-1,-1,-1,-1,-1,-1,-1,-1,-1,-1,-1,-1,-1],"loss_changes":[2.711572E2,1.0364943E2,2.3547165E1,5.8278E1,1.1916355E1,6.3269196E0,1.6883228E1,4.6355427E1,1.766539E1,1.0247231E1,1.2669743E0,5.7832336E0,0E0,1.821995E1,1.2611504E0,3.223909E1,7.7396355E0,9.398848E0,1.2879028E1,8.415744E0,0E0,0E0,1.2313629E-1,1.4030952E0,4.241333E0,4.571785E0,1.1144659E1,2.4504662E-1,7.694082E-1,1.7181637E1,2.3691467E1,7.5911274E0,0E0,1.4326901E0,9.129091E0,1.2356262E0,5.964798E0,4.0043793E0,3.5406728E0,0E0,0E0,0E0,1.5076332E0,2.2211838E0,3.728714E0,1.8518257E0,1.8564893E0,1.01492605E1,0E0,0E0,0E0,0E0,0E0,0E0,0E0,0E0,0E0,0E0,0E0,0E0,0E0,0E0,0E0,0E0,0E0,0E0,0E0,0E0,0E0,0E0,0E0,0E0,0E0,0E0,0E0,0E0,0E0,0E0,0E0,0E0,0E0,0E0,0E0],"parents":[2147483647,0,0,1,1,2,2,3,3,4,4,5,5,6,6,7,7,8,8,9,9,10,10,11,11,13,13,14,14,15,15,16,16,17,17,18,18,19,19,22,22,23,23,24,24,25,25,26,26,27,27,28,28,29,29,30,30,31,31,33,33,34,34,35,35,36,36,37,37,38,38,42,42,43,43,44,44,45,45,46,46,47,47],"right_children":[2,4,6,8,10,12,14,16,18,20,22,24,-1,26,28,30,32,34,36,38,-1,-1,40,42,44,46,48,50,52,54,56,58,-1,60,62,64,66,68,70,-1,-1,-1,72,74,76,78,80,82,-1,-1,-1,-1,-1,-1,-1,-1,-1,-1,-1,-1,-1,-1,-1,-1,-1,-1,-1,-1,-1,-1,-1,-1,-1,-1,-1,-1,-1,-1,-1,-1,-1,-1,-1],"split_conditions":[1E0,2.4E1,2E0,1E0,2.4E2,1E0,1E0,1E0,0E0,1E0,-2.5881904E-1,-7.0710677E-1,6.018972E-2,-5E-1,8.660254E-1,-2.5881904E-1,-2.4492937E-16,-2.5881904E-1,9.5E1,-7.0710677E-1,5.7339866E-2,-2.7476912E-2,5E-1,7.818315E-1,2.3E1,8.5E1,1E0,1E0,2.5881904E-1,-1.8369701E-16,6.234898E-1,6.123234E-17,5.89046E-2,6.123234E-17,1E0,1E0,8.660254E-1,3.6E1,7.1E1,-2.2901983E-3,9.209177E-3,5.7210475E-2,1.2246469E-16,8.660254E-1,6.234898E-1,1E0,-1.8369701E-16,1E0,-6.474795E-2,5.8439832E-2,2.4638731E-2,1.7255662E-3,3.6828786E-2,1.2990795E-3,-3.8377974E-2,-1.2433412E-2,-3.1264946E-2,3.019532E-2,-3.1942092E-2,-0E0,2.8883383E-2,-4.367254E-2,1.5726706E-2,-6.0834248E-2,-2.5140489E-2,-1.8580955E-2,-5.509158E-2,6.895915E-2,2.3226993E-2,-8.099103E-3,3.747262E-2,4.7281798E-2,1.735401E-2,4.172614E-2,1.0505051E-2,3.085261E-2,1.9478269E-2,5.0116103E-2,2.0739196E-2,-1.2613537E-2,2.373688E-2,3.3112813E-3,5.0705414E-2],"split_indices":[1,0,0,35,0,20,10,21,4,20,6,6,0,6,3,6,2,6,43,7,0,0,6,4,43,43,26,2,6,7,5,3,0,3,9,3,6,43,43,0,0,0,2,2,5,40,3,21,0,0,0,0,0,0,0,0,0,0,0,0,0,0,0,0,0,0,0,0,0,0,0,0,0,0,0,0,0,0,0,0,0,0,0],"split_type":[0,0,0,0,0,0,0,0,0,0,0,0,0,0,0,0,0,0,0,0,0,0,0,0,0,0,0,0,0,0,0,0,0,0,0,0,0,0,0,0,0,0,0,0,0,0,0,0,0,0,0,0,0,0,0,0,0,0,0,0,0,0,0,0,0,0,0,0,0,0,0,0,0,0,0,0,0,0,0,0,0,0,0],"sum_hessian":[2.1960278E3,1.4183363E3,7.7769165E2,1.3137395E3,1.0459677E2,4.5373233E2,3.2395935E2,1.1037123E3,2.100272E2,9.274651E1,1.185026E1,4.349749E2,1.8757395E1,2.9446423E2,2.9495117E1,1.0560139E3,4.7698345E1,4.922863E1,1.6079857E2,4.5429054E1,4.731746E1,5.171668E0,6.6785917E0,4.5080193E1,3.8989474E2,5.3449234E1,2.4101498E2,2.3176195E1,6.318921E0,3.6370377E2,6.923102E2,2.7505646E1,2.01927E1,1.6542585E1,3.2686047E1,1.01812614E2,5.8985962E1,2.2212984E1,2.3216072E1,3.518677E0,3.1599147E0,2.3758543E1,2.1321648E1,7.632608E1,3.1356866E2,4.124813E1,1.2201101E1,2.3627507E2,4.7399154E0,1.9901455E1,3.2747402E0,3.1844354E0,3.1344857E0,3.3501892E2,2.8684841E1,4.040438E2,2.882664E2,2.2219244E1,5.286401E0,7.8167777E0,8.725807E0,2.4775648E1,7.9103975E0,9.6840004E1,4.9726033E0,4.3519093E1,1.5466867E1,9.149828E0,1.3063156E1,1.8794973E1,4.4210987E0,1.08730135E1,1.0448634E1,6.877074E1,7.555343E0,1.5423079E2,1.5933788E2,3.1550821E1,9.697311E0,5.2525377E0,6.9485636E0,2.2534148E2,1.09335985E1],"tree_param":{"num_deleted":"0","num_feature":"44","num_nodes":"83","size_leaf_vector":"1"}},{"base_weights":[5.223827E-3,-2.3248407E-1,4.346118E-1,-3.230377E-1,5.076685E-1,8.8345766E-1,3.8001582E-1,-4.529874E-1,-6.146038E-2,8.2938236E-1,-3.1895784E-1,4.7354292E-2,-2.2482654E-2,3.4706798E-1,5.3688567E-2,-5.074601E-1,2.4690731E-1,1.19129665E-1,-3.0175227E-1,9.575164E-1,-2.9552677E-1,1.7685752E-1,-6.84373E-1,1.647976E-1,4.9212337E-1,-6.964584E-2,-6.0802245E-1,1.2305315E0,-8.407815E-2,1.8269219E-1,-4.572249E-1,9.831042E-2,-5.0830376E-1,7.932961E-1,5.5663016E-2,-3.795214E-2,-8.148295E-3,