{"learner":{"attributes":{"best_iteration":"356","best_score":"0.4113485781132812","scikit_learn":"{\"_estimator_type\": \"regressor\"}"},"feature_names":["SLA_hours","urgency_level","month_sin","month_cos","dow_sin","dow_cos","hour_sin","hour_cos","mgmt_A1","mgmt_A2","mgmt_B1","mgmt_B2","mgmt_D1","mgmt_E1","mgmt_E2","mgmt_F1","mgmt_F2","mgmt_F7","mgmt_G1","mgmt_G2","mgmt_H1","mgmt_H2","mgmt_I1","mgmt_M1","mgmt_M2","mgmt_N1","mgmt_P1","cat_ar","cat_av","cat_blackout","cat_ce","cat_ci","cat_el","cat_ia","cat_ie","cat_is","cat_me","cat_ms","cat_msv","cat_mv","cat_pu","cat_se","cat_so","building_code"],"feature_types":["float","float","float","float","float","float","float","float","int","int","int","int","int","int","int","int","int","int","int","int","int","int","int","int","int","int","int","int","int","int","int","int","int","int","int","int","int","int","int","int","int","int","int","int"],"gradient_booster":{"model":{"cats":{"enc":[],"feature_segments":[],"sorted_idx":[]},"gbtree_model_param":{"num_parallel_tree":"1","num_trees":"382"},"iteration_indptr":[0,1,2,3,4,5,6,7,8,9,10,11,12,13,14,15,16,17,18,19,20,21,22,23,24,25,26,27,28,29,30,31,32,33,34,35,36,37,38,39,40,41,42,43,44,45,46,47,48,49,50,51,52,53,54,55,56,57,58,59,60,61,62,63,64,65,66,67,68,69,70,71,72,73,74,75,76,77,78,79,80,81,82,83,84,85,86,87,88,89,90,91,92,93,94,95,96,97,98,99,100,101,102,103,104,105,106,107,108,109,110,111,112,113,114,115,116,117,118,119,120,121,122,123,124,125,126,127,128,129,130,131,132,133,134,135,136,137,138,139,140,141,142,143,144,145,146,147,148,149,150,151,152,153,154,155,156,157,158,159,160,161,162,163,164,165,166,167,168,169,170,171,172,173,174,175,176,177,178,179,180,181,182,183,184,185,186,187,188,189,190,191,192,193,194,195,196,197,198,199,200,201,202,203,204,205,206,207,208,209,210,211,212,213,214,215,216,217,218,219,220,221,222,223,224,225,226,227,228,229,230,231,232,233,234,235,236,237,238,239,240,241,242,243,244,245,246,247,248,249,250,251,252,253,254,255,256,257,258,259,260,261,262,263,264,265,266,267,268,269,270,271,272,273,274,275,276,277,278,279,280,281,282,283,284,285,286,287,288,289,290,291,292,293,294,295,296,297,298,299,300,301,302,303,304,305,306,307,308,309,310,311,312,313,314,315,316,317,318,319,320,321,322,323,324,325,326,327,328,329,330,331,332,333,334,335,336,337,338,339,340,341,342,343,344,345,346,347,348,349,350,351,352,353,354,355,356,357,358,359,360,361,362,363,364,365,366,367,368,369,370,371,372,373,374,375,376,377,378,379,380,381,382],"tree_info":[0,0,0,0,0,0,0,0,0,0,0,0,0,0,0,0,0,0,0,0,0,0,0,0,0,0,0,0,0,0,0,0,0,0,0,0,0,0,0,0,0,0,0,0,0,0,0,0,0,0,0,0,0,0,0,0,0,0,0,0,0,0,0,0,0,0,0,0,0,0,0,0,0,0,0,0,0,0,0,0,0,0,0,0,0,0,0,0,0,0,0,0,0,0,0,0,0,0,0,0,0,0,0,0,0,0,0,0,0,0,0,0,0,0,0,0,0,0,0,0,0,0,0,0,0,0,0,0,0,0,0,0,0,0,0,0,0,0,0,0,0,0,0,0,0,0,0,0,0,0,0,0,0,0,0,0,0,0,0,0,0,0,0,0,0,0,0,0,0,0,0,0,0,0,0,0,0,0,0,0,0,0,0,0,0,0,0,0,0,0,0,0,0,0,0,0,0,0,0,0,0,0,0,0,0,0,0,0,0,0,0,0,0,0,0,0,0,0,0,0,0,0,0,0,0,0,0,0,0,0,0,0,0,0,0,0,0,0,0,0,0,0,0,0,0,0,0,0,0,0,0,0,0,0,0,0,0,0,0,0,0,0,0,0,0,0,0,0,0,0,0,0,0,0,0,0,0,0,0,0,0,0,0,0,0,0,0,0,0,0,0,0,0,0,0,0,0,0,0,0,0,0,0,0,0,0,0,0,0,0,0,0,0,0,0,0,0,0,0,0,0,0,0,0,0,0,0,0,0,0,0,0,0,0,0,0,0,0,0,0,0,0,0,0,0,0,0,0,0,0,0,0,0,0,0,0,0,0,0,0,0,0,0,0,0,0,0,0,0,0,0,0,0,0,0,0,0,0,0,0,0,0],"trees":[{"base_weights":[-3.079996E-3,-9.62634E-2,7.843162E-1,-3.8658936E-2,-3.379771E-1,9.9048984E-1,-2.2595692E-1,-5.135367E-2,1.0209236E0,-2.2537118E-1,-3.7284306E-1,1.0619237E0,-2.7171057E-1,-1.0718644E-1,-3.1744087E-1,1.4001231E-2,-1.9278145E-1,-8.865256E-2,3.9791808E-2,-3.1373963E-1,-1.2993236E-1,-3.2220143E-1,-4.0357515E-1,1.277695E0,8.7065023E-1,-8.078927E-1,-3.9997056E-2,-2.1775457E-1,-5.8936376E-2,-5.6609325E-3,-1.0109814E-2,5.535954E-2,-2.4214253E-1,-1.5203436E-1,-2.4523501E-1,1.0737477E-1,-2.2028306E-1,-3.7204683E-1,-2.4851795E-1,1.18732035E-1,-2.4391206E-1,-3.6710557E-1,-2.6388708E-1,-9.369052E-2,-4.084665E-1,1.5003408E0,7.842162E-1,-0E0,8.788837E-1,-3.6529267E-1,-1.0816811E0,2.4532452E-1,-1.9146931E-1,-2.9722846E-1,-7.471565E-2,-5.86195E-3,-1.8832323E-1,5.007036E-2,9.546579E-1,-1.9653764E-1,-3.479041E-1,-1.7862591E-1,-8.213401E-3,-2.8719404E-1,-2.0114028E-1,-7.6374953E-4,8.147173E-3,-1.12388E-1,-9.865756E-3,-3.8600552E-1,-1.0320757E-1,4.046227E-2,-2.746063E-1,4.0122443E-1,-5.5589747E-2,-3.5460868E-1,-1.10185616E-1,-5.667263E-2,-3.734473E-1,-3.2912865E-1,-7.538671E-2,5.453046E-3,-6.961525E-3,-1.260918E-2,-3.5362223E-1,1.3985268E0,1.6137127E0,1.0000025E0,6.372006E-1,8.315697E-1,1.0512933E0,-1.5442611E-2,-2.985255E-3,-5.1880423E-2,-9.816354E-3,-2.0052122E-4,3.4118116E-1,2.933304E-3,-3.0519012E-1,-4.4873045E-3,-1.0545792E-2,3.0422204E-3,-8.733604E-3,3.201265E-2,-9.376095E-3,-2.296214E-1,-9.4628846E-4,2.075756E-3,-5.001593E-3,3.2439347E-2,1.1334348E-2,-4.3555E-3,-8.638131E-3,-9.772185E-3,-1.3394923E-2,-1.4574407E-3,-6.91547E-3,4.3702717E-3,-5.1803007E-3,-6.7467494E-3,-1.0939545E-2,-6.450767E-3,7.958701E-3,-5.3478293E-3,-0E0,-1.2100207E-2,-2.4395897E-3,-9.610401E-3,3.442003E-3,-4.948086E-3,1.0903332E-2,-2.3129699E-3,-9.208689E-3,6.3852714E-3,3.1635232E-2,-5.2771633E-3,1.0616897E-2,-4.539594E-3,-1.2797387E-2,-5.5954815E-3,3.5832692E-3,4.704386E-3,-8.429699E-3,-7.5389035E-3,-1.1706492E-2,-3.801489E-3,-1.1493792E-2,-1.0213355E-2,3.5635587E-3,-3.676441E-3,-1.2715376E-2,3.1258233E-2,4.5806684E-2,5.339517E-2,4.06052E-2,1.3236783E-2,3.4091864E-2,1.9763852E-2,1.08449375E-2,2.4174081E-2,3.243319E-2,2.614084E-2,3.8676318E-2,1.3376309E-2,4.447474E-3,-1.4699623E-2,2.9580873E-3,-1.3183936E-3,6.257587E-3,-3.4066485E-4,-8.700116E-3],"categories":[],"categories_nodes":[],"categories_segments":[],"categories_sizes":[],"default_left":[0,0,0,0,0,0,0,0,0,0,0,0,0,0,0,0,0,0,0,0,0,0,0,0,0,0,0,0,0,0,0,0,0,0,0,0,0,0,0,0,0,0,0,0,0,0,0,0,0,0,0,0,0,0,0,0,0,0,0,0,0,0,0,0,0,0,0,0,0,0,0,0,0,0,0,0,0,0,0,0,0,0,0,0,0,0,0,0,0,0,0,0,0,0,0,0,0,0,0,0,0,0,0,0,0,0,0,0,0,0,0,0,0,0,0,0,0,0,0,0,0,0,0,0,0,0,0,0,0,0,0,0,0,0,0,0,0,0,0,0,0,0,0,0,0,0,0,0,0,0,0,0,0,0,0,0,0,0,0,0,0,0,0,0,0,0,0,0,0,0,0],"id":0,"left_children":[1,3,5,7,9,11,13,15,17,19,21,23,25,27,29,31,33,35,-1,37,39,41,43,45,47,49,51,53,55,-1,-1,57,59,61,63,65,67,69,71,73,75,77,79,81,83,85,87,-1,89,91,93,95,97,99,101,103,105,107,109,111,113,115,117,119,121,-1,-1,123,-1,125,127,129,131,133,135,137,139,141,143,145,147,-1,-1,-1,149,151,153,155,157,159,161,-1,-1,-1,-1,-1,163,-1,165,-1,-1,-1,-1,167,-1,169,-1,-1,-1,-1,-1,-1,-1,-1,-1,-1,-1,-1,-1,-1,-1,-1,-1,-1,-1,-1,-1,-1,-1,-1,-1,-1,-1,-1,-1,-1,-1,-1,-1,-1,-1,-1,-1,-1,-1,-1,-1,-1,-1,-1,-1,-1,-1,-1,-1,-1,-1,-1,-1,-1,-1,-1,-1,-1,-1,-1,-1,-1,-1,-1,-1],"loss_changes":[7.2110925E2,1.2232545E2,2.1692358E2,9.5444984E1,6.4951935E0,7.8269165E1,1.8467207E0,6.486946E1,2.8712502E1,3.3136806E0,1.803482E0,3.243268E1,5.722208E0,3.8095587E-1,1.3305473E-1,5.083376E1,4.663582E0,5.2520406E-1,0E0,6.3648796E-1,5.596646E0,1.1309738E0,1.1195679E0,4.0565735E1,3.2051086E0,1.1566753E0,1.511009E0,2.0205879E-1,3.709041E-1,0E0,0E0,1.951054E1,3.0942802E0,4.7680283E0,1.682518E0,2.0601225E-1,5.9492707E-2,3.1277275E-1,8.0350494E-1,3.1100316E0,1.9128618E0,4.77211E-1,2.6280117E0,5.807835E-1,2.8305054E-1,4.6618652E-1,3.0376816E0,0E0,2.469635E0,1.6542202E-1,3.1376352E0,3.2561052E-1,8.071276E-1,9.549975E-3,4.2963105E-1,5.2589494E-1,7.0236444E-2,1.7039185E1,1.1989899E0,2.11627E0,2.1220589E-1,7.0867615E0,5.01375E0,2.2333221E0,3.13484E0,0E0,0E0,5.783636E-2,0E0,4.5218086E-1,3.8858044E-1,6.768564E-1,5.385294E-1,2.6024253E0,1.965891E0,9.45714E-1,1.1332242E0,3.917001E-1,3.8879776E-1,1.6710968E0,3.0476882E0,0E0,0E0,0E0,2.2787724E0,4.834961E0,2.3351746E0,2.9228516E0,1.06342316E-1,1.1584167E0,2.4705658E0,0E0,0E0,0E0,0E0,0E0,5.6279063E-2,0E0,1.3559905E0,0E0,0E0,0E0,0E0,5.353008E-1,0E0,1.2472421E-1,0E0,0E0,0E0,0E0,0E0,0E0,0E0,0E0,0E0,0E0,0E0,0E0,0E0,0E0,0E0,0E0,0E0,0E0,0E0,0E0,0E0,0E0,0E0,0E0,0E0,0E0,0E0,0E0,0E0,0E0,0E0,0E0,0E0,0E0,0E0,0E0,0E0,0E0,0E0,0E0,0E0,0E0,0E0,0E0,0E0,0E0,0E0,0E0,0E0,0E0,0E0,0E0,0E0,0E0,0E0,0E0,0E0,0E0,0E0,0E0,0E0,0E0,0E0,0E0,0E0],"parents":[2147483647,0,0,1,1,2,2,3,3,4,4,5,5,6,6,7,7,8,8,9,9,10,10,11,11,12,12,13,13,14,14,15,15,16,16,17,17,19,19,20,20,21,21,22,22,23,23,24,24,25,25,26,26,27,27,28,28,31,31,32,32,33,33,34,34,35,35,36,36,37,37,38,38,39,39,40,40,41,41,42,42,43,43,44,44,45,45,46,46,48,48,49,49,50,50,51,51,52,52,53,53,54,54,55,55,56,56,57,57,58,58,59,59,60,60,61,61,62,62,63,63,64,64,67,67,69,69,70,70,71,71,72,72,73,73,74,74,75,75,76,76,77,77,78,78,79,79,80,80,84,84,85,85,86,86,87,87,88,88,89,89,90,90,96,96,98,98,103,103,105,105],"right_children":[2,4,6,8,10,12,14,16,18,20,22,24,26,28,30,32,34,36,-1,38,40,42,44,46,48,50,52,54,56,-1,-1,58,60,62,64,66,68,70,72,74,76,78,80,82,84,86,88,-1,90,92,94,96,98,100,102,104,106,108,110,112,114,116,118,120,122,-1,-1,124,-1,126,128,130,132,134,136,138,140,142,144,146,148,-1,-1,-1,150,152,154,156,158,160,162,-1,-1,-1,-1,-1,164,-1,166,-1,-1,-1,-1,168,-1,170,-1,-1,-1,-1,-1,-1,-1,-1,-1,-1,-1,-1,-1,-1,-1,-1,-1,-1,-1,-1,-1,-1,-1,-1,-1,-1,-1,-1,-1,-1,-1,-1,-1,-1,-1,-1,-1,-1,-1,-1,-1,-1,-1,-1,-1,-1,-1,-1,-1,-1,-1,-1,-1,-1,-1,-1,-1,-1,-1,-1,-1,-1,-1,-1,-1],"split_conditions":[1E0,1E0,1E0,1E0,-5E-1,2.4E2,-7.0710677E-1,1E0,1.2246469E-16,1E0,1.2246469E-16,-2.4492937E-16,-5E-1,-5E-1,0E0,1E0,6.234898E-1,1.9E1,3.9791808E-2,-8.660254E-1,-2.5881904E-1,1E0,-7.818315E-1,6.123234E-17,1.2246469E-16,2.3E1,-5E-1,6.234898E-1,5E-1,-5.6609325E-3,-1.0109814E-2,1E0,8.660254E-1,7.3E1,1E0,6.234898E-1,3E1,7.2E1,0E0,-2.2252093E-1,6.123234E-17,-9.659258E-1,1E0,3.9E1,3E0,-8.660254E-1,2.4E1,-0E0,1E0,1.2E1,5.7E1,-8.660254E-1,1.1E1,0E0,5E-1,1.08E2,8.660254E-1,1E0,2.4E1,7.818315E-1,1E0,2.6E1,1E0,5E-1,8.7E1,-7.6374953E-4,8.147173E-3,7.818315E-1,-9.865756E-3,1E0,5E-1,1E0,3.6E1,1E0,-5E-1,0E0,9.3E1,-5E-1,0E0,-8.660254E-1,5E-1,5.453046E-3,-6.961525E-3,-1.260918E-2,1E0,1E0,1E0,7.5E-1,8.660254E-1,7.3E1,1E0,-1.5442611E-2,-2.985255E-3,-5.1880423E-2,-9.816354E-3,-2.0052122E-4,2.8E1,2.933304E-3,7.0710677E-1,-4.4873045E-3,-1.0545792E-2,3.0422204E-3,-8.733604E-3,7.818315E-1,-9.376095E-3,1.07E2,-9.4628846E-4,2.075756E-3,-5.001593E-3,3.2439347E-2,1.1334348E-2,-4.3555E-3,-8.638131E-3,-9.772185E-3,-1.3394923E-2,-1.4574407E-3,-6.91547E-3,4.3702717E-3,-5.1803007E-3,-6.7467494E-3,-1.0939545E-2,-6.450767E-3,7.958701E-3,-5.3478293E-3,-0E0,-1.2100207E-2,-2.4395897E-3,-9.610401E-3,3.442003E-3,-4.948086E-3,1.0903332E-2,-2.3129699E-3,-9.208689E-3,6.3852714E-3,3.1635232E-2,-5.2771633E-3,1.0616897E-2,-4.539594E-3,-1.2797387E-2,-5.5954815E-3,3.5832692E-3,4.704386E-3,-8.429699E-3,-7.5389035E-3,-1.1706492E-2,-3.801489E-3,-1.1493792E-2,-1.0213355E-2,3.5635587E-3,-3.676441E-3,-1.2715376E-2,3.1258233E-2,4.5806684E-2,5.339517E-2,4.06052E-2,1.3236783E-2,3.4091864E-2,1.9763852E-2,1.08449375E-2,2.4174081E-2,3.243319E-2,2.614084E-2,3.8676318E-2,1.3376309E-2,4.447474E-3,-1.4699623E-2,2.9580873E-3,-1.3183936E-3,6.257587E-3,-3.4066485E-4,-8.700116E-3],"split_indices":[37,9,26,14,2,0,7,32,2,0,6,2,6,3,4,26,5,43,0,2,6,0,4,3,2,43,2,5,6,0,0,39,6,43,10,5,43,43,4,5,3,6,31,43,0,2,0,0,2,43,43,7,43,4,2,43,3,12,0,4,31,43,26,6,43,0,0,4,0,35,6,30,43,31,6,4,43,3,4,3,2,0,0,0,35,21,21,0,6,43,21,0,0,0,0,0,43,0,6,0,0,0,0,4,0,43,0,0,0,0,0,0,0,0,0,0,0,0,0,0,0,0,0,0,0,0,0,0,0,0,0,0,0,0,0,0,0,0,0,0,0,0,0,0,0,0,0,0,0,0,0,0,0,0,0,0,0,0,0,0,0,0,0,0,0,0,0,0,0,0,0],"split_type":[0,0,0,0,0,0,0,0,0,0,0,0,0,0,0,0,0,0,0,0,0,0,0,0,0,0,0,0,0,0,0,0,0,0,0,0,0,0,0,0,0,0,0,0,0,0,0,0,0,0,0,0,0,0,0,0,0,0,0,0,0,0,0,0,0,0,0,0,0,0,0,0,0,0,0,0,0,0,0,0,0,0,0,0,0,0,0,0,0,0,0,0,0,0,0,0,0,0,0,0,0,0,0,0,0,0,0,0,0,0,0,0,0,0,0,0,0,0,0,0,0,0,0,0,0,0,0,0,0,0,0,0,0,0,0,0,0,0,0,0,0,0,0,0,0,0,0,0,0,0,0,0,0,0,0,0,0,0,0,0,0,0,0,0,0,0,0,0,0,0,0],"sum_hessian":[9.827E3,8.788E3,1.039E3,7.098E3,1.69E3,8.63E2,1.76E2,7.015E3,8.3E1,4.02E2,1.288E3,8.17E2,4.6E1,7.8E1,9.8E1,4.798E3,2.217E3,1.8E1,6.5E1,2.07E2,1.95E2,4.92E2,7.96E2,3.81E2,4.36E2,1.3E1,3.3E1,2.2E1,5.6E1,1.5E1,8.3E1,4.132E3,6.66E2,1.251E3,9.66E2,7E0,1.1E1,1.06E2,1.01E2,6.1E1,1.34E2,2.74E2,2.18E2,1.3E1,7.83E2,2.61E2,1.2E2,4E0,4.32E2,6E0,7E0,1.1E1,2.2E1,1.3E1,9E0,4.1E1,1.5E1,4.109E3,2.3E1,4.68E2,1.98E2,1.055E3,1.96E2,4.91E2,4.75E2,4E0,3E0,7E0,4E0,1E2,6E0,8E0,9.3E1,2.3E1,3.8E1,7.2E1,6.2E1,6E0,2.68E2,1.61E2,5.7E1,4E0,9E0,6.37E2,1.46E2,1.45E2,1.16E2,4.6E1,7.4E1,3.44E2,8.8E1,3E0,3E0,3E0,4E0,3E0,8E0,6E0,1.6E1,5E0,8E0,5E0,4E0,3.7E1,4E0,1.1E1,4E0,3.777E3,3.32E2,1.8E1,5E0,3.02E2,1.66E2,1.66E2,3.2E1,3.02E2,7.53E2,1.01E2,9.5E1,2.75E2,2.16E2,4.62E2,1.3E1,4E0,3E0,9.4E1,6E0,3E0,3E0,5E0,3E0,1.4E1,7.9E1,1.9E1,4E0,3E1,8E0,2E1,5.2E1,4.7E1,1.5E1,3E0,3E0,3.5E1,2.33E2,3.5E1,1.26E2,2.4E1,3.3E1,3.5E1,1.11E2,4.1E1,1.04E2,6.7E1,4.9E1,1E1,3.6E1,6.7E1,7E0,3.16E2,2.8E1,5.3E1,3.5E1,4E0,4E0,1.1E1,5E0,2.6E1,1.1E1,3E0,8E0],"tree_param":{"num_deleted":"0","num_feature":"44","num_nodes":"171","size_leaf_vector":"1"}},{"base_weights":[-1.0642571E-3,-9.3439005E-2,7.5664294E-1,-3.72715E-2,-3.2611373E-1,9.360271E-1,4.177189E-2,-4.8177417E-2,9.329755E-1,-3.7078282E-1,-2.6930532E-1,1.0107937E0,-3.200232E-1,8.971109E-1,-7.7710217E-3,1.5204778E-2,-1.8468118E-1,-2.4611339E-2,3.845509E-2,-3.740143E-1,-1.3624439E-1,-1.7290531E-1,-3.1246763E-1,1.1331377E0,7.700457E-1,2.4834739E-1,-5.137744E-1,1.025111E-2,3.3588044E-2,1.023387E-1,-2.1550772E-1,6.442253E-2,-1.6311021E-1,-1.3888068E-1,-2.455146E-1,2.4648885E-1,-2.3894908E-1,-9.059518E-2,-3.7623543E-1,-1.0317093E-2,6.476826E-3,-2.5880467E-2,-3.2906336E-1,-2.3456475E-1,-3.632547E-1,8.3810717E-1,1.1813347E0,5.874376E-1,2.353953E-2,-1.9600437E-4,1.0063949E-2,-3.6416084E-1,-3.6282532E-2,2.3852582E-1,-4.645552E-2,-1.1901954E-1,-3.5102397E-1,1.990937E-2,1.8129343E-1,-2.2783552E-1,-4.0691607E-3,-3.6270652E-2,-1.7097111E-1,-1.7940179E-1,-2.8587294E-1,-2.2586056E-3,1.8099656E-2,-7.888615E-2,-1.0517721E-2,-6.284606E-3,2.5617343E-3,-3.2233453E-1,-3.837289E-1,-1.4447294E-1,2.8934884E-1,-1.7711969E-1,-3.6006013E-1,-3.2135963E-1,-1.0554853E-2,-1.6482873E-2,-3.7193996E-1,2.349211E-2,4.0816277E-2,1.2796924E0,1.0854352E0,2.1062862E-2,1.7801829E-1,-4.4029635E-1,-4.5189407E-4,-1.0153874E-1,3.8538373E-1,1.2657405E-1,-1.1245713E-1,-2.7977702E-1,-0E0,-1.149724E-2,-2.9919741E-3,3.5715156E-4,2.7522005E-2,-2.5357967E-3,7.615147E-3,-7.882838E-3,-2.6984292E-4,2.3544102E-3,-1.1986693E-3,5.6678182E-3,-3.477489E-3,-6.382861E-3,-3.6936623E-4,-2.8566185E-3,-6.28368E-3,-7.7512255E-3,-1.2008383E-2,-4.5467652E-3,-0E0,-7.3595145E-3,-1.2296314E-2,-1.1939753E-2,-1.0756562E-2,-2.2965155E-3,-9.224659E-3,1.7906297E-2,3.359141E-3,3.527572E-3,-7.6409355E-3,-5.8081695E-3,-1.1226916E-2,-1.1458588E-2,-7.445446E-3,9.68454E-3,-4.5655924E-3,8.737678E-3,-7.0668478E-3,-1.3042807E-2,-1.0487923E-2,2.532553E-2,4.3002717E-2,3.854338E-2,2.7961785E-2,1.2429743E-3,7.3529854E-3,-9.06722E-3,-2.5003254E-2,-5.358171E-3,7.94742E-3,3.7092469E-3,2.3004446E-2,-3.2332223E-3,6.9807176E-3,-0E0,-6.0087377E-3,-4.5176423E-3,-1.0027646E-2,3.4375957E-3,-4.7849473E-3],"categories":[],"categories_nodes":[],"categories_segments":[],"categories_sizes":[],"default_left":[0,0,0,0,0,0,0,0,0,0,0,0,0,0,0,0,0,0,0,0,0,0,0,0,0,0,0,0,0,0,0,0,0,0,0,0,0,0,0,0,0,0,0,0,0,0,0,0,0,0,0,0,0,0,0,0,0,0,0,0,0,0,0,0,0,0,0,0,0,0,0,0,0,0,0,0,0,0,0,0,0,0,0,0,0,0,0,0,0,0,0,0,0,0,0,0,0,0,0,0,0,0,0,0,0,0,0,0,0,0,0,0,0,0,0,0,0,0,0,0,0,0,0,0,0,0,0,0,0,0,0,0,0,0,0,0,0,0,0,0,0,0,0,0,0,0,0,0,0,0,0,0,0,0,0],"id":1,"left_children":[1,3,5,7,9,11,13,15,17,19,21,23,25,27,29,31,33,35,-1,37,39,41,43,45,47,49,51,-1,-1,53,55,57,59,61,63,65,67,69,71,-1,-1,73,75,77,79,81,83,85,-1,-1,-1,87,-1,89,91,93,95,97,99,101,103,105,107,109,111,-1,-1,113,-1,-1,-1,115,117,119,121,123,125,127,129,131,133,-1,-1,135,137,-1,139,141,-1,143,145,147,149,151,153,-1,-1,-1,-1,-1,-1,-1,-1,-1,-1,-1,-1,-1,-1,-1,-1,-1,-1,-1,-1,-1,-1,-1,-1,-1,-1,-1,-1,-1,-1,-1,-1,-1,-1,-1,-1,-1,-1,-1,-1,-1,-1,-1,-1,-1,-1,-1,-1,-1,-1,-1,-1,-1,-1,-1,-1,-1,-1,-1,-1],"loss_changes":[6.930752E2,1.1530946E2,1.3784564E2,7.521164E1,4.190613E0,8.115564E1,9.291493E0,6.0877274E1,2.6548378E1,6.233368E-1,3.0596848E0,2.285382E1,5.5501385E0,9.541731E-1,4.7453804E0,4.2161808E1,6.1434784E0,1.3364981E0,0E0,5.1286316E-1,1.1839174E0,5.4202576E0,1.9242363E0,6.4296265E0,1.4064026E-1,3.2374483E-1,3.2530928E0,0E0,0E0,2.7659082E0,8.526683E-1,1.9568104E1,1.06713295E1,4.1746845E0,2.4529877E0,1.2464278E0,1.617015E-1,2.186077E-1,1.8336487E-1,0E0,0E0,4.66291E0,4.241314E-1,4.0464287E0,9.0073395E-1,9.917412E-1,2.694519E0,9.605808E-1,0E0,0E0,0E0,7.983513E-1,0E0,3.6133385E0,7.551374E-1,8.6393976E-1,1.482637E-1,1.9500746E1,2.0055038E1,5.611126E0,8.9393157E-1,5.503026E0,6.4130936E0,8.7556744E-1,1.6900215E0,0E0,0E0,4.8319165E-2,0E0,0E0,0E0,6.564913E-1,7.395172E-2,9.4564795E-1,1.7169306E0,5.466397E-1,9.248352E-2,5.117426E-1,2.8650322E0,6.698105E-1,1.9906235E-1,0E0,0E0,1.3291504E1,5.888153E0,0E0,2.532813E-2,1.0457072E0,0E0,6.599951E-1,4.807975E0,4.8519748E-1,4.7611088E-1,3.490174E-2,4.8991776E-1,0E0,0E0,0E0,0E0,0E0,0E0,0E0,0E0,0E0,0E0,0E0,0E0,0E0,0E0,0E0,0E0,0E0,0E0,0E0,0E0,0E0,0E0,0E0,0E0,0E0,0E0,0E0,0E0,0E0,0E0,0E0,0E0,0E0,0E0,0E0,0E0,0E0,0E0,0E0,0E0,0E0,0E0,0E0,0E0,0E0,0E0,0E0,0E0,0E0,0E0,0E0,0E0,0E0,0E0,0E0,0E0,0E0,0E0,0E0,0E0],"parents":[2147483647,0,0,1,1,2,2,3,3,4,4,5,5,6,6,7,7,8,8,9,9,10,10,11,11,12,12,13,13,14,14,15,15,16,16,17,17,19,19,20,20,21,21,22,22,23,23,24,24,25,25,26,26,29,29,30,30,31,31,32,32,33,33,34,34,35,35,36,36,37,37,38,38,41,41,42,42,43,43,44,44,45,45,46,46,47,47,51,51,53,53,54,54,55,55,56,56,57,57,58,58,59,59,60,60,61,61,62,62,63,63,64,64,67,67,71,71,72,72,73,73,74,74,75,75,76,76,77,77,78,78,79,79,80,80,83,83,84,84,86,86,87,87,89,89,90,90,91,91,92,92,93,93,94,94],"right_children":[2,4,6,8,10,12,14,16,18,20,22,24,26,28,30,32,34,36,-1,38,40,42,44,46,48,50,52,-1,-1,54,56,58,60,62,64,66,68,70,72,-1,-1,74,76,78,80,82,84,86,-1,-1,-1,88,-1,90,92,94,96,98,100,102,104,106,108,110,112,-1,-1,114,-1,-1,-1,116,118,120,122,124,126,128,130,132,134,-1,-1,136,138,-1,140,142,-1,144,146,148,150,152,154,-1,-1,-1,-1,-1,-1,-1,-1,-1,-1,-1,-1,-1,-1,-1,-1,-1,-1,-1,-1,-1,-1,-1,-1,-1,-1,-1,-1,-1,-1,-1,-1,-1,-1,-1,-1,-1,-1,-1,-1,-1,-1,-1,-1,-1,-1,-1,-1,-1,-1,-1,-1,-1,-1,-1,-1,-1,-1,-1,-1],"split_conditions":[1E0,1E0,9.5E1,1E0,1E0,2.4E2,3E0,1E0,2.4E1,-1.8369701E-16,-2.5881904E-1,5E-1,8.660254E-1,7.5E-1,-5E-1,1.05E2,6.234898E-1,1.9E1,3.845509E-2,-7.818315E-1,6.8E1,6.123234E-17,1E0,-8.660254E-1,8E0,-8.660254E-1,3.4E1,1.025111E-2,3.3588044E-2,6.123234E-17,6.234898E-1,1E0,1E0,2.6E1,2.9E1,-8.660254E-1,-5E-1,4.9E1,0E0,-1.0317093E-2,6.476826E-3,-1.8369701E-16,0E0,3E0,-7.818315E-1,7.1E1,1E0,8.660254E-1,2.353953E-2,-1.9600437E-4,1.0063949E-2,7.0710677E-1,-3.6282532E-2,-2.5881904E-1,1.2246469E-16,-7.0710677E-1,1E0,1E0,3E0,1E0,0E0,-5E-1,7.3E1,-5E-1,8.660254E-1,-2.2586056E-3,1.8099656E-2,-7.0710677E-1,-1.0517721E-2,-6.284606E-3,2.5617343E-3,5E-1,5.2E1,-5E-1,1E0,4E1,-9.659258E-1,5E-1,4.8E1,-1.8369701E-16,-5E-1,2.349211E-2,4.0816277E-2,-5E-1,-5E-1,2.1062862E-2,1E0,2.3E1,-4.5189407E-4,-1.8369701E-16,6.234898E-1,1.07E2,1.07E2,7.818315E-1,5E-1,-1.149724E-2,-2.9919741E-3,3.5715156E-4,2.7522005E-2,-2.5357967E-3,7.615147E-3,-7.882838E-3,-2.6984292E-4,2.3544102E-3,-1.1986693E-3,5.6678182E-3,-3.477489E-3,-6.382861E-3,-3.6936623E-4,-2.8566185E-3,-6.28368E-3,-7.7512255E-3,-1.2008383E-2,-4.5467652E-3,-0E0,-7.3595145E-3,-1.2296314E-2,-1.1939753E-2,-1.0756562E-2,-2.2965155E-3,-9.224659E-3,1.7906297E-2,3.359141E-3,3.527572E-3,-7.6409355E-3,-5.8081695E-3,-1.1226916E-2,-1.1458588E-2,-7.445446E-3,9.68454E-3,-4.5655924E-3,8.737678E-3,-7.0668478E-3,-1.3042807E-2,-1.0487923E-2,2.532553E-2,4.3002717E-2,3.854338E-2,2.7961785E-2,1.2429743E-3,7.3529854E-3,-9.06722E-3,-2.5003254E-2,-5.358171E-3,7.94742E-3,3.7092469E-3,2.3004446E-2,-3.2332223E-3,6.9807176E-3,-0E0,-6.0087377E-3,-4.5176423E-3,-1.0027646E-2,3.4375957E-3,-4.7849473E-3],"split_indices":[37,9,43,14,0,0,0,32,0,7,6,3,3,0,7,43,5,43,0,4,43,3,35,3,43,7,43,0,0,3,5,18,18,43,43,7,6,43,4,0,0,3,4,0,4,43,20,3,0,0,0,6,0,6,6,6,3,39,0,36,4,3,43,3,6,0,0,6,0,0,0,6,43,6,35,43,6,3,43,3,3,0,0,3,3,0,1,43,0,3,5,43,43,4,3,0,0,0,0,0,0,0,0,0,0,0,0,0,0,0,0,0,0,0,0,0,0,0,0,0,0,0,0,0,0,0,0,0,0,0,0,0,0,0,0,0,0,0,0,0,0,0,0,0,0,0,0,0,0,0,0,0,0,0,0],"split_type":[0,0,0,0,0,0,0,0,0,0,0,0,0,0,0,0,0,0,0,0,0,0,0,0,0,0,0,0,0,0,0,0,0,0,0,0,0,0,0,0,0,0,0,0,0,0,0,0,0,0,0,0,0,0,0,0,0,0,0,0,0,0,0,0,0,0,0,0,0,0,0,0,0,0,0,0,0,0,0,0,0,0,0,0,0,0,0,0,0,0,0,0,0,0,0,0,0,0,0,0,0,0,0,0,0,0,0,0,0,0,0,0,0,0,0,0,0,0,0,0,0,0,0,0,0,0,0,0,0,0,0,0,0,0,0,0,0,0,0,0,0,0,0,0,0,0,0,0,0,0,0,0,0,0,0],"sum_hessian":[9.901E3,8.826E3,1.075E3,7.111E3,1.715E3,8.59E2,2.16E2,7.033E3,7.8E1,9.56E2,7.59E2,8.11E2,4.8E1,1.1E1,2.05E2,4.803E3,2.23E3,2.1E1,5.7E1,9.42E2,1.4E1,2.37E2,5.22E2,5.35E2,2.76E2,1.2E1,3.6E1,4E0,7E0,1.34E2,7.1E1,3.765E3,1.038E3,1.275E3,9.55E2,9E0,1.2E1,8E0,9.34E2,9E0,5E0,1.23E2,1.14E2,2.09E2,3.13E2,7.8E1,4.57E2,2.4E1,2.52E2,3E0,9E0,3.1E1,5E0,7E1,6.4E1,4.3E1,2.8E1,2.728E3,1.037E3,7.37E2,3.01E2,3.05E2,9.7E2,3.65E2,5.9E2,5E0,4E0,6E0,6E0,5E0,3E0,1.21E2,8.13E2,9E1,3.3E1,2.1E1,9.3E1,1.5E2,5.9E1,8E0,3.05E2,7.3E1,5E0,2.19E2,2.38E2,1.8E1,6E0,2.5E1,6E0,2.1E1,4.9E1,1.7E1,4.7E1,1.8E1,2.5E1,2.4E1,4E0,2.705E3,2.3E1,2.22E2,8.15E2,6.35E2,1.02E2,9E1,2.11E2,7.9E1,2.26E2,7.67E2,2.03E2,9.8E1,2.67E2,4.79E2,1.11E2,3E0,3E0,6.7E1,5.4E1,5.07E2,3.06E2,6.5E1,2.5E1,1.1E1,2.2E1,4E0,1.7E1,9E0,8.4E1,7.9E1,7.1E1,1.7E1,4.2E1,3E0,5E0,7.4E1,2.31E2,5.9E1,1.6E2,1E2,1.38E2,3E0,3E0,2E1,5E0,1.8E1,3E0,3E1,1.9E1,5E0,1.2E1,2.1E1,2.6E1,7E0,1.1E1,1.5E1,1E1],"tree_param":{"num_deleted":"0","num_feature":"44","num_nodes":"155","size_leaf_vector":"1"}},{"base_weights":[2.3682872E-3,-8.544403E-2,7.402194E-1,-3.2331146E-2,-3.1157932E-1,9.3215936E-1,-2.133028E-1,3.7340686E-2,-1.8773256E-1,-2.026563E-1,-3.4664023E-1,1.1188644E0,6.052626E-1,-9.4037406E-2,-2.9210097E-1,2.2648983E-2,9.237373E-1,-1.4508736E-1,-2.4387021E-1,-1.185977E-1,-2.832392E-1,-2.7346912E-1,-3.6516252E-1,1.421092E0,8.570354E-1,4.5721886E-1,7.683437E-1,-2.0585942E-1,-4.5147024E-2,-1.4797798E-1,-3.1336614E-1,6.298759E-2,-2.2942692E-1,-9.5061176E-2,3.7327968E-2,-9.2404E-2,-1.7179978E-1,-2.999693E-1,-2.2200708E-1,9.4578154E-2,-2.204166E-1,-3.4674978E-1,-2.1018022E-1,-3.4035853E-1,1.9470183E-2,-2.911653E-1,-3.8438252E-1,1.3283252E0,1.5285704E0,1.0311868E0,7.322966E-1,8.0888563E-1,2.0797236E-1,5.625214E-1,2.6415901E-2,-2.9213864E-1,-1.6638387E-2,1.184264E-1,-9.4360046E-2,-1.4841633E-3,-1.9213428E-1,-9.611925E-3,-3.292599E-3,-4.9753385E-3,1.3400033E-1,-2.6664633E-1,-4.229907E-3,8.172062E-3,-9.066996E-3,3.9611515E-2,-1.3020241E-1,-1.5817241E-1,-3.3665904E-1,-2.3318292E-1,-3.3015943E-1,-2.0997682E-1,-3.4733614E-1,2.3149571E-1,-0E0,-3.1132373E-1,-9.17219E-2,-3.624975E-1,-1.2038627E-1,-6.606834E-2,-2.6120698E-1,5.105812E-3,-3.5147583E-1,-3.3121574E-1,3.211852E-1,-1.8996832E-1,-3.3296692E-1,-6.4169834E-3,-1.1571653E-2,4.314003E-2,2.937081E-2,1.229905E0,5.1813688E-2,2.1359358E-2,4.011252E-2,2.5359973E-2,6.726626E-1,3.4642525E-2,5.625343E-1,1.53714605E-2,-2.6656199E-1,5.992319E-1,3.2372978E-1,-4.4498104E-3,-1.0333262E-2,5.0431215E-3,-8.052205E-3,-0E0,8.766941E-3,2.7467746E-3,-1.2550324E-1,-2.52299E-3,-7.900468E-3,-1.6032977E-3,3.15424E-3,3.1255828E-3,1.1703442E-2,-6.651982E-3,-1.085676E-2,5.2331397E-3,-4.2722546E-3,4.2015864E-3,-7.116719E-3,9.886934E-3,-2.0166782E-3,-1.8131746E-3,-7.001361E-3,-3.8162908E-3,-6.6163805E-3,-7.0971027E-3,-1.2275582E-2,-1.0063992E-2,-6.371254E-3,-9.116991E-3,-1.17154E-2,-5.6585493E-3,-7.893905E-3,-1.094077E-2,-0E0,2.4361287E-3,3.151111E-2,-3.2767376E-3,1.3485696E-2,-2.9927401E-3,-1.135549E-2,-5.4522404E-3,3.5359086E-3,-1.1822362E-2,-6.5598143E-3,5.5491137E-3,-9.616791E-3,-5.5510974E-3,8.541788E-4,-4.278959E-3,-1.0148734E-2,-3.5137094E-3,-1.0756714E-2,-4.786296E-3,-1.170303E-2,-7.612503E-3,1.5068931E-2,-0E0,-9.773081E-3,-1.0763319E-2,-5.414923E-3,1.2837885E-2,3.995709E-2,2.3829428E-2,1.852522E-2,1.7914122E-2,1.5260975E-3,-9.187812E-3,4.268663E-3,1.9893436E-2,1.1824297E-2,1.6449872E-2,1.978261E-3,-3.124368E-3,3.60516E-3,-5.79549E-3,-6.773881E-4],"categories":[],"categories_nodes":[],"categories_segments":[],"categories_sizes":[],"default_left":[0,0,0,0,0,0,0,0,0,0,0,0,0,0,0,0,0,0,0,0,0,0,0,0,0,0,0,0,0,0,0,0,0,0,0,0,0,0,0,0,0,0,0,0,0,0,0,0,0,0,0,0,0,0,0,0,0,0,0,0,0,0,0,0,0,0,0,0,0,0,0,0,0,0,0,0,0,0,0,0,0,0,0,0,0,0,0,0,0,0,0,0,0,0,0,0,0,0,0,0,0,0,0,0,0,0,0,0,0,0,0,0,0,0,0,0,0,0,0,0,0,0,0,0,0,0,0,0,0,0,0,0,0,0,0,0,0,0,0,0,0,0,0,0,0,0,0,0,0,0,0,0,0,0,0,0,0,0,0,0,0,0,0,0,0,0,0,0,0,0,0,0,0,0,0,0,0,0,0,0,0,0,0,0,0],"id":2,"left_children":[1,3,5,7,9,11,13,15,17,19,21,23,25,27,29,31,33,35,37,39,41,43,45,47,49,51,53,55,57,59,61,63,65,67,-1,69,71,73,75,77,79,81,83,85,87,89,91,93,95,97,99,101,103,105,-1,107,109,111,113,-1,115,-1,-1,117,119,121,123,125,-1,127,129,131,133,135,137,139,141,143,145,147,149,151,153,155,157,-1,159,161,163,165,167,-1,-1,-1,-1,169,-1,-1,-1,-1,171,-1,173,-1,175,177,179,-1,-1,-1,-1,181,-1,-1,183,-1,-1,-1,-1,-1,-1,-1,-1,-1,-1,-1,-1,-1,-1,-1,-1,-1,-1,-1,-1,-1,-1,-1,-1,-1,-1,-1,-1,-1,-1,-1,-1,-1,-1,-1,-1,-1,-1,-1,-1,-1,-1,-1,-1,-1,-1,-1,-1,-1,-1,-1,-1,-1,-1,-1,-1,-1,-1,-1,-1,-1,-1,-1,-1,-1,-1,-1,-1,-1,-1],"loss_changes":[6.372325E2,1.0550554E2,1.9170862E2,7.7089355E1,6.2562714E0,5.2310425E1,1.5879469E0,6.389088E1,5.202095E0,2.703436E0,1.5466766E0,4.231421E1,7.2277985E0,3.5923094E-1,2.2929859E-1,4.9172142E1,2.6357506E1,1.725275E0,1.0451546E0,4.4396124E0,8.3654976E-1,5.133297E0,1.2470093E0,2.263794E-1,5.5638275E0,1.4630882E1,2.8239517E0,3.0710435E-1,4.273651E-1,3.5928547E-2,5.0671577E-2,2.0138966E1,5.562374E0,4.5961678E-1,0E0,2.1399465E0,1.7641888E0,3.9494705E-1,9.086609E-1,8.565653E-1,1.5456395E0,2.966261E-1,6.853709E-1,1.2812519E0,5.289932E0,7.812538E-1,3.8360596E-2,3.9053345E0,4.1624756E0,1.0755783E1,4.7943878E-1,5.14299E0,1.4750903E1,2.0462036E-1,0E0,4.938841E-3,4.272491E-1,2.586981E-1,2.522802E-1,0E0,2.0044059E-2,0E0,0E0,1.1373865E1,1.5487072E1,2.3083076E0,2.391694E0,4.7658923E-1,0E0,2.9911911E0,2.3462205E0,1.4242363E0,2.8869057E-1,5.700445E-2,9.240341E-2,6.215534E-1,3.1776762E-1,3.1244335E0,2.0102592E0,1.0516658E0,1.1409483E0,3.1135368E-1,6.2297183E-1,3.358513E-1,5.708952E-1,0E0,2.5561714E-1,1.1530423E-1,2.9637675E0,1.6870589E0,4.637375E-1,0E0,0E0,0E0,0E0,3.180458E0,0E0,0E0,0E0,0E0,1.8690872E-1,0E0,6.661444E-1,0E0,7.0920324E-1,2.4868774E-1,4.8140466E-1,0E0,0E0,0E0,0E0,1.1199677E-1,0E0,0E0,2.2483236E-1,0E0,0E0,0E0,0E0,0E0,0E0,0E0,0E0,0E0,0E0,0E0,0E0,0E0,0E0,0E0,0E0,0E0,0E0,0E0,0E0,0E0,0E0,0E0,0E0,0E0,0E0,0E0,0E0,0E0,0E0,0E0,0E0,0E0,0E0,0E0,0E0,0E0,0E0,0E0,0E0,0E0,0E0,0E0,0E0,0E0,0E0,0E0,0E0,0E0,0E0,0E0,0E0,0E0,0E0,0E0,0E0,0E0,0E0,0E0,0E0,0E0,0E0,0E0,0E0,0E0,0E0,0E0,0E0,0E0,0E0],"parents":[2147483647,0,0,1,1,2,2,3,3,4,4,5,5,6,6,7,7,8,8,9,9,10,10,11,11,12,12,13,13,14,14,15,15,16,16,17,17,18,18,19,19,20,20,21,21,22,22,23,23,24,24,25,25,26,26,27,27,28,28,29,29,30,30,31,31,32,32,33,33,35,35,36,36,37,37,38,38,39,39,40,40,41,41,42,42,43,43,44,44,45,45,46,46,47,47,48,48,49,49,50,50,51,51,52,52,53,53,55,55,56,56,57,57,58,58,60,60,63,63,64,64,65,65,66,66,67,67,69,69,70,70,71,71,72,72,73,73,74,74,75,75,76,76,77,77,78,78,79,79,80,80,81,81,82,82,83,83,84,84,86,86,87,87,88,88,89,89,90,90,95,95,100,100,102,102,104,104,105,105,106,106,111,111,114,114],"right_children":[2,4,6,8,10,12,14,16,18,20,22,24,26,28,30,32,34,36,38,40,42,44,46,48,50,52,54,56,58,60,62,64,66,68,-1,70,72,74,76,78,80,82,84,86,88,90,92,94,96,98,100,102,104,106,-1,108,110,112,114,-1,116,-1,-1,118,120,122,124,126,-1,128,130,132,134,136,138,140,142,144,146,148,150,152,154,156,158,-1,160,162,164,166,168,-1,-1,-1,-1,170,-1,-1,-1,-1,172,-1,174,-1,176,178,180,-1,-1,-1,-1,182,-1,-1,184,-1,-1,-1,-1,-1,-1,-1,-1,-1,-1,-1,-1,-1,-1,-1,-1,-1,-1,-1,-1,-1,-1,-1,-1,-1,-1,-1,-1,-1,-1,-1,-1,-1,-1,-1,-1,-1,-1,-1,-1,-1,-1,-1,-1,-1,-1,-1,-1,-1,-1,-1,-1,-1,-1,-1,-1,-1,-1,-1,-1,-1,-1,-1,-1,-1,-1,-1,-1,-1,-1],"split_conditions":[1E0,1E0,1E0,1E0,-5E-1,5E-1,-7.0710677E-1,1E0,6.234898E-1,2E0,1E0,-2.4492937E-16,1.2246469E-16,-5E-1,0E0,1E0,1.2246469E-16,-1.8369701E-16,-5E-1,-2.5881904E-1,-8.660254E-1,1E0,-5E-1,-8.660254E-1,1E0,1E0,1E0,6.234898E-1,1.2246469E-16,-5E-1,1E0,1.2246469E-16,1E0,2.5881904E-1,3.7327968E-2,-8.660254E-1,2E0,-2.5881904E-1,1E0,-2.2252093E-1,6.123234E-17,1E0,4.3388373E-1,-7.818315E-1,1.2246469E-16,2E0,-7.818315E-1,1E0,1E0,8.660254E-1,-5E-1,-5E-1,-5E-1,1E0,2.6415901E-2,0E0,5E-1,7.818315E-1,-1.8369701E-16,-1.4841633E-3,-5E-1,-9.611925E-3,-3.292599E-3,1E0,1E0,8.660254E-1,2.5881904E-1,-2.4492937E-16,-9.066996E-3,0E0,1E0,7.818315E-1,5E-1,-1.8369701E-16,8.660254E-1,7.0710677E-1,-1.8369701E-16,1E0,-5E-1,0E0,1E0,7.0710677E-1,-8.660254E-1,2.5881904E-1,1.2246469E-16,5.105812E-3,-9.659258E-1,6.234898E-1,-5E-1,-5E-1,8.660254E-1,-6.4169834E-3,-1.1571653E-2,4.314003E-2,2.937081E-2,-7.0710677E-1,5.1813688E-2,2.1359358E-2,4.011252E-2,2.5359973E-2,5E-1,3.4642525E-2,-2.4492937E-16,1.53714605E-2,1E0,9.749279E-1,8.660254E-1,-4.4498104E-3,-1.0333262E-2,5.0431215E-3,-8.052205E-3,8.660254E-1,8.766941E-3,2.7467746E-3,8.660254E-1,-2.52299E-3,-7.900468E-3,-1.6032977E-3,3.15424E-3,3.1255828E-3,1.1703442E-2,-6.651982E-3,-1.085676E-2,5.2331397E-3,-4.2722546E-3,4.2015864E-3,-7.116719E-3,9.886934E-3,-2.0166782E-3,-1.8131746E-3,-7.001361E-3,-3.8162908E-3,-6.6163805E-3,-7.0971027E-3,-1.2275582E-2,-1.0063992E-2,-6.371254E-3,-9.116991E-3,-1.17154E-2,-5.6585493E-3,-7.893905E-3,-1.094077E-2,-0E0,2.4361287E-3,3.151111E-2,-3.2767376E-3,1.3485696E-2,-2.9927401E-3,-1.135549E-2,-5.4522404E-3,3.5359086E-3,-1.1822362E-2,-6.5598143E-3,5.5491137E-3,-9.616791E-3,-5.5510974E-3,8.541788E-4,-4.278959E-3,-1.0148734E-2,-3.5137094E-3,-1.0756714E-2,-4.786296E-3,-1.170303E-2,-7.612503E-3,1.5068931E-2,-0E0,-9.773081E-3,-1.0763319E-2,-5.414923E-3,1.2837885E-2,3.995709E-2,2.3829428E-2,1.852522E-2,1.7914122E-2,1.5260975E-3,-9.187812E-3,4.268663E-3,1.9893436E-2,1.1824297E-2,1.6449872E-2,1.978261E-3,-3.124368E-3,3.60516E-3,-5.79549E-3,-6.773881E-4],"split_indices":[37,9,26,32,2,3,7,14,5,1,1,2,2,3,4,26,2,3,2,6,2,31,6,2,20,20,20,5,6,2,2,2,36,6,0,7,1,6,3,5,3,35,4,4,2,1,4,20,20,2,6,2,2,5,0,4,2,4,3,0,6,0,0,18,31,6,6,2,0,4,11,4,6,3,6,6,7,31,6,4,30,6,7,6,6,0,6,5,3,3,2,0,0,0,0,6,0,0,0,0,2,0,2,0,1,4,2,0,0,0,0,3,0,0,3,0,0,0,0,0,0,0,0,0,0,0,0,0,0,0,0,0,0,0,0,0,0,0,0,0,0,0,0,0,0,0,0,0,0,0,0,0,0,0,0,0,0,0,0,0,0,0,0,0,0,0,0,0,0,0,0,0,0,0,0,0,0,0,0,0,0,0,0,0,0],"split_type":[0,0,0,0,0,0,0,0,0,0,0,0,0,0,0,0,0,0,0,0,0,0,0,0,0,0,0,0,0,0,0,0,0,0,0,0,0,0,0,0,0,0,0,0,0,0,0,0,0,0,0,0,0,0,0,0,0,0,0,0,0,0,0,0,0,0,0,0,0,0,0,0,0,0,0,0,0,0,0,0,0,0,0,0,0,0,0,0,0,0,0,0,0,0,0,0,0,0,0,0,0,0,0,0,0,0,0,0,0,0,0,0,0,0,0,0,0,0,0,0,0,0,0,0,0,0,0,0,0,0,0,0,0,0,0,0,0,0,0,0,0,0,0,0,0,0,0,0,0,0,0,0,0,0,0,0,0,0,0,0,0,0,0,0,0,0,0,0,0,0,0,0,0,0,0,0,0,0,0,0,0,0,0,0,0],"sum_hessian":[9.832E3,8.787E3,1.045E3,7.117E3,1.67E3,8.7E2,1.75E2,4.914E3,2.203E3,4.09E2,1.261E3,5.52E2,3.18E2,7.1E1,1.04E2,4.835E3,7.9E1,1.255E3,9.48E2,2.02E2,2.07E2,2.59E2,1.002E3,2.54E2,2.98E2,1.69E2,1.49E2,2E1,5.1E1,1.5E1,8.9E1,4.169E3,6.66E2,1.9E1,6E1,4.25E2,8.3E2,2.61E2,6.87E2,6.5E1,1.37E2,1.08E2,9.9E1,2.11E2,4.8E1,2.11E2,7.91E2,1.44E2,1.1E2,1.21E2,1.77E2,6.9E1,1E2,5.5E1,9.4E1,1.3E1,7E0,1.1E1,4E1,6E0,9E0,8.5E1,4E0,2.13E3,2.039E3,5.71E2,9.5E1,1.3E1,6E0,9.4E1,3.31E2,7.69E2,6.1E1,8.5E1,1.76E2,6.3E2,5.7E1,2.6E1,3.9E1,7.9E1,5.8E1,1E2,8E0,2.7E1,7.2E1,4E0,2.07E2,2.2E1,2.6E1,6.4E1,1.47E2,8E0,7.83E2,1.07E2,3.7E1,4.7E1,6.3E1,6.1E1,6E1,5.6E1,1.21E2,2.7E1,4.2E1,6.1E1,3.9E1,4.6E1,9E0,5E0,8E0,4E0,3E0,7E0,4E0,5E0,3.5E1,5E0,4E0,1.48E3,6.5E2,1.828E3,2.11E2,3.91E2,1.8E2,4.1E1,5.4E1,9E0,4E0,2.5E1,6.9E1,1.99E2,1.32E2,5.17E2,2.52E2,2.8E1,3.3E1,1.1E1,7.4E1,1.28E2,4.8E1,4.54E2,1.76E2,5.4E1,3E0,2.3E1,3E0,3.2E1,7E0,2E1,5.9E1,4.1E1,1.7E1,8E1,2E1,3E0,5E0,1.2E1,1.5E1,3E1,4.2E1,7E0,2E2,7E0,1.5E1,6E0,2E1,2.7E1,3.7E1,1.24E2,2.3E1,6E0,4.1E1,3.3E1,8.8E1,3.9E1,3E0,3.6E1,3E0,3.3E1,1.3E1,4E0,5E0,4E0,3E0,2E1,1.5E1],"tree_param":{"num_deleted":"0","num_feature":"44","num_nodes":"185","size_leaf_vector":"1"}},{"base_weights":[-2.4425602E-3,-8.7859295E-2,7.1671546E-1,-3.5143934E-2,-3.051239E-1,8.926651E-1,-2.0545433E-1,2.5772315E-2,-1.6932686E-1,-1.8419082E-1,-3.4299308E-1,9.617943E-1,-3.192088E-1,-1.0601399E-1,-2.7788863E-1,6.572499E-2,-2.2531602E-1,-1.191969E-1,-2.340131E-1,-2.7024403E-1,-9.549203E-2,-3.613494E-1,-2.702436E-1,1.1605235E0,7.9281163E-1,1.914763E-1,-5.172197E-1,-2.6852322E-1,-4.2010315E-2,-1.4513436E-1,-2.994464E-1,5.218653E-2,8.18529E-1,-1.8039647E-1,-3.3128917E-1,-1.4728937E-1,2.7370766E-2,-1.7142914E-1,-2.7311882E-1,-3.3452088E-1,-2.0429347E-1,7.191549E-2,-1.7621729E-1,-2.88103E-1,-3.7945768E-1,-3.3092225E-1,6.1763544E-2,1.3912723E0,6.909177E-1,7.441936E-1,9.714104E-1,6.36959E-2,1.1662255E-2,-7.972185E-1,-1.6797289E-1,-3.4522526E-3,-8.803291E-3,-2.0667102E-2,-8.35901E-3,-7.541413E-4,-1.8830195E-1,-9.202426E-3,-3.2135777E-3,7.109263E-2,-1.6035114E-1,-1.201239E-1,3.510764E-2,-1.6476522E-1,-1.3150474E-2,-2.2977085E-1,-3.583286E-1,-4.6093676E-2,-1.897938E-1,6.036382E-1,-2.8608497E-2,-3.4033075E-1,-1.4757459E-1,-2.5137025E-1,-3.628014E-1,-3.5151258E-1,-0E0,5.680973E-2,-2.2720812E-1,2.9278132E-1,-7.284775E-2,-2.701117E-1,-6.3628085E-2,-3.0149987E-1,-7.091177E-2,-3.2713738E-1,-1.1629102E-2,4.9832687E-3,-3.4103093E-1,-3.522664E-1,5.398098E-1,1.2795619E0,1.5261965E0,8.5191256E-1,5.810485E-1,7.197129E-1,9.953452E-1,1.3034382E0,7.5628525E-1,3.4655097E-3,-5.3744955E-4,-5.6005305E-1,-4.564727E-2,2.0632118E-3,-2.538006E-1,-6.1329354E-2,6.8819937E-3,-2.4599165E-3,-7.39669E-3,2.5265E-3,-6.3026357E-3,-7.14664E-3,-2.6869704E-5,4.969799E-3,-7.5644436E-3,-4.2621573E-3,-1.0086765E-2,-3.3951344E-4,-1.0752835E-2,-7.221328E-3,-1.1598549E-2,3.91927E-3,-3.2409383E-3,-4.1147685E-3,-6.4467075E-3,2.4249783E-2,1.2862391E-3,-2.4892632E-3,8.210551E-3,-8.100271E-3,-1.2512589E-2,6.742342E-4,-4.89395E-3,-8.443747E-3,-4.550695E-3,-1.1912158E-2,-5.7187728E-3,-1.1012987E-2,-2.4645887E-3,-4.4131815E-3,8.080907E-3,-7.015369E-4,-7.7078864E-3,3.6998678E-3,2.981118E-2,-5.5759693E-3,8.5828295E-3,-7.667472E-4,-1.0029095E-2,-4.6211695E-3,5.844856E-3,-4.262376E-3,-9.512076E-3,1.5200193E-2,-8.50761E-3,-8.13885E-3,-1.1016026E-2,-6.421277E-3,-1.0938109E-2,-4.6606506E-3,-1.2673664E-2,2.399303E-2,-1.2880771E-3,4.191185E-2,2.8980779E-2,3.830077E-2,4.9691614E-2,1.4131501E-2,3.0094335E-2,1.8981665E-2,1.4000688E-2,2.250853E-2,1.7655587E-2,4.5331232E-2,2.2740928E-2,4.265744E-2,2.7197639E-2,2.3958504E-2,3.5814194E-3,-1.9355273E-2,-6.71244E-3,-1.0823842E-2,-0E0,-3.503532E-3,1.5209911E-3],"categories":[],"categories_nodes":[],"categories_segments":[],"categories_sizes":[],"default_left":[0,0,0,0,0,0,0,0,0,0,0,0,0,0,0,0,0,0,0,0,0,0,0,0,0,0,0,0,0,0,0,0,0,0,0,0,0,0,0,0,0,0,0,0,0,0,0,0,0,0,0,0,0,0,0,0,0,0,0,0,0,0,0,0,0,0,0,0,0,0,0,0,0,0,0,0,0,0,0,0,0,0,0,0,0,0,0,0,0,0,0,0,0,0,0,0,0,0,0,0,0,0,0,0,0,0,0,0,0,0,0,0,0,0,0,0,0,0,0,0,0,0,0,0,0,0,0,0,0,0,0,0,0,0,0,0,0,0,0,0,0,0,0,0,0,0,0,0,0,0,0,0,0,0,0,0,0,0,0,0,0,0,0,0,0,0,0,0,0,0,0,0,0,0,0,0,0,0,0,0,0,0,0,0,0,0,0,0,0],"id":3,"left_children":[1,3,5,7,9,11,13,15,17,19,21,23,25,27,29,31,33,35,37,39,41,43,45,47,49,51,53,55,57,59,61,63,65,67,69,71,73,75,77,79,81,83,85,87,89,91,93,95,97,99,101,103,-1,105,107,-1,-1,109,-1,-1,111,-1,-1,113,115,117,-1,119,-1,121,123,125,127,129,131,133,135,137,139,141,-1,143,145,147,149,151,153,155,157,159,-1,-1,161,163,165,167,169,171,173,175,177,179,181,-1,-1,183,-1,-1,185,187,-1,-1,-1,-1,-1,-1,-1,-1,-1,-1,-1,-1,-1,-1,-1,-1,-1,-1,-1,-1,-1,-1,-1,-1,-1,-1,-1,-1,-1,-1,-1,-1,-1,-1,-1,-1,-1,-1,-1,-1,-1,-1,-1,-1,-1,-1,-1,-1,-1,-1,-1,-1,-1,-1,-1,-1,-1,-1,-1,-1,-1,-1,-1,-1,-1,-1,-1,-1,-1,-1,-1,-1,-1,-1,-1,-1,-1,-1,-1],"loss_changes":[6.0408435E2,1.00640175E2,1.6964685E2,5.7857376E1,7.7427673E0,7.384277E1,1.1422353E0,4.882289E1,7.103195E0,3.0823412E0,1.5818787E0,2.6757446E1,4.985429E0,7.169526E-1,1.8682289E-1,4.2675797E1,3.068924E0,5.1545963E0,2.265564E0,7.595091E-1,2.7934766E0,1.2006989E0,5.446415E0,3.9899292E1,3.030304E0,2.828884E-1,3.192174E0,1.8581152E-3,2.3702773E-1,5.6801707E-2,3.9495945E-2,1.6585825E1,2.467656E1,1.7706261E0,3.9962196E-1,4.4753914E0,6.5588365E0,1.4078588E0,9.981613E-1,5.8285236E-1,6.641545E-1,2.18553E0,1.4188771E0,5.5532074E-1,1.5603638E-1,1.2146626E0,8.521781E0,1.5799255E0,1.6081276E0,1.3255463E0,5.4510193E0,5.4121338E-2,0E0,2.2037306E0,3.813877E-1,0E0,0E0,5.1584435E-1,0E0,0E0,1.504758E-2,0E0,0E0,1.3994749E1,4.160346E0,8.427578E-1,0E0,1.6436777E0,0E0,1.2237213E0,3.5329056E-1,3.4271927E0,9.0885735E-1,1.9462914E0,3.0276368E0,6.1564445E-2,8.907361E-1,1.3506012E0,5.263996E-1,3.3637047E-1,0E0,4.4193852E-1,5.5963755E-1,2.9726245E0,1.7063943E0,1.1328378E0,1.5448066E0,4.004879E-1,1.8411093E0,1.05000496E-1,0E0,0E0,5.316353E-1,1.9447184E-1,3.1398082E0,3.7559357E0,1.1326447E0,2.2023811E0,6.1613083E-2,7.5613403E-1,2.176754E0,1.2366867E-1,1.4035721E0,0E0,0E0,2.2678566E-1,0E0,0E0,3.341639E-1,2.9209536E-1,0E0,0E0,0E0,0E0,0E0,0E0,0E0,0E0,0E0,0E0,0E0,0E0,0E0,0E0,0E0,0E0,0E0,0E0,0E0,0E0,0E0,0E0,0E0,0E0,0E0,0E0,0E0,0E0,0E0,0E0,0E0,0E0,0E0,0E0,0E0,0E0,0E0,0E0,0E0,0E0,0E0,0E0,0E0,0E0,0E0,0E0,0E0,0E0,0E0,0E0,0E0,0E0,0E0,0E0,0E0,0E0,0E0,0E0,0E0,0E0,0E0,0E0,0E0,0E0,0E0,0E0,0E0,0E0,0E0,0E0,0E0,0E0,0E0,0E0,0E0,0E0,0E0,0E0,0E0],"parents":[2147483647,0,0,1,1,2,2,3,3,4,4,5,5,6,6,7,7,8,8,9,9,10,10,11,11,12,12,13,13,14,14,15,15,16,16,17,17,18,18,19,19,20,20,21,21,22,22,23,23,24,24,25,25,26,26,27,27,28,28,29,29,30,30,31,31,32,32,33,33,34,34,35,35,36,36,37,37,38,38,39,39,40,40,41,41,42,42,43,43,44,44,45,45,46,46,47,47,48,48,49,49,50,50,51,51,53,53,54,54,57,57,60,60,63,63,64,64,65,65,67,67,69,69,70,70,71,71,72,72,73,73,74,74,75,75,76,76,77,77,78,78,79,79,81,81,82,82,83,83,84,84,85,85,86,86,87,87,88,88,89,89,92,92,93,93,94,94,95,95,96,96,97,97,98,98,99,99,100,100,101,101,102,102,105,105,108,108,109,109],"right_children":[2,4,6,8,10,12,14,16,18,20,22,24,26,28,30,32,34,36,38,40,42,44,46,48,50,52,54,56,58,60,62,64,66,68,70,72,74,76,78,80,82,84,86,88,90,92,94,96,98,100,102,104,-1,106,108,-1,-1,110,-1,-1,112,-1,-1,114,116,118,-1,120,-1,122,124,126,128,130,132,134,136,138,140,142,-1,144,146,148,150,152,154,156,158,160,-1,-1,162,164,166,168,170,172,174,176,178,180,182,-1,-1,184,-1,-1,186,188,-1,-1,-1,-1,-1,-1,-1,-1,-1,-1,-1,-1,-1,-1,-1,-1,-1,-1,-1,-1,-1,-1,-1,-1,-1,-1,-1,-1,-1,-1,-1,-1,-1,-1,-1,-1,-1,-1,-1,-1,-1,-1,-1,-1,-1,-1,-1,-1,-1,-1,-1,-1,-1,-1,-1,-1,-1,-1,-1,-1,-1,-1,-1,-1,-1,-1,-1,-1,-1,-1,-1,-1,-1,-1,-1,-1,-1,-1,-1],"split_conditions":[1E0,1E0,1E0,1E0,-5E-1,2.4E2,-7.0710677E-1,1E0,6.234898E-1,1E0,3E0,-2.4492937E-16,-5E-1,-5E-1,0E0,1E0,8.660254E-1,7.3E1,2.9E1,-8.660254E-1,-2.5881904E-1,-5E-1,1E0,6.123234E-17,1E0,2.5881904E-1,1.2246469E-16,-2.5881904E-1,1.08E2,-5E-1,1E0,1E0,1.2246469E-16,1E0,-5E-1,2.6E1,8.4E1,-8.660254E-1,8.660254E-1,1E0,0E0,-2.2252093E-1,6.123234E-17,-1.8369701E-16,0E0,-7.818315E-1,1.2246469E-16,-8.660254E-1,2.4E1,7.3E1,1E0,-2.5881904E-1,1.1662255E-2,1E0,1.1E1,-3.4522526E-3,-8.803291E-3,9.749279E-1,-8.35901E-3,-7.541413E-4,-5E-1,-9.202426E-3,-3.2135777E-3,1E0,5E-1,1.9E1,3.510764E-2,1E0,-1.3150474E-2,-2.4492937E-16,0E0,-5E-1,0E0,5E-1,1E0,2.2E1,1E0,7.7E1,8.660254E-1,7.2E1,-0E0,1E0,3.6E1,1E0,-5E-1,0E0,9.3E1,1.7E1,-8.660254E-1,5E-1,-1.1629102E-2,4.9832687E-3,-8.660254E-1,6.234898E-1,-5E-1,1E0,1E0,7.5E-1,5E-1,1E0,-8.660254E-1,9.749279E-1,5.9E1,3.4655097E-3,-5.3744955E-4,3.2E1,-4.564727E-2,2.0632118E-3,7.0710677E-1,8.660254E-1,6.8819937E-3,-2.4599165E-3,-7.39669E-3,2.5265E-3,-6.3026357E-3,-7.14664E-3,-2.6869704E-5,4.969799E-3,-7.5644436E-3,-4.2621573E-3,-1.0086765E-2,-3.3951344E-4,-1.0752835E-2,-7.221328E-3,-1.1598549E-2,3.91927E-3,-3.2409383E-3,-4.1147685E-3,-6.4467075E-3,2.4249783E-2,1.2862391E-3,-2.4892632E-3,8.210551E-3,-8.100271E-3,-1.2512589E-2,6.742342E-4,-4.89395E-3,-8.443747E-3,-4.550695E-3,-1.1912158E-2,-5.7187728E-3,-1.1012987E-2,-2.4645887E-3,-4.4131815E-3,8.080907E-3,-7.015369E-4,-7.7078864E-3,3.6998678E-3,2.981118E-2,-5.5759693E-3,8.5828295E-3,-7.667472E-4,-1.0029095E-2,-4.6211695E-3,5.844856E-3,-4.262376E-3,-9.512076E-3,1.5200193E-2,-8.50761E-3,-8.13885E-3,-1.1016026E-2,-6.421277E-3,-1.0938109E-2,-4.6606506E-3,-1.2673664E-2,2.399303E-2,-1.2880771E-3,4.191185E-2,2.8980779E-2,3.830077E-2,4.9691614E-2,1.4131501E-2,3.0094335E-2,1.8981665E-2,1.4000688E-2,2.250853E-2,1.7655587E-2,4.5331232E-2,2.2740928E-2,4.265744E-2,2.7197639E-2,2.3958504E-2,3.5814194E-3,-1.9355273E-2,-6.71244E-3,-1.0823842E-2,-0E0,-3.503532E-3,1.5209911E-3],"split_indices":[37,9,26,32,2,0,7,26,5,0,0,2,2,3,4,14,6,43,43,2,6,6,31,3,2,6,6,6,43,2,2,12,2,30,3,43,43,2,6,35,4,5,3,7,4,4,2,2,0,43,20,6,0,5,43,0,0,4,0,0,6,0,0,3,3,43,0,31,0,2,4,3,4,6,10,43,43,43,2,43,0,30,43,31,6,4,43,43,3,6,0,0,3,5,7,20,20,0,6,5,3,4,43,0,0,43,0,0,6,3,0,0,0,0,0,0,0,0,0,0,0,0,0,0,0,0,0,0,0,0,0,0,0,0,0,0,0,0,0,0,0,0,0,0,0,0,0,0,0,0,0,0,0,0,0,0,0,0,0,0,0,0,0,0,0,0,0,0,0,0,0,0,0,0,0,0,0,0,0,0,0,0,0,0,0,0,0,0,0],"split_type":[0,0,0,0,0,0,0,0,0,0,0,0,0,0,0,0,0,0,0,0,0,0,0,0,0,0,0,0,0,0,0,0,0,0,0,0,0,0,0,0,0,0,0,0,0,0,0,0,0,0,0,0,0,0,0,0,0,0,0,0,0,0,0,0,0,0,0,0,0,0,0,0,0,0,0,0,0,0,0,0,0,0,0,0,0,0,0,0,0,0,0,0,0,0,0,0,0,0,0,0,0,0,0,0,0,0,0,0,0,0,0,0,0,0,0,0,0,0,0,0,0,0,0,0,0,0,0,0,0,0,0,0,0,0,0,0,0,0,0,0,0,0,0,0,0,0,0,0,0,0,0,0,0,0,0,0,0,0,0,0,0,0,0,0,0,0,0,0,0,0,0,0,0,0,0,0,0,0,0,0,0,0,0,0,0,0,0,0,0],"sum_hessian":[9.833E3,8.79E3,1.043E3,7.075E3,1.715E3,8.76E2,1.67E2,4.866E3,2.209E3,4.11E2,1.304E3,8.29E2,4.7E1,7.2E1,9.5E1,4.199E3,6.67E2,1.247E3,9.62E2,2.07E2,2.04E2,1.037E3,2.67E2,3.78E2,4.51E2,1.3E1,3.4E1,1.9E1,5.3E1,1.5E1,8E1,4.126E3,7.3E1,4.71E2,1.96E2,1.047E3,2E2,3.73E2,5.89E2,1.02E2,1.05E2,6.6E1,1.38E2,2.1E2,8.27E2,2.26E2,4.1E1,2.52E2,1.26E2,3.59E2,9.2E1,9E0,4E0,1.8E1,1.6E1,4E0,1.5E1,5E1,3E0,5E0,1E1,7.6E1,4E0,3.79E3,3.36E2,2E1,5.3E1,4.46E2,2.5E1,4.4E1,1.52E2,3.11E2,7.36E2,1.7E1,1.83E2,4.4E1,3.29E2,4.78E2,1.11E2,9.7E1,5E0,8E0,9.7E1,2.6E1,4E1,7.4E1,6.4E1,1.97E2,1.3E1,1.19E2,7.08E2,4E0,2.22E2,2.2E1,1.9E1,1.44E2,1.08E2,4.8E1,7.8E1,3.31E2,2.8E1,3.4E1,5.8E1,6E0,3E0,1.5E1,3E0,4E0,1.2E1,4.4E1,6E0,5E0,5E0,3.622E3,1.68E2,2.25E2,1.11E2,6E0,1.4E1,3.96E2,5E1,1.7E1,2.7E1,3.2E1,1.2E2,8E1,2.31E2,2.41E2,4.95E2,1.2E1,5E0,1.56E2,2.7E1,2.6E1,1.8E1,2.7E1,3.02E2,3.65E2,1.13E2,9.1E1,2E1,9.1E1,6E0,4E0,4E0,1.3E1,8.4E1,2.2E1,4E0,3.1E1,9E0,1.6E1,5.8E1,4.8E1,1.6E1,1.9E1,1.78E2,3E0,1E1,5.4E1,6.5E1,3.7E1,1.85E2,7E0,1.5E1,1.3E1,6E0,1.02E2,4.2E1,4.1E1,6.7E1,1.5E1,3.3E1,5E1,2.8E1,2.64E2,6.7E1,7E0,2.1E1,2.4E1,1E1,5.4E1,4E0,1.1E1,4E0,8E0,4E0,3E1,1.4E1],"tree_param":{"num_deleted":"0","num_feature":"44","num_nodes":"189","size_leaf_vector":"1"}},{"base_weights":[2.000492E-3,-8.023135E-2,6.9543856E-1,-3.0009422E-2,-2.955409E-1,8.772319E-1,-2.1903966E-1,-4.5050398E-2,6.3059646E-1,-1.984234E-1,-3.278299E-1,9.449541E-1,-3.294864E-1,-1.6544534E-1,-3.0482942E-1,9.20512E-3,-1.6224459E-1,2.8085294E-1,3.558708E-2,-2.7881715E-1,-1.101845E-1,-3.4693456E-1,-2.5168145E-1,1.1433043E0,7.748208E-1,1.9286004E-1,-4.9722725E-1,-2.6981547E-1,-1.3666345E-1,-1.5801863E-1,-9.627234E-3,4.5901477E-2,-2.1487889E-1,-1.1932202E-1,-2.1840717E-1,4.5759726E-2,1.97367E-1,-3.295657E-1,-2.2011091E-1,4.7804072E-2,-1.8120661E-1,-2.7054286E-1,-3.6643475E-1,-9.691099E-3,-3.3909136E-1,1.3472481E0,6.9106525E-1,7.207893E-1,9.749777E-1,3.965764E-2,1.1382356E-2,-2.4172622E-1,-7.337435E-1,-1.4708012E-1,-1.0073397E-2,-2.3422305E-1,-8.878713E-2,-4.3827665E-4,-7.4947295E-3,4.0363975E-2,3.20245E-2,-2.568433E-1,2.9590346E-2,-5.365726E-3,-1.5187308E-1,-1.591624E-1,-2.5553647E-1,9.565713E-2,5.6391066E-1,-3.4422433E-1,-1.3269371E-1,-7.0363514E-2,-2.4317588E-1,-8.840681E-2,1.6215584E-1,-3.0787516E-1,-5.5172904E-3,-5.409676E-2,-2.8425267E-1,-6.06257E-3,-1.1038371E-2,3.186845E-1,-1.9412884E-1,4.863667E-3,-3.514792E-1,1.2520021E0,1.4487412E0,8.7045455E-1,1.660779E-2,-8.8053354E-4,7.296559E-1,3.751359E-2,7.737711E-1,3.3616011E-3,-1.0725432E-3,1.7973948E-2,-1.2091474E-2,-9.682179E-1,-2.6027483E-3,-1.1786235E-3,-5.87182E-3,-1.5132904E-1,-8.679277E-3,-6.754087E-2,-8.924591E-3,1.7387299E-3,-5.5658314E-3,-6.384458E-3,-1.0498623E-2,-7.1275174E-3,3.3093016E-3,5.6008007E-3,-2.0407902E-3,-5.637757E-3,-2.8435836E-4,-1.0683901E-2,-3.9404784E-3,-8.457536E-3,-5.4922164E-3,1.0439816E-2,6.12897E-5,3.5718624E-2,1.1321876E-2,-1.0802339E-2,-3.7199715E-3,5.407529E-3,-9.205461E-3,-5.538161E-3,4.024214E-3,-3.1727517E-3,-8.538258E-3,-5.34159E-3,6.134664E-3,-8.222708E-3,6.9153924E-3,-3.0854705E-3,-1.1153144E-2,4.487743E-3,-5.068372E-3,-8.8209165E-3,1.2497705E-2,-6.080186E-3,-9.718579E-3,-1.2478895E-3,2.6197959E-2,-1.0579347E-2,9.563928E-3,-1.4599605E-3,-1.0774501E-2,4.086183E-2,2.7715348E-2,3.5826888E-2,4.790716E-2,1.1491893E-2,2.9866133E-2,2.1186262E-2,2.8415907E-2,3.0831313E-2,1.9868232E-2,-3.6180525E-3,4.3571913E-3,-3.5880923E-2,-1.033533E-2,-7.338663E-3,-2.3864876E-3,-2.9251361E-3,2.8595221E-3],"categories":[],"categories_nodes":[],"categories_segments":[],"categories_sizes":[],"default_left":[0,0,0,0,0,0,0,0,0,0,0,0,0,0,0,0,0,0,0,0,0,0,0,0,0,0,0,0,0,0,0,0,0,0,0,0,0,0,0,0,0,0,0,0,0,0,0,0,0,0,0,0,0,0,0,0,0,0,0,0,0,0,0,0,0,0,0,0,0,0,0,0,0,0,0,0,0,0,0,0,0,0,0,0,0,0,0,0,0,0,0,0,0,0,0,0,0,0,0,0,0,0,0,0,0,0,0,0,0,0,0,0,0,0,0,0,0,0,0,0,0,0,0,0,0,0,0,0,0,0,0,0,0,0,0,0,0,0,0,0,0,0,0,0,0,0,0,0,0,0,0,0,0,0,0,0,0,0,0,0,0,0,0,0,0,0,0],"id":4,"left_children":[1,3,5,7,9,11,13,15,17,19,21,23,25,27,29,31,33,35,-1,37,39,41,43,45,47,49,51,53,55,57,-1,59,61,63,65,-1,67,69,71,73,75,77,79,81,83,85,87,89,91,93,-1,95,97,99,-1,101,103,-1,-1,105,-1,107,109,111,113,115,117,119,121,123,125,127,129,131,133,135,137,139,141,-1,-1,143,145,-1,147,149,151,153,-1,-1,155,-1,157,-1,-1,159,-1,161,-1,-1,-1,163,-1,165,-1,-1,-1,-1,-1,-1,-1,-1,-1,-1,-1,-1,-1,-1,-1,-1,-1,-1,-1,-1,-1,-1,-1,-1,-1,-1,-1,-1,-1,-1,-1,-1,-1,-1,-1,-1,-1,-1,-1,-1,-1,-1,-1,-1,-1,-1,-1,-1,-1,-1,-1,-1,-1,-1,-1,-1,-1,-1,-1,-1,-1,-1,-1],"loss_changes":[5.62076E2,9.523422E1,1.7398505E2,7.0973625E1,5.106598E0,7.1634094E1,7.025652E-1,4.4449516E1,3.0418808E1,2.9027042E0,1.668396E0,2.679657E1,4.2444167E0,2.529149E-1,5.4829597E-2,3.927456E1,5.2725067E0,9.812374E0,0E0,5.2197075E-1,2.288581E0,1.3178711E0,5.3556843E0,3.38208E1,3.9726868E0,2.860087E-1,1.9005728E0,8.044326E-2,3.626039E-1,8.83991E-2,0E0,2.3073822E1,6.9243774E0,4.646179E0,2.0207863E0,0E0,3.3845253E0,2.356205E-1,3.141966E-1,1.0029956E0,3.0825653E0,5.6504726E-1,6.4331055E-2,4.228385E0,1.2369957E0,4.2944336E-1,2.3350449E0,2.4658966E0,3.9293442E0,5.5310637E-2,0E0,8.4176815E-1,2.541129E0,2.1247014E-2,0E0,4.001212E-2,2.1831775E-1,0E0,0E0,1.6232883E1,0E0,2.222355E0,2.1485374E0,3.382539E0,4.99403E0,1.9423962E0,1.0202179E0,1.7359569E0,1.731677E0,2.7353668E-1,6.1297846E-1,4.036162E-1,4.4328594E-1,7.952186E-1,1.1025441E0,9.754343E-1,1.5481591E0,1.6913062E0,5.099926E-1,0E0,0E0,5.1146126E0,3.7746253E0,0E0,3.6681747E-1,3.6416473E0,2.3012543E0,2.529007E0,0E0,0E0,9.6629333E-1,0E0,7.3592377E-1,0E0,0E0,1.610675E-1,0E0,1.2810507E0,0E0,0E0,0E0,4.1874558E-2,0E0,2.9254287E-1,0E0,0E0,0E0,0E0,0E0,0E0,0E0,0E0,0E0,0E0,0E0,0E0,0E0,0E0,0E0,0E0,0E0,0E0,0E0,0E0,0E0,0E0,0E0,0E0,0E0,0E0,0E0,0E0,0E0,0E0,0E0,0E0,0E0,0E0,0E0,0E0,0E0,0E0,0E0,0E0,0E0,0E0,0E0,0E0,0E0,0E0,0E0,0E0,0E0,0E0,0E0,0E0,0E0,0E0,0E0,0E0,0E0,0E0,0E0,0E0,0E0,0E0,0E0],"parents":[2147483647,0,0,1,1,2,2,3,3,4,4,5,5,6,6,7,7,8,8,9,9,10,10,11,11,12,12,13,13,14,14,15,15,16,16,17,17,19,19,20,20,21,21,22,22,23,23,24,24,25,25,26,26,27,27,28,28,29,29,31,31,32,32,33,33,34,34,36,36,37,37,38,38,39,39,40,40,41,41,42,42,43,43,44,44,45,45,46,46,47,47,48,48,49,49,51,51,52,52,53,53,55,55,56,56,59,59,61,61,62,62,63,63,64,64,65,65,66,66,67,67,68,68,69,69,70,70,71,71,72,72,73,73,74,74,75,75,76,76,77,77,78,78,81,81,82,82,84,84,85,85,86,86,87,87,90,90,92,92,95,95,97,97,101,101,103,103],"right_children":[2,4,6,8,10,12,14,16,18,20,22,24,26,28,30,32,34,36,-1,38,40,42,44,46,48,50,52,54,56,58,-1,60,62,64,66,-1,68,70,72,74,76,78,80,82,84,86,88,90,92,94,-1,96,98,100,-1,102,104,-1,-1,106,-1,108,110,112,114,116,118,120,122,124,126,128,130,132,134,136,138,140,142,-1,-1,144,146,-1,148,150,152,154,-1,-1,156,-1,158,-1,-1,160,-1,162,-1,-1,-1,164,-1,166,-1,-1,-1,-1,-1,-1,-1,-1,-1,-1,-1,-1,-1,-1,-1,-1,-1,-1,-1,-1,-1,-1,-1,-1,-1,-1,-1,-1,-1,-1,-1,-1,-1,-1,-1,-1,-1,-1,-1,-1,-1,-1,-1,-1,-1,-1,-1,-1,-1,-1,-1,-1,-1,-1,-1,-1,-1,-1,-1,-1,-1,-1,-1],"split_conditions":[1E0,1E0,1E0,2.4E1,-5E-1,2.4E2,7.0710677E-1,1E0,1E0,1E0,3E0,-2.4492937E-16,-5E-1,-7.0710677E-1,0E0,1E0,6.234898E-1,-8.660254E-1,3.558708E-2,-8.660254E-1,-2.5881904E-1,-5E-1,1E0,6.123234E-17,1E0,2.5881904E-1,2.3E1,7.818315E-1,-5E-1,-5E-1,-9.627234E-3,1E0,1E0,2.4E1,2.9E1,4.5759726E-2,9.749279E-1,1E0,3.6E1,4.3388373E-1,6.123234E-17,1.7E1,-7.818315E-1,4.8E1,-7.818315E-1,-8.660254E-1,2.4E1,1.2246469E-16,1E0,4.3388373E-1,1.1382356E-2,4.3388373E-1,7.0710677E-1,1.07E2,-1.0073397E-2,4.3388373E-1,1.08E2,-4.3827665E-4,-7.4947295E-3,1E0,3.20245E-2,8.660254E-1,-8.660254E-1,-5E-1,7.3E1,-8.660254E-1,7.7E1,-5E-1,-5E-1,7.2E1,5.3E1,1.7E1,4.3388373E-1,1E0,3.6E1,0E0,1E0,-2.4492937E-16,-2.2252093E-1,-6.06257E-3,-1.1038371E-2,4.3E1,8.660254E-1,4.863667E-3,-9.659258E-1,1E0,1E0,7.5E-1,1.660779E-2,-8.8053354E-4,7.1E1,3.751359E-2,9E0,3.3616011E-3,-1.0725432E-3,-5E-1,-1.2091474E-2,5.7E1,-2.6027483E-3,-1.1786235E-3,-5.87182E-3,1.07E2,-8.679277E-3,9.749279E-1,-8.924591E-3,1.7387299E-3,-5.5658314E-3,-6.384458E-3,-1.0498623E-2,-7.1275174E-3,3.3093016E-3,5.6008007E-3,-2.0407902E-3,-5.637757E-3,-2.8435836E-4,-1.0683901E-2,-3.9404784E-3,-8.457536E-3,-5.4922164E-3,1.0439816E-2,6.12897E-5,3.5718624E-2,1.1321876E-2,-1.0802339E-2,-3.7199715E-3,5.407529E-3,-9.205461E-3,-5.538161E-3,4.024214E-3,-3.1727517E-3,-8.538258E-3,-5.34159E-3,6.134664E-3,-8.222708E-3,6.9153924E-3,-3.0854705E-3,-1.1153144E-2,4.487743E-3,-5.068372E-3,-8.8209165E-3,1.2497705E-2,-6.080186E-3,-9.718579E-3,-1.2478895E-3,2.6197959E-2,-1.0579347E-2,9.563928E-3,-1.4599605E-3,-1.0774501E-2,4.086183E-2,2.7715348E-2,3.5826888E-2,4.790716E-2,1.1491893E-2,2.9866133E-2,2.1186262E-2,2.8415907E-2,3.0831313E-2,1.9868232E-2,-3.6180525E-3,4.3571913E-3,-3.5880923E-2,-1.033533E-2,-7.338663E-3,-2.3864876E-3,-2.9251361E-3,2.8595221E-3],"split_indices":[37,9,26,0,2,0,6,32,14,0,0,2,2,6,4,26,5,3,0,2,6,6,35,3,2,6,43,4,3,2,0,39,36,43,43,0,4,35,43,4,3,43,4,43,4,2,0,2,20,4,0,4,6,43,0,4,43,0,0,12,0,6,2,3,43,2,43,3,3,43,43,43,4,30,43,4,35,2,5,0,0,43,2,0,6,20,20,0,0,0,43,0,43,0,0,6,0,43,0,0,0,43,0,4,0,0,0,0,0,0,0,0,0,0,0,0,0,0,0,0,0,0,0,0,0,0,0,0,0,0,0,0,0,0,0,0,0,0,0,0,0,0,0,0,0,0,0,0,0,0,0,0,0,0,0,0,0,0,0,0,0,0,0,0,0,0,0],"split_type":[0,0,0,0,0,0,0,0,0,0,0,0,0,0,0,0,0,0,0,0,0,0,0,0,0,0,0,0,0,0,0,0,0,0,0,0,0,0,0,0,0,0,0,0,0,0,0,0,0,0,0,0,0,0,0,0,0,0,0,0,0,0,0,0,0,0,0,0,0,0,0,0,0,0,0,0,0,0,0,0,0,0,0,0,0,0,0,0,0,0,0,0,0,0,0,0,0,0,0,0,0,0,0,0,0,0,0,0,0,0,0,0,0,0,0,0,0,0,0,0,0,0,0,0,0,0,0,0,0,0,0,0,0,0,0,0,0,0,0,0,0,0,0,0,0,0,0,0,0,0,0,0,0,0,0,0,0,0,0,0,0,0,0,0,0,0,0],"sum_hessian":[9.854E3,8.81E3,1.044E3,7.145E3,1.665E3,8.71E2,1.73E2,6.987E3,1.58E2,4.18E2,1.247E3,8.25E2,4.6E1,1.09E2,6.4E1,4.776E3,2.211E3,9.8E1,6E1,2.17E2,2.01E2,9.93E2,2.54E2,3.78E2,4.47E2,1.1E1,3.5E1,2.1E1,8.8E1,8E0,5.6E1,4.105E3,6.71E2,1.256E3,9.55E2,5E0,9.3E1,1.13E2,1.04E2,6.2E1,1.39E2,2.06E2,7.87E2,6.8E1,1.86E2,2.59E2,1.19E2,3.56E2,9.1E1,7E0,4E0,1.8E1,1.7E1,9E0,1.2E1,2.7E1,6.1E1,4E0,4E0,4.084E3,2.1E1,5.73E2,9.8E1,2.8E2,9.76E2,3.71E2,5.84E2,7.4E1,1.9E1,1.04E2,9E0,1.5E1,8.9E1,2.8E1,3.4E1,8E1,5.9E1,1.3E1,1.93E2,9E0,7.78E2,2.4E1,4.4E1,4E0,1.82E2,1.41E2,1.18E2,4.9E1,7E1,4E0,3.52E2,3.6E1,5.5E1,4E0,3E0,7E0,1.1E1,1.2E1,5E0,4E0,5E0,1.3E1,1.4E1,5.7E1,4E0,3.79E3,2.94E2,3.92E2,1.81E2,2.2E1,7.6E1,6.8E1,2.12E2,7.78E2,1.98E2,4.4E1,3.27E2,4.25E2,1.59E2,1.9E1,5.5E1,3E0,1.6E1,9.6E1,8E0,3E0,6E0,1E1,5E0,2.2E1,6.7E1,2.2E1,6E0,4E0,3E1,2E1,6E1,3E1,2.9E1,9E0,4E0,6.6E1,1.27E2,1.5E1,9E0,3.4E1,1E1,5E0,1.77E2,1.03E2,3.8E1,4.7E1,7.1E1,1.1E1,3.8E1,3.22E2,3E1,1.4E1,4.1E1,3E0,4E0,8E0,4E0,4E0,9E0,4.9E1,8E0],"tree_param":{"num_deleted":"0","num_feature":"44","num_nodes":"167","size_leaf_vector":"1"}},{"base_weights":[1.265196E-3,-7.6288514E-2,6.5064186E-1,-1.16234824E-1,1.3949098E-1,8.3609974E-1,-2.0694773E-1,-1.3191986E-1,5.505645E-1,-8.1630245E-2,1.9270684E-1,8.962337E-1,-1.8892758E-1,-1.0233979E-1,-2.7399382E-1,-1.9181006E-1,7.249234E-2,2.270461E-1,3.4470443E-2,2.1490453E-1,-1.17389075E-1,2.5193313E-1,2.8406614E-3,1.0134957E0,6.623443E-1,-6.3219154E-1,2.2282766E-2,-6.012713E-2,-2.2055E-1,-1.412661E-1,-8.796052E-3,-1.9609843E-1,1.156507E0,1.5724644E-2,1.6973832E-1,6.7928135E-1,6.890648E-2,1.3132524E-2,1.4607194E-1,-4.5817725E-2,-1.6886002E-1,1.9118004E-1,3.2266262E-1,6.0046535E-2,-4.6485037E-2,7.65334E-1,1.0561135E0,4.9945915E-1,6.733214E-1,-7.904567E-1,-3.177506E-3,1.2993349E-1,-1.3364209E-1,-3.584518E-2,-8.710404E-3,-1.3825457E-3,-2.4413192E-1,-7.372574E-2,-5.8659976E-3,-1.6520749E-1,-3.089248E-1,3.9058134E-2,1.4939978E-2,7.4874096E-2,-8.90505E-2,2.4875794E-1,6.0576823E-2,3.2258528E-1,1.1493853E0,3.0240637E-1,1.3122128E-2,-5.5925767E-3,2.82526E-1,4.3286607E-2,-2.086332E-1,-2.0734954E-1,-5.4447018E-2,2.2049618E-1,3.6026374E-2,3.7137103E-1,1.1791181E-1,3.3469487E-2,3.877652E-1,-0E0,-9.6423335E-2,6.8240494E-1,4.3660782E-2,1.1510235E0,9.528028E-1,1.7774072E-2,4.0806383E-3,2.3528693E-2,6.394466E-1,-3.255095E-1,-4.8419215E-2,5.2020546E-2,1.269175E-2,-3.264988E-1,4.837501E-3,-1.0774984E-1,8.6780235E-2,-8.021141E-3,-2.4771194E-3,-3.2987017E-3,-0E0,-3.4613523E-3,-6.2463325E-3,-9.506144E-3,-6.496445E-3,2.8958716E-3,-6.7888014E-3,-4.100292E-3,1.5963177E-3,1.3145437E-2,4.158156E-3,4.3171295E-3,-2.1455898E-3,6.432213E-3,1.4596214E-2,3.9827865E-2,1.843116E-2,2.1987765E-3,1.1723854E-2,-1.9791129E-3,8.71298E-3,3.25114E-3,-2.6586284E-3,-0E0,1.2207399E-2,4.1271453E-3,-2.446641E-3,-7.646232E-3,3.5485604E-3,-4.790293E-3,-9.957686E-3,-0E0,-1.0517956E-2,-5.516208E-4,7.47436E-3,5.957818E-3,-6.2673254E-4,1.5923E-2,7.207503E-3,-6.2828575E-4,1.5590842E-2,3.4131082E-3,2.1709744E-5,2.4484112E-3,1.7890908E-2,-1.1748268E-3,5.706891E-3,-4.5260675E-3,-7.6892885E-4,1.2790008E-2,2.1383064E-2,2.2646705E-2,3.861784E-2,3.3470865E-2,2.5071908E-2,6.776804E-3,1.9320613E-2,-1.53609915E-2,-1.6165203E-3,7.502557E-3,-4.8816088E-3,-1.46772135E-2,-0E0,-5.1328517E-3,4.6736235E-3,8.691407E-3,3.5069417E-4],"categories":[],"categories_nodes":[],"categories_segments":[],"categories_sizes":[],"default_left":[0,0,0,0,0,0,0,0,0,0,0,0,0,0,0,0,0,0,0,0,0,0,0,0,0,0,0,0,0,0,0,0,0,0,0,0,0,0,0,0,0,0,0,0,0,0,0,0,0,0,0,0,0,0,0,0,0,0,0,0,0,0,0,0,0,0,0,0,0,0,0,0,0,0,0,0,0,0,0,0,0,0,0,0,0,0,0,0,0,0,0,0,0,0,0,0,0,0,0,0,0,0,0,0,0,0,0,0,0,0,0,0,0,0,0,0,0,0,0,0,0,0,0,0,0,0,0,0,0,0,0,0,0,0,0,0,0,0,0,0,0,0,0,0,0,0,0,0,0,0,0,0,0,0,0,0,0,0,0,0,0,0,0,0,0,0,0,0,0,0,0],"id":5,"left_children":[1,3,5,7,9,11,13,15,17,19,21,23,25,27,29,31,33,35,-1,37,39,41,43,45,47,49,51,53,55,57,-1,59,61,63,65,67,69,-1,71,73,75,77,79,81,83,85,87,89,91,93,-1,95,97,99,-1,-1,101,103,-1,105,107,-1,-1,109,111,113,115,117,119,121,123,125,127,129,131,133,135,137,139,141,143,145,147,149,151,153,-1,155,157,-1,-1,-1,159,161,-1,163,-1,165,-1,167,169,-1,-1,-1,-1,-1,-1,-1,-1,-1,-1,-1,-1,-1,-1,-1,-1,-1,-1,-1,-1,-1,-1,-1,-1,-1,-1,-1,-1,-1,-1,-1,-1,-1,-1,-1,-1,-1,-1,-1,-1,-1,-1,-1,-1,-1,-1,-1,-1,-1,-1,-1,-1,-1,-1,-1,-1,-1,-1,-1,-1,-1,-1,-1,-1,-1,-1,-1,-1,-1,-1],"loss_changes":[4.998953E2,7.643521E1,1.6866641E2,7.8283264E1,1.6324348E1,5.392755E1,1.2598877E0,8.95292E1,3.2902378E1,2.8678813E0,1.2534546E1,2.1733032E1,4.662553E0,3.379087E-1,2.0576763E-1,3.2828506E1,9.126138E0,7.9597178E0,0E0,3.2250822E-1,8.5860205E-1,3.5437088E0,7.575466E-1,4.7841187E0,4.348755E-2,1.1592951E0,5.8769804E-1,2.8120387E-1,3.7897825E-2,2.0967096E-2,0E0,1.9551743E1,8.954563E-1,6.5001173E0,5.2157955E0,4.3448706E0,1.0716584E0,0E0,5.2595896E-1,1.5198448E0,5.7464576E-1,2.0632648E0,3.8067589E0,1.0336225E0,3.3252195E-1,3.599823E0,3.232727E0,5.902357E-1,3.2218933E-1,3.875392E0,0E0,4.1008705E-1,8.653798E-1,4.875838E-1,0E0,0E0,3.002286E-3,3.0278526E-2,0E0,9.434212E0,7.6628876E-1,0E0,0E0,4.3849754E0,2.576687E0,7.2471066E0,2.857406E0,1.4484227E-1,1.3430405E-1,2.4896634E-1,1.57693E0,1.2117579E-1,4.5253408E-1,8.054549E-1,6.031395E-1,5.0953627E-1,6.2783045E-1,2.6762123E0,7.158891E-1,6.3789177E0,4.3565454E0,2.961217E-1,4.5829523E-1,5.670507E-1,2.4443197E-1,1.809082E-1,0E0,1.1560577E1,3.220459E0,0E0,0E0,0E0,1.5150452E-1,3.7179887E-1,0E0,8.15017E-1,0E0,4.7672403E-1,0E0,6.124692E-1,2.7123994E-1,0E0,0E0,0E0,0E0,0E0,0E0,0E0,0E0,0E0,0E0,0E0,0E0,0E0,0E0,0E0,0E0,0E0,0E0,0E0,0E0,0E0,0E0,0E0,0E0,0E0,0E0,0E0,0E0,0E0,0E0,0E0,0E0,0E0,0E0,0E0,0E0,0E0,0E0,0E0,0E0,0E0,0E0,0E0,0E0,0E0,0E0,0E0,0E0,0E0,0E0,0E0,0E0,0E0,0E0,0E0,0E0,0E0,0E0,0E0,0E0,0E0,0E0,0E0,0E0,0E0,0E0,0E0,0E0,0E0,0E0],"parents":[2147483647,0,0,1,1,2,2,3,3,4,4,5,5,6,6,7,7,8,8,9,9,10,10,11,11,12,12,13,13,14,14,15,15,16,16,17,17,19,19,20,20,21,21,22,22,23,23,24,24,25,25,26,26,27,27,28,28,29,29,31,31,32,32,33,33,34,34,35,35,36,36,38,38,39,39,40,40,41,41,42,42,43,43,44,44,45,45,46,46,47,47,48,48,49,49,51,51,52,52,53,53,56,56,57,57,59,59,60,60,63,63,64,64,65,65,66,66,67,67,68,68,69,69,70,70,71,71,72,72,73,73,74,74,75,75,76,76,77,77,78,78,79,79,80,80,81,81,82,82,83,83,84,84,85,85,87,87,88,88,92,92,93,93,95,95,97,97,99,99,100,100],"right_children":[2,4,6,8,10,12,14,16,18,20,22,24,26,28,30,32,34,36,-1,38,40,42,44,46,48,50,52,54,56,58,-1,60,62,64,66,68,70,-1,72,74,76,78,80,82,84,86,88,90,92,94,-1,96,98,100,-1,-1,102,104,-1,106,108,-1,-1,110,112,114,116,118,120,122,124,126,128,130,132,134,136,138,140,142,144,146,148,150,152,154,-1,156,158,-1,-1,-1,160,162,-1,164,-1,166,-1,168,170,-1,-1,-1,-1,-1,-1,-1,-1,-1,-1,-1,-1,-1,-1,-1,-1,-1,-1,-1,-1,-1,-1,-1,-1,-1,-1,-1,-1,-1,-1,-1,-1,-1,-1,-1,-1,-1,-1,-1,-1,-1,-1,-1,-1,-1,-1,-1,-1,-1,-1,-1,-1,-1,-1,-1,-1,-1,-1,-1,-1,-1,-1,-1,-1,-1,-1,-1,-1,-1,-1],"split_conditions":[1E0,1E0,1E0,2.4E1,3E0,2.4E2,-7.0710677E-1,1E0,1E0,-7.0710677E-1,1.06E2,5E-1,-5E-1,5E-1,0E0,1E0,3E1,-5E-1,3.4470443E-2,-8.660254E-1,4.3388373E-1,2.6E1,5E-1,-8.660254E-1,8E0,5.7E1,2.8E1,1.08E2,0E0,8.660254E-1,-8.796052E-3,2E0,-5E-1,2.6E1,1E0,7.818315E-1,2.3E1,1.3132524E-2,-8.660254E-1,5E-1,5.7E1,2.5E1,5E-1,1.08E2,1.2246469E-16,7.1E1,1E0,8.660254E-1,2.4E1,2.3E1,-3.177506E-3,7.0710677E-1,4.3388373E-1,5E-1,-8.710404E-3,-1.3825457E-3,8.660254E-1,1.07E2,-5.8659976E-3,2.5881904E-1,1E0,3.9058134E-2,1.4939978E-2,1E0,1E0,1.2246469E-16,7.818315E-1,4.3388373E-1,5E-1,-2.5881904E-1,9.749279E-1,-9.659258E-1,7.5E-1,3.3E1,9.2E1,9.749279E-1,1.08E2,1E0,-7.0710677E-1,2.9E1,5.9E1,1.2246469E-16,-8.660254E-1,-2.5881904E-1,1.07E2,7.5E-1,4.3660782E-2,-5E-1,-5E-1,1.7774072E-2,4.0806383E-3,2.3528693E-2,-9.659258E-1,1.9E1,-4.8419215E-2,2.5881904E-1,1.269175E-2,3.3E1,4.837501E-3,9.749279E-1,-2.5881904E-1,-8.021141E-3,-2.4771194E-3,-3.2987017E-3,-0E0,-3.4613523E-3,-6.2463325E-3,-9.506144E-3,-6.496445E-3,2.8958716E-3,-6.7888014E-3,-4.100292E-3,1.5963177E-3,1.3145437E-2,4.158156E-3,4.3171295E-3,-2.1455898E-3,6.432213E-3,1.4596214E-2,3.9827865E-2,1.843116E-2,2.1987765E-3,1.1723854E-2,-1.9791129E-3,8.71298E-3,3.25114E-3,-2.6586284E-3,-0E0,1.2207399E-2,4.1271453E-3,-2.446641E-3,-7.646232E-3,3.5485604E-3,-4.790293E-3,-9.957686E-3,-0E0,-1.0517956E-2,-5.516208E-4,7.47436E-3,5.957818E-3,-6.2673254E-4,1.5923E-2,7.207503E-3,-6.2828575E-4,1.5590842E-2,3.4131082E-3,2.1709744E-5,2.4484112E-3,1.7890908E-2,-1.1748268E-3,5.706891E-3,-4.5260675E-3,-7.6892885E-4,1.2790008E-2,2.1383064E-2,2.2646705E-2,3.861784E-2,3.3470865E-2,2.5071908E-2,6.776804E-3,1.9320613E-2,-1.53609915E-2,-1.6165203E-3,7.502557E-3,-4.8816088E-3,-1.46772135E-2,-0E0,-5.1328517E-3,4.6736235E-3,8.691407E-3,3.5069417E-4],"split_indices":[37,18,26,0,0,0,7,8,14,6,43,3,6,6,4,39,43,3,0,3,4,43,3,3,43,43,43,43,4,6,0,1,7,43,35,4,43,0,6,3,43,43,6,43,6,43,20,3,43,43,0,6,4,3,0,0,3,43,0,6,10,0,0,3,31,6,4,4,6,6,4,6,0,43,43,4,43,43,6,43,43,6,6,6,43,0,0,3,3,0,0,0,6,43,0,6,0,43,0,4,6,0,0,0,0,0,0,0,0,0,0,0,0,0,0,0,0,0,0,0,0,0,0,0,0,0,0,0,0,0,0,0,0,0,0,0,0,0,0,0,0,0,0,0,0,0,0,0,0,0,0,0,0,0,0,0,0,0,0,0,0,0,0,0,0,0,0,0,0,0,0],"split_type":[0,0,0,0,0,0,0,0,0,0,0,0,0,0,0,0,0,0,0,0,0,0,0,0,0,0,0,0,0,0,0,0,0,0,0,0,0,0,0,0,0,0,0,0,0,0,0,0,0,0,0,0,0,0,0,0,0,0,0,0,0,0,0,0,0,0,0,0,0,0,0,0,0,0,0,0,0,0,0,0,0,0,0,0,0,0,0,0,0,0,0,0,0,0,0,0,0,0,0,0,0,0,0,0,0,0,0,0,0,0,0,0,0,0,0,0,0,0,0,0,0,0,0,0,0,0,0,0,0,0,0,0,0,0,0,0,0,0,0,0,0,0,0,0,0,0,0,0,0,0,0,0,0,0,0,0,0,0,0,0,0,0,0,0,0,0,0,0,0,0,0],"sum_hessian":[9.923E3,8.865E3,1.058E3,7.481E3,1.384E3,8.7E2,1.88E2,7.31E3,1.71E2,2.68E2,1.116E3,8.22E2,4.8E1,7.5E1,1.13E2,5.654E3,1.656E3,1.12E2,5.9E1,2.8E1,2.4E2,8.5E2,2.66E2,5.45E2,2.77E2,1.5E1,3.3E1,5.7E1,1.8E1,1.6E1,9.7E1,5.637E3,1.7E1,1.047E3,6.09E2,2.8E1,8.4E1,5E0,2.3E1,1.02E2,1.38E2,4.6E2,3.9E2,1.24E2,1.42E2,8.3E1,4.62E2,2.1E1,2.56E2,1.1E1,4E0,2E1,1.3E1,5.3E1,4E0,3E0,1.5E1,9E0,7E0,4.428E3,1.209E3,1.3E1,4E0,6.7E2,3.77E2,3.52E2,2.57E2,1.7E1,1.1E1,1.5E1,6.9E1,1.1E1,1.2E1,6.6E1,3.6E1,1.02E2,3.6E1,3.86E2,7.4E1,3.14E2,7.6E1,1.16E2,8E0,7.4E1,6.8E1,7.6E1,7E0,2.35E2,2.27E2,1.6E1,5E0,5.4E1,2.02E2,8E0,3E0,1.7E1,3E0,8E0,5E0,3.4E1,1.9E1,1.2E1,3E0,6E0,3E0,2.054E3,2.374E3,1.11E3,9.9E1,6.26E2,4.4E1,2.83E2,9.4E1,1.28E2,2.24E2,1.58E2,9.9E1,1.2E1,5E0,7E0,4E0,5E0,1E1,5.4E1,1.5E1,4E0,7E0,4E0,8E0,3.8E1,2.8E1,3.2E1,4E0,7.6E1,2.6E1,3.1E1,5E0,4.1E1,3.45E2,1.9E1,5.5E1,1.4E2,1.74E2,5.7E1,1.9E1,3.2E1,8.4E1,4E0,4E0,6.2E1,1.2E1,3.7E1,3.1E1,1E1,6.6E1,6.2E1,1.73E2,9.1E1,1.36E2,3E0,1.99E2,4E0,4E0,9E0,8E0,5E0,3E0,2.8E1,6E0,4E0,1.5E1],"tree_param":{"num_deleted":"0","num_feature":"44","num_nodes":"171","size_leaf_vector":"1"}},{"base_weights":[1.6124101E-3,-7.7178225E-2,6.573507E-1,-2.8306993E-2,-2.7926034E-1,8.3369213E-1,-1.8425837E-1,2.9551728E-2,-1.5691158E-1,-1.7082255E-1,-3.1314737E-1,1.0005205E0,5.3509235E-1,-8.506938E-2,-2.6393777E-1,1.8015275E-2,8.3405554E-1,-1.14781655E-1,-2.1155275E-1,-9.193721E-2,-2.140203E-1,-2.7378386E-1,-3.3787975E-1,1.288288E0,7.4285805E-1,4.054856E-1,6.806574E-1,-2.7560426E-2,-1.5820463E-1,-1.1694243E-1,-2.890552E-1,5.1624198E-2,-2.0000228E-1,-9.24304E-2,1.1406457E0,-2.7462713E-2,-1.4233792E-1,-2.4830446E-1,-1.7407238E-1,1.8353327E-1,-1.703733E-1,-2.7634832E-1,-1.5782054E-1,-3.2472593E-1,-2.3109053E-1,-8.1674285E-2,-3.422398E-1,1.1801422E0,1.4184072E0,8.6804926E-1,6.4290196E-1,7.2671723E-1,1.4317939E-1,4.3467286E-1,8.261569E-1,-0E0,-1.3216929E-1,-2.257627E-1,-9.443637E-2,-5.283569E-2,-4.3960074E-3,-8.894052E-3,-2.734505E-3,4.6083413E-2,8.9846814E-1,-2.3881193E-1,1.5048913E-2,-2.565461E-1,8.907931E-2,3.9118398E-2,9.233469E-1,1.6407192E-1,-9.106463E-2,-1.7895296E-1,-5.2376217E-3,-2.1426782E-1,-9.9812085E-3,-1.8586753E-1,2.5443593E-1,6.466366E-2,5.344178E-1,-5.383936E-2,-2.803495E-1,-1.753118E-1,-1.1438428E-2,-1.20623834E-1,-8.36369E-3,-2.1059382E-1,-3.437158E-1,-1.9889048E-1,-9.840916E-3,-5.841117E-3,3.109624E-3,-1.0969793E-2,-3.2807124E-1,3.8575944E-2,2.6545063E-2,1.1491511E0,4.6743713E-2,6.388545E-1,3.357927E-2,6.5823215E-1,-0E0,3.1054085E-2,4.76614E-1,4.1922513E-1,-2.9816866E-1,5.5485207E-1,3.1275308E-1,5.5477464E-1,8.753215E-1,-4.6670254E-2,1.10389106E-1,-6.4287814E-3,5.8767124E-4,-2.7501457E-3,-2.6928854E-1,4.8009824E-4,-1.3619897E-1,-2.6690476E-3,-0E0,1.912341E-3,-4.753908E-3,3.0754933E-2,1.12722255E-2,-3.8387112E-3,-8.187182E-3,-6.3234284E-3,2.6244416E-3,-2.6587595E-3,-1.0111672E-2,-3.3695635E-3,8.779846E-3,3.1060884E-2,1.7568294E-2,3.5122442E-3,1.7688137E-2,-4.806001E-3,1.1710462E-4,-4.5648217E-3,-6.7177135E-3,-2.4766407E-3,1.2076439E-2,-7.388589E-3,-3.2707583E-3,-2.9125481E-3,-6.5244427E-3,1.5287248E-2,5.633154E-4,-8.071809E-4,1.8000705E-2,2.4015948E-2,5.8392957E-3,-9.079475E-3,1.1300258E-3,-1.0232196E-2,-5.5893823E-3,-4.500568E-4,-9.283036E-3,3.0369184E-3,-4.1942685E-3,-4.331425E-3,-7.896902E-3,-5.838373E-3,-1.0456347E-2,-6.6943783E-3,-7.607306E-4,-8.245629E-3,-1.0115658E-2,1.1063465E-2,3.789083E-2,1.3300712E-2,2.0882323E-2,1.82872E-2,2.6788492E-2,1.5968647E-2,-1.3230881E-3,1.3503261E-2,7.5726626E-3,-2.125928E-2,-1.2640534E-3,1.8490778E-2,9.576829E-3,1.16129825E-2,1.1435988E-3,6.762491E-3,2.114524E-2,2.0411126E-2,2.9437816E-2,-6.4077107E-3,3.4811677E-4,-2.366797E-3,9.88461E-3,-2.8528718E-3,-9.306716E-3,1.632031E-4,-7.742347E-3],"categories":[],"categories_nodes":[],"categories_segments":[],"categories_sizes":[],"default_left":[0,0,0,0,0,0,0,0,0,0,0,0,0,0,0,0,0,0,0,0,0,0,0,0,0,0,0,0,0,0,0,0,0,0,0,0,0,0,0,0,0,0,0,0,0,0,0,0,0,0,0,0,0,0,0,0,0,0,0,0,0,0,0,0,0,0,0,0,0,0,0,0,0,0,0,0,0,0,0,0,0,0,0,0,0,0,0,0,0,0,0,0,0,0,0,0,0,0,0,0,0,0,0,0,0,0,0,0,0,0,0,0,0,0,0,0,0,0,0,0,0,0,0,0,0,0,0,0,0,0,0,0,0,0,0,0,0,0,0,0,0,0,0,0,0,0,0,0,0,0,0,0,0,0,0,0,0,0,0,0,0,0,0,0,0,0,0,0,0,0,0,0,0,0,0,0,0,0,0,0,0,0,0,0,0,0,0,0,0,0,0,0,0,0,0,0,0],"id":6,"left_children":[1,3,5,7,9,11,13,15,17,19,21,23,25,27,29,31,33,35,37,39,41,43,45,47,49,51,53,55,57,59,61,63,65,67,69,71,73,75,77,79,81,83,85,87,89,91,93,95,97,99,101,103,105,107,109,111,113,115,117,119,-1,-1,-1,121,123,125,127,129,131,-1,133,135,137,139,141,143,-1,145,147,149,151,153,155,157,-1,159,-1,161,163,165,-1,-1,-1,-1,167,-1,-1,169,-1,171,-1,173,-1,-1,175,177,179,181,183,185,187,189,191,-1,-1,-1,193,-1,195,-1,-1,-1,-1,-1,-1,-1,-1,-1,-1,-1,-1,-1,-1,-1,-1,-1,-1,-1,-1,-1,-1,-1,-1,-1,-1,-1,-1,-1,-1,-1,-1,-1,-1,-1,-1,-1,-1,-1,-1,-1,-1,-1,-1,-1,-1,-1,-1,-1,-1,-1,-1,-1,-1,-1,-1,-1,-1,-1,-1,-1,-1,-1,-1,-1,-1,-1,-1,-1,-1,-1,-1,-1,-1,-1,-1,-1,-1],"loss_changes":[5.0958755E2,8.690965E1,1.5723694E2,5.278077E1,6.1964417E0,4.2899048E1,1.3968573E0,4.5293728E1,5.0098495E0,1.3502798E0,1.1158371E0,4.036212E1,5.5771103E0,3.3036155E-1,2.9850435E-1,3.5335224E1,1.98098E1,2.9772167E0,1.2313995E0,3.227764E0,8.377142E-1,9.7857285E-1,8.1772614E-1,1.7671204E0,3.0198822E0,1.4133343E1,4.7760315E0,1.3746792E-1,1.01750016E-1,4.569739E-3,5.8918476E-2,1.9477444E1,5.400835E0,5.757944E-1,4.185028E-1,3.6744134E0,4.729498E0,1.2500763E0,2.456396E0,1.2819481E0,1.4381385E0,1.1815462E0,5.6538105E-1,3.685093E-1,7.623215E-1,3.4350085E-1,6.982422E-2,3.328247E0,2.2273865E0,6.53788E0,1.6578522E0,5.217842E0,1.1711169E1,5.748844E-1,5.855408E-1,2.0939432E-1,1.482973E-1,3.260082E-2,1.1105639E-1,9.328516E-3,0E0,0E0,0E0,1.5007224E1,1.2628574E0,1.9886036E0,1.6254936E0,6.2752604E-2,4.1991538E-1,0E0,2.1521187E-1,1.3602145E0,1.5066597E0,8.2715225E-1,6.338519E0,1.1001663E0,0E0,1.2553844E0,7.1923095E-1,1.348047E0,4.68014E-1,1.3584312E0,2.2062063E-1,1.3604927E0,0E0,4.9046016E-1,0E0,4.6700835E-2,1.7539978E-2,8.7445164E-1,0E0,0E0,0E0,0E0,8.823013E-2,0E0,0E0,3.1922684E0,0E0,3.6053276E-1,0E0,1.2013321E0,0E0,0E0,1.3478775E0,1.2006569E-1,3.7835827E0,1.00982666E-1,5.756786E-1,5.8832836E-1,7.1518326E-1,3.0476385E-1,5.4871E-1,0E0,0E0,0E0,8.404076E-3,0E0,3.028736E-1,0E0,0E0,0E0,0E0,0E0,0E0,0E0,0E0,0E0,0E0,0E0,0E0,0E0,0E0,0E0,0E0,0E0,0E0,0E0,0E0,0E0,0E0,0E0,0E0,0E0,0E0,0E0,0E0,0E0,0E0,0E0,0E0,0E0,0E0,0E0,0E0,0E0,0E0,0E0,0E0,0E0,0E0,0E0,0E0,0E0,0E0,0E0,0E0,0E0,0E0,0E0,0E0,0E0,0E0,0E0,0E0,0E0,0E0,0E0,0E0,0E0,0E0,0E0,0E0,0E0,0E0,0E0,0E0,0E0,0E0,0E0,0E0,0E0,0E0,0E0,0E0,0E0,0E0],"parents":[2147483647,0,0,1,1,2,2,3,3,4,4,5,5,6,6,7,7,8,8,9,9,10,10,11,11,12,12,13,13,14,14,15,15,16,16,17,17,18,18,19,19,20,20,21,21,22,22,23,23,24,24,25,25,26,26,27,27,28,28,29,29,30,30,31,31,32,32,33,33,34,34,35,35,36,36,37,37,38,38,39,39,40,40,41,41,42,42,43,43,44,44,45,45,46,46,47,47,48,48,49,49,50,50,51,51,52,52,53,53,54,54,55,55,56,56,57,57,58,58,59,59,63,63,64,64,65,65,66,66,67,67,68,68,70,70,71,71,72,72,73,73,74,74,75,75,77,77,78,78,79,79,80,80,81,81,82,82,83,83,85,85,87,87,88,88,89,89,94,94,97,97,99,99,101,101,104,104,105,105,106,106,107,107,108,108,109,109,110,110,111,111,112,112,116,116,118,118],"right_children":[2,4,6,8,10,12,14,16,18,20,22,24,26,28,30,32,34,36,38,40,42,44,46,48,50,52,54,56,58,60,62,64,66,68,70,72,74,76,78,80,82,84,86,88,90,92,94,96,98,100,102,104,106,108,110,112,114,116,118,120,-1,-1,-1,122,124,126,128,130,132,-1,134,136,138,140,142,144,-1,146,148,150,152,154,156,158,-1,160,-1,162,164,166,-1,-1,-1,-1,168,-1,-1,170,-1,172,-1,174,-1,-1,176,178,180,182,184,186,188,190,192,-1,-1,-1,194,-1,196,-1,-1,-1,-1,-1,-1,-1,-1,-1,-1,-1,-1,-1,-1,-1,-1,-1,-1,-1,-1,-1,-1,-1,-1,-1,-1,-1,-1,-1,-1,-1,-1,-1,-1,-1,-1,-1,-1,-1,-1,-1,-1,-1,-1,-1,-1,-1,-1,-1,-1,-1,-1,-1,-1,-1,-1,-1,-1,-1,-1,-1,-1,-1,-1,-1,-1,-1,-1,-1,-1,-1,-1,-1,-1,-1,-1,-1,-1],"split_conditions":[1E0,1E0,1E0,1E0,-5E-1,5E-1,-7.0710677E-1,1E0,6.234898E-1,-2.2252093E-1,1.2246469E-16,-2.4492937E-16,1.2246469E-16,-2.4492937E-16,0E0,1E0,1.2246469E-16,2.6E1,1E0,-5E-1,-8.660254E-1,1.2246469E-16,-7.818315E-1,-8.660254E-1,1E0,1E0,1E0,5E-1,-5E-1,-5E-1,1E0,1E0,1E0,7.818315E-1,4.3388373E-1,-5E-1,7.3E1,7.0710677E-1,8.7E1,1E0,5.2E1,1.2246469E-16,-5E-1,0E0,1E0,1E0,-5E-1,1E0,1E0,8.660254E-1,8.8E1,-5E-1,-5E-1,8.660254E-1,1.2E1,7.818315E-1,-5E-1,-2.5881904E-1,1.2246469E-16,1.07E2,-4.3960074E-3,-8.894052E-3,-2.734505E-3,1E0,8.660254E-1,0E0,-8.660254E-1,2.2E1,-7.0710677E-1,3.9118398E-2,2.5881904E-1,2.3E1,1.8E1,7.818315E-1,1E0,7.2E1,-9.9812085E-3,-5E-1,4.3388373E-1,7.2E1,-8.660254E-1,3.7E1,-8.660254E-1,5.3E1,-1.1438428E-2,3.6E1,-8.36369E-3,-5E-1,-9.659258E-1,-2.5881904E-1,-9.840916E-3,-5.841117E-3,3.109624E-3,-1.0969793E-2,0E0,3.8575944E-2,2.6545063E-2,-7.0710677E-1,4.6743713E-2,-5E-1,3.357927E-2,5.8E1,-0E0,3.1054085E-2,-2.4492937E-16,7.0710677E-1,-5E-1,6.7E1,1E0,8.660254E-1,4.3388373E-1,6.123234E-17,2.5881904E-1,-6.4287814E-3,5.8767124E-4,-2.7501457E-3,0E0,4.8009824E-4,1.07E2,-2.6690476E-3,-0E0,1.912341E-3,-4.753908E-3,3.0754933E-2,1.12722255E-2,-3.8387112E-3,-8.187182E-3,-6.3234284E-3,2.6244416E-3,-2.6587595E-3,-1.0111672E-2,-3.3695635E-3,8.779846E-3,3.1060884E-2,1.7568294E-2,3.5122442E-3,1.7688137E-2,-4.806001E-3,1.1710462E-4,-4.5648217E-3,-6.7177135E-3,-2.4766407E-3,1.2076439E-2,-7.388589E-3,-3.2707583E-3,-2.9125481E-3,-6.5244427E-3,1.5287248E-2,5.633154E-4,-8.071809E-4,1.8000705E-2,2.4015948E-2,5.8392957E-3,-9.079475E-3,1.1300258E-3,-1.0232196E-2,-5.5893823E-3,-4.500568E-4,-9.283036E-3,3.0369184E-3,-4.1942685E-3,-4.331425E-3,-7.896902E-3,-5.838373E-3,-1.0456347E-2,-6.6943783E-3,-7.607306E-4,-8.245629E-3,-1.0115658E-2,1.1063465E-2,3.789083E-2,1.3300712E-2,2.0882323E-2,1.82872E-2,2.6788492E-2,1.5968647E-2,-1.3230881E-3,1.3503261E-2,7.5726626E-3,-2.125928E-2,-1.2640534E-3,1.8490778E-2,9.576829E-3,1.16129825E-2,1.1435988E-3,6.762491E-3,2.114524E-2,2.0411126E-2,2.9437816E-2,-6.4077107E-3,3.4811677E-4,-2.366797E-3,9.88461E-3,-2.8528718E-3,-9.306716E-3,1.632031E-4,-7.742347E-3],"split_indices":[37,9,26,32,2,3,7,14,5,5,6,2,2,2,4,26,2,43,10,6,2,2,4,2,20,20,20,6,3,2,2,39,36,4,4,3,43,6,43,31,43,6,7,4,5,35,3,20,20,2,43,2,2,2,43,4,2,6,6,43,0,0,0,12,3,4,2,43,6,0,6,43,43,4,10,43,0,3,4,43,2,43,2,43,0,43,0,6,6,6,0,0,0,0,4,0,0,6,0,6,0,43,0,0,2,6,6,43,5,2,4,3,6,0,0,0,4,0,43,0,0,0,0,0,0,0,0,0,0,0,0,0,0,0,0,0,0,0,0,0,0,0,0,0,0,0,0,0,0,0,0,0,0,0,0,0,0,0,0,0,0,0,0,0,0,0,0,0,0,0,0,0,0,0,0,0,0,0,0,0,0,0,0,0,0,0,0,0,0,0,0,0,0,0,0,0,0],"split_type":[0,0,0,0,0,0,0,0,0,0,0,0,0,0,0,0,0,0,0,0,0,0,0,0,0,0,0,0,0,0,0,0,0,0,0,0,0,0,0,0,0,0,0,0,0,0,0,0,0,0,0,0,0,0,0,0,0,0,0,0,0,0,0,0,0,0,0,0,0,0,0,0,0,0,0,0,0,0,0,0,0,0,0,0,0,0,0,0,0,0,0,0,0,0,0,0,0,0,0,0,0,0,0,0,0,0,0,0,0,0,0,0,0,0,0,0,0,0,0,0,0,0,0,0,0,0,0,0,0,0,0,0,0,0,0,0,0,0,0,0,0,0,0,0,0,0,0,0,0,0,0,0,0,0,0,0,0,0,0,0,0,0,0,0,0,0,0,0,0,0,0,0,0,0,0,0,0,0,0,0,0,0,0,0,0,0,0,0,0,0,0,0,0,0,0,0,0],"sum_hessian":[9.86E3,8.803E3,1.057E3,7.09E3,1.713E3,8.74E2,1.83E2,4.89E3,2.2E3,4.1E2,1.303E3,5.59E2,3.15E2,8.3E1,1E2,4.822E3,6.8E1,1.245E3,9.55E2,1.47E2,2.63E2,5.09E2,7.94E2,2.62E2,2.97E2,1.69E2,1.46E2,4.8E1,3.5E1,1.6E1,8.4E1,4.179E3,6.43E2,1.7E1,5.1E1,3E2,9.45E2,4.78E2,4.77E2,3.2E1,1.15E2,1.22E2,1.41E2,2.28E2,2.81E2,1.4E1,7.8E2,1.49E2,1.13E2,1.28E2,1.69E2,7.5E1,9.4E1,5.6E1,9E1,3.9E1,9E0,1.5E1,2E1,7E0,9E0,8E1,4E0,4.153E3,2.6E1,5.45E2,9.8E1,9E0,8E0,2.6E1,2.5E1,7.4E1,2.26E2,7.45E2,2E2,3.44E2,1.34E2,4.65E2,1.2E1,2.5E1,7E0,5.7E1,5.8E1,6.4E1,5.8E1,1.1E2,3.1E1,3.5E1,1.93E2,2.14E2,6.7E1,9E0,5E0,2.82E2,4.98E2,1.07E2,4.2E1,4.2E1,7.1E1,6.9E1,5.9E1,1.65E2,4E0,3.2E1,4.3E1,5.8E1,3.6E1,2.6E1,3E1,1.6E1,7.4E1,2.8E1,1.1E1,6E0,3E0,5E0,1E1,5E0,1.5E1,3E0,4E0,3.824E3,3.29E2,2E1,6E0,1.3E2,4.15E2,2.3E1,7.5E1,4E0,5E0,4E0,4E0,1.7E1,8E0,6.8E1,6E0,1.31E2,9.5E1,4.71E2,2.74E2,1.69E2,3.1E1,2.62E2,8.2E1,1.24E2,3.41E2,5E0,7E0,2.2E1,3E0,3E0,4E0,1.5E1,4.2E1,3.3E1,2.5E1,3E1,3.4E1,8E0,1.02E2,1.8E1,1.7E1,8E0,1.85E2,1.87E2,2.7E1,7.9E1,4.19E2,6E0,3.6E1,1.8E1,5.1E1,1.4E2,2.5E1,3.9E1,4E0,4.7E1,1.1E1,1.3E1,2.3E1,1.9E1,7E0,2.3E1,7E0,6E0,1E1,2.9E1,4.5E1,7E0,2.1E1,6E0,5E0,3E0,7E0,7E0,8E0],"tree_param":{"num_deleted":"0","num_feature":"44","num_nodes":"197","size_leaf_vector":"1"}},{"base_weights":[-5.2307863E-3,-7.8333706E-2,6.2398845E-1,-2.9968884E-2,-2.818625E-1,7.9051E-1,-1.8510425E-1,-4.4110447E-2,5.4301494E-1,-1.9854417E-1,-3.083439E-1,8.471119E-1,-2.4115372E-1,-8.964382E-2,-2.5575775E-1,9.577441E-3,-1.6043113E-1,2.3338762E-1,3.3911377E-2,-2.794768E-1,-1.1616933E-1,-3.2298017E-1,-2.4901633E-1,1.0454197E0,6.81135E-1,-6.6659683E-1,-2.4289174E-2,-5.023565E-2,-2.0203532E-1,-2.6073918E-1,-2.6688732E-3,4.3152463E-2,-1.9169088E-1,-1.255167E-1,-2.0658539E-1,7.5029993E-1,5.5203386E-2,-1.3312876E-1,-2.9302722E-1,3.1009307E-2,-1.8146978E-1,-2.60816E-1,-1.0153229E-2,-4.0254746E-2,-3.251903E-1,1.2380186E0,6.188012E-1,6.386636E-1,8.564489E-1,-3.0292934E-1,-1.0246556E0,2.0387182E-1,-1.3144012E-1,-1.7403814E-1,-1.8021171E-3,-2.2255784E-1,-1.3330929E-3,-1.9134827E-1,-8.680531E-3,3.8418695E-2,9.997901E-1,-2.3327948E-1,4.6099983E-2,-3.1046147E-2,-1.5509307E-1,-2.3910993E-1,-1.534148E-1,4.272865E-2,4.6656322E-1,8.142558E-2,-8.739902E-3,-2.3209655E-1,3.183501E-2,-2.2877114E-1,-3.1581834E-1,1.7393562E-1,-9.7276725E-2,-2.6913926E-1,-6.6115126E-2,-2.9600623E-1,-1.6624029E-1,-1.6606133E-1,3.9633423E-1,-3.5506448E-1,-2.5114658E-1,1.1402223E0,1.3621904E0,7.873819E-1,5.0345486E-1,-1.2913307E-3,6.4670247E-1,3.416705E-2,6.452519E-1,-1.4482108E-2,-1.2760756E-3,-4.059967E-2,-1.2444744E-2,3.1723145E-2,1.287492E-2,-1.1748842E-2,9.422804E-3,-6.499819E-3,-0E0,3.057357E-2,-8.413415E-3,-2.820143E-3,-7.900627E-3,-7.5393226E-3,-4.2963075E-3,1.6781545E-3,-5.1336144E-3,3.3072952E-2,8.658459E-3,-5.714674E-3,-9.720767E-3,-6.3883886E-3,3.3929525E-3,4.5836633E-3,-2.7225728E-3,-5.70827E-3,-4.8365246E-4,-7.324368E-3,5.896993E-3,-6.905041E-3,-2.500105E-3,1.8923016E-2,3.0906362E-4,-2.2635708E-4,5.7040597E-3,-2.0211004E-3,-8.601351E-3,-0E0,2.6557904E-3,-7.802828E-3,6.0837534E-3,-6.4606573E-3,-1.0281955E-2,2.316349E-3,2.3475591E-2,3.5259168E-4,-8.459944E-3,-1.4520393E-3,-9.161332E-3,-4.3879976E-3,4.2386036E-3,-9.490341E-3,-4.508267E-3,8.794168E-3,-6.454501E-3,3.5444952E-3,-9.537106E-3,2.0909745E-2,-6.1277957E-3,-1.1774019E-2,-8.580114E-3,-5.161145E-3,-1.2101184E-2,3.6904473E-2,2.6258575E-2,3.3894368E-2,4.4927645E-2,1.1569809E-2,2.7562365E-2,1.5735704E-2,7.7052102E-3,1.8861992E-2,2.4954483E-2,2.5609115E-2,1.4603083E-2,3.3995633E-3,-9.840982E-4,7.4085896E-3,-6.503557E-3,-1.580645E-3,3.3952943E-3],"categories":[],"categories_nodes":[],"categories_segments":[],"categories_sizes":[],"default_left":[0,0,0,0,0,0,0,0,0,0,0,0,0,0,0,0,0,0,0,0,0,0,0,0,0,0,0,0,0,0,0,0,0,0,0,0,0,0,0,0,0,0,0,0,0,0,0,0,0,0,0,0,0,0,0,0,0,0,0,0,0,0,0,0,0,0,0,0,0,0,0,0,0,0,0,0,0,0,0,0,0,0,0,0,0,0,0,0,0,0,0,0,0,0,0,0,0,0,0,0,0,0,0,0,0,0,0,0,0,0,0,0,0,0,0,0,0,0,0,0,0,0,0,0,0,0,0,0,0,0,0,0,0,0,0,0,0,0,0,0,0,0,0,0,0,0,0,0,0,0,0,0,0,0,0,0,0,0,0,0,0,0,0,0,0,0,0,0,0,0,0,0,0,0,0],"id":7,"left_children":[1,3,5,7,9,11,13,15,17,19,21,23,25,27,29,31,33,35,-1,37,39,41,43,45,47,49,51,53,55,57,-1,59,61,63,65,67,69,71,73,75,77,79,-1,81,83,85,87,89,91,93,95,97,99,101,103,105,-1,107,-1,109,111,113,115,117,119,121,123,-1,125,127,-1,129,131,133,135,137,139,141,143,145,147,149,151,153,155,157,159,161,163,-1,165,-1,167,-1,-1,-1,-1,169,-1,-1,171,-1,-1,173,-1,-1,-1,-1,-1,-1,-1,-1,-1,-1,-1,-1,-1,-1,-1,-1,-1,-1,-1,-1,-1,-1,-1,-1,-1,-1,-1,-1,-1,-1,-1,-1,-1,-1,-1,-1,-1,-1,-1,-1,-1,-1,-1,-1,-1,-1,-1,-1,-1,-1,-1,-1,-1,-1,-1,-1,-1,-1,-1,-1,-1,-1,-1,-1,-1,-1,-1,-1,-1,-1,-1],"loss_changes":[4.5385428E2,8.698793E1,1.3857596E2,5.786918E1,3.6323395E0,5.0016724E1,1.1295843E0,4.3569332E1,3.0880432E1,2.6813602E0,9.7817993E-1,2.5710205E1,4.0665793E0,3.0566758E-1,2.4921894E-2,3.224063E1,3.4908829E0,1.0378073E1,0E0,3.2887077E-1,2.0101154E0,8.3789825E-1,4.084936E0,2.9121063E1,2.602005E0,1.5100579E0,7.774313E-1,3.3587766E-1,2.4863124E-2,8.7162495E-2,0E0,1.8383865E1,6.7740383E0,3.4915447E0,1.5600319E0,4.692215E0,7.8420186E-1,3.5393697E-1,1.4861107E-1,1.1980547E0,1.4049644E0,6.034765E-1,0E0,3.942518E0,2.7048492E-1,1.2445679E0,1.7301445E0,2.0665283E0,4.037918E0,3.4832567E-1,6.6481113E-1,3.281344E-1,8.4822917E-1,1.256155E-1,4.304999E-1,2.3419559E-2,0E0,1.6924858E-2,0E0,1.4946701E1,1.0026398E0,2.1428814E0,1.7843801E0,3.322445E0,4.6554203E0,1.3340034E0,1.9019413E0,0E0,1.5776329E0,8.0312526E-1,0E0,6.2231302E-2,2.3239914E-2,7.884424E-1,2.3539639E-1,1.6784124E0,7.1510357E-1,5.9777737E-1,1.085072E0,3.533535E-1,1.4033569E0,2.47423E0,3.0808084E0,1.608715E-1,5.8356357E-1,2.214981E0,1.3489532E0,1.8899574E0,1.6124153E-1,0E0,5.184784E-1,0E0,1.1017075E0,0E0,0E0,0E0,0E0,4.8624296E-2,0E0,0E0,8.625211E-1,0E0,0E0,2.8711838E-1,0E0,0E0,0E0,0E0,0E0,0E0,0E0,0E0,0E0,0E0,0E0,0E0,0E0,0E0,0E0,0E0,0E0,0E0,0E0,0E0,0E0,0E0,0E0,0E0,0E0,0E0,0E0,0E0,0E0,0E0,0E0,0E0,0E0,0E0,0E0,0E0,0E0,0E0,0E0,0E0,0E0,0E0,0E0,0E0,0E0,0E0,0E0,0E0,0E0,0E0,0E0,0E0,0E0,0E0,0E0,0E0,0E0,0E0,0E0,0E0,0E0,0E0,0E0,0E0,0E0,0E0,0E0,0E0,0E0,0E0,0E0],"parents":[2147483647,0,0,1,1,2,2,3,3,4,4,5,5,6,6,7,7,8,8,9,9,10,10,11,11,12,12,13,13,14,14,15,15,16,16,17,17,19,19,20,20,21,21,22,22,23,23,24,24,25,25,26,26,27,27,28,28,29,29,31,31,32,32,33,33,34,34,35,35,36,36,37,37,38,38,39,39,40,40,41,41,43,43,44,44,45,45,46,46,47,47,48,48,49,49,50,50,51,51,52,52,53,53,54,54,55,55,57,57,59,59,60,60,61,61,62,62,63,63,64,64,65,65,66,66,68,68,69,69,71,71,72,72,73,73,74,74,75,75,76,76,77,77,78,78,79,79,80,80,81,81,82,82,83,83,84,84,85,85,86,86,87,87,88,88,90,90,92,92,97,97,100,100,103,103],"right_children":[2,4,6,8,10,12,14,16,18,20,22,24,26,28,30,32,34,36,-1,38,40,42,44,46,48,50,52,54,56,58,-1,60,62,64,66,68,70,72,74,76,78,80,-1,82,84,86,88,90,92,94,96,98,100,102,104,106,-1,108,-1,110,112,114,116,118,120,122,124,-1,126,128,-1,130,132,134,136,138,140,142,144,146,148,150,152,154,156,158,160,162,164,-1,166,-1,168,-1,-1,-1,-1,170,-1,-1,172,-1,-1,174,-1,-1,-1,-1,-1,-1,-1,-1,-1,-1,-1,-1,-1,-1,-1,-1,-1,-1,-1,-1,-1,-1,-1,-1,-1,-1,-1,-1,-1,-1,-1,-1,-1,-1,-1,-1,-1,-1,-1,-1,-1,-1,-1,-1,-1,-1,-1,-1,-1,-1,-1,-1,-1,-1,-1,-1,-1,-1,-1,-1,-1,-1,-1,-1,-1,-1,-1,-1,-1,-1,-1],"split_conditions":[1E0,1E0,1E0,2.4E1,-5E-1,2.4E2,-7.0710677E-1,1E0,1E0,1E0,3E0,-2.4492937E-16,-5E-1,5E-1,1E0,1E0,6.234898E-1,-5E-1,3.3911377E-2,3.6E1,-2.5881904E-1,-5E-1,1E0,6.123234E-17,1E0,2.3E1,-5E-1,-5E-1,8.660254E-1,-2.2252093E-1,-2.6688732E-3,1E0,1E0,2.6E1,5E-1,5E-1,8.660254E-1,6.123234E-17,-2.2252093E-1,-8.660254E-1,6.123234E-17,1E0,-1.0153229E-2,8.660254E-1,-5E-1,-8.660254E-1,2.4E1,1.2246469E-16,1E0,1.9E1,5.8E1,2.5881904E-1,1.2246469E-16,1E0,1.08E2,1.07E2,-1.3330929E-3,-1.8369701E-16,-8.680531E-3,1E0,1E0,8.660254E-1,-8.660254E-1,-5E-1,7.3E1,1.08E2,1E0,4.272865E-2,6.234898E-1,1.2246469E-16,-8.739902E-3,-5E-1,6.234898E-1,8.3E1,1E0,1E0,6.4E1,-9.659258E-1,9.3E1,8.660254E-1,1.7E1,4.8E1,1E0,8.660254E-1,6.234898E-1,1E0,1E0,7.5E-1,8.660254E-1,-1.2913307E-3,8.2E1,3.416705E-2,-5E-1,-1.4482108E-2,-1.2760756E-3,-4.059967E-2,-1.2444744E-2,-2.5881904E-1,1.287492E-2,-1.1748842E-2,2.3E1,-6.499819E-3,-0E0,5E-1,-8.413415E-3,-2.820143E-3,-7.900627E-3,-7.5393226E-3,-4.2963075E-3,1.6781545E-3,-5.1336144E-3,3.3072952E-2,8.658459E-3,-5.714674E-3,-9.720767E-3,-6.3883886E-3,3.3929525E-3,4.5836633E-3,-2.7225728E-3,-5.70827E-3,-4.8365246E-4,-7.324368E-3,5.896993E-3,-6.905041E-3,-2.500105E-3,1.8923016E-2,3.0906362E-4,-2.2635708E-4,5.7040597E-3,-2.0211004E-3,-8.601351E-3,-0E0,2.6557904E-3,-7.802828E-3,6.0837534E-3,-6.4606573E-3,-1.0281955E-2,2.316349E-3,2.3475591E-2,3.5259168E-4,-8.459944E-3,-1.4520393E-3,-9.161332E-3,-4.3879976E-3,4.2386036E-3,-9.490341E-3,-4.508267E-3,8.794168E-3,-6.454501E-3,3.5444952E-3,-9.537106E-3,2.0909745E-2,-6.1277957E-3,-1.1774019E-2,-8.580114E-3,-5.161145E-3,-1.2101184E-2,3.6904473E-2,2.6258575E-2,3.3894368E-2,4.4927645E-2,1.1569809E-2,2.7562365E-2,1.5735704E-2,7.7052102E-3,1.8861992E-2,2.4954483E-2,2.5609115E-2,1.4603083E-2,3.3995633E-3,-9.840982E-4,7.4085896E-3,-6.503557E-3,-1.580645E-3,3.3952943E-3],"split_indices":[37,9,26,0,2,0,7,32,14,0,0,2,6,6,2,26,5,3,0,43,6,6,35,3,2,43,2,3,3,5,0,39,36,43,2,2,6,3,5,2,3,0,0,2,7,2,0,2,20,43,43,6,6,5,43,43,0,3,0,12,5,6,2,3,43,43,10,0,5,2,0,6,5,43,30,31,43,7,43,2,43,43,5,3,5,20,20,0,6,0,43,0,6,0,0,0,0,6,0,0,43,0,0,3,0,0,0,0,0,0,0,0,0,0,0,0,0,0,0,0,0,0,0,0,0,0,0,0,0,0,0,0,0,0,0,0,0,0,0,0,0,0,0,0,0,0,0,0,0,0,0,0,0,0,0,0,0,0,0,0,0,0,0,0,0,0,0,0,0,0,0,0,0,0,0],"split_type":[0,0,0,0,0,0,0,0,0,0,0,0,0,0,0,0,0,0,0,0,0,0,0,0,0,0,0,0,0,0,0,0,0,0,0,0,0,0,0,0,0,0,0,0,0,0,0,0,0,0,0,0,0,0,0,0,0,0,0,0,0,0,0,0,0,0,0,0,0,0,0,0,0,0,0,0,0,0,0,0,0,0,0,0,0,0,0,0,0,0,0,0,0,0,0,0,0,0,0,0,0,0,0,0,0,0,0,0,0,0,0,0,0,0,0,0,0,0,0,0,0,0,0,0,0,0,0,0,0,0,0,0,0,0,0,0,0,0,0,0,0,0,0,0,0,0,0,0,0,0,0,0,0,0,0,0,0,0,0,0,0,0,0,0,0,0,0,0,0,0,0,0,0,0,0],"sum_hessian":[9.866E3,8.84E3,1.026E3,7.144E3,1.696E3,8.51E2,1.75E2,6.973E3,1.71E2,4.12E2,1.284E3,8.07E2,4.4E1,7.6E1,9.9E1,4.771E3,2.202E3,1.13E2,5.8E1,2.06E2,2.06E2,1.025E3,2.59E2,3.65E2,4.42E2,1.4E1,3E1,5.8E1,1.8E1,9.5E1,4E0,4.09E3,6.81E2,1.257E3,9.45E2,2.8E1,8.5E1,1.9E1,1.87E2,6.3E1,1.43E2,2.09E2,8.16E2,7E1,1.89E2,2.5E2,1.15E2,3.6E2,8.2E1,8E0,6E0,9E0,2.1E1,1.5E1,4.3E1,1.5E1,3E0,3.1E1,6.4E1,4.071E3,1.9E1,5.8E2,1.01E2,3.01E2,9.56E2,5.83E2,3.62E2,7E0,2.1E1,8E1,5E0,1.2E1,7E0,5.3E1,1.34E2,3E1,3.3E1,8E1,6.3E1,1.5E2,5.9E1,5.5E1,1.5E1,1.31E2,5.8E1,1.46E2,1.04E2,4.4E1,7.1E1,4E0,3.56E2,3.3E1,4.9E1,4E0,4E0,3E0,3E0,6E0,3E0,7E0,1.4E1,1.2E1,3E0,3.9E1,4E0,5E0,1E1,1.1E1,2E1,3.758E3,3.13E2,1.6E1,3E0,3.97E2,1.83E2,2E1,8.1E1,7.3E1,2.28E2,7.62E2,1.94E2,5.77E2,6E0,1.71E2,1.91E2,1.5E1,6E0,4.4E1,3.6E1,4E0,8E0,4E0,3E0,5E1,3E0,3.1E1,1.03E2,2.7E1,3E0,2.1E1,1.2E1,1.2E1,6.8E1,4.6E1,1.7E1,1.3E2,2E1,5E0,5.4E1,1.9E1,3.6E1,1E1,5E0,8.1E1,5E1,4E1,1.8E1,1.06E2,4E1,4.2E1,6.2E1,1.2E1,3.2E1,6.4E1,7E0,3.29E2,2.7E1,1.9E1,3E1,3E0,3E0,7E0,7E0,1.9E1,2E1],"tree_param":{"num_deleted":"0","num_feature":"44","num_nodes":"175","size_leaf_vector":"1"}},{"base_weights":[-3.5048136E-3,-7.641289E-2,6.185701E-1,-3.0297574E-2,-2.6960117E-1,7.816319E-1,-1.8216494E-1,-4.336475E-2,4.9863344E-1,-1.7001651E-1,-3.0032903E-1,8.415925E-1,-2.1175706E-1,-7.93251E-2,-2.0624994E-1,-8.478067E-2,1.2492132E-1,4.2768056E-3,7.04436E-1,-2.5721264E-1,-7.8874156E-2,-3.107574E-1,-2.56755E-1,1.0336742E0,6.7279655E-1,1.6751187E-1,-3.5224378E-1,4.13447E-3,-4.3169362E-3,-2.1898977E-1,-5.5293884E-2,-1.4185646E-1,5.286349E-2,-8.004104E-2,1.7753424E-1,1.8764159E-1,-7.9653144E-2,1.0597414E0,3.4188664E-1,-3.2019022E-1,-1.8954411E-1,-1.0464762E-2,-5.4690853E-2,-8.117331E-3,-3.171081E-1,-5.421142E-2,-3.291178E-1,1.2123153E0,6.3568246E-1,-1.26034E-3,6.797119E-1,2.516196E-1,-0E0,-1.1383145E-1,-6.5179545E-1,-2.872677E-3,1.6053008E-1,-2.4062504E-1,-1.5764584E-1,-6.5324684E-3,6.8455203E-3,-1.4685637E-1,9.021669E-1,-2.9692281E-2,1.505513E-1,-3.5430524E-2,-1.3224716E-1,2.3024026E-1,5.57763E-3,1.3630779E-2,6.293157E-2,8.93046E-3,-8.726468E-3,1.0928059E0,8.711106E-3,5.390386E-1,-1.15031535E-2,-1.02298455E-2,-2.0281154E-1,1.0063444E-1,-2.127929E-1,1.8051042E-1,-8.0009975E-2,-2.9729798E-1,-3.2689315E-1,3.2807472E-1,-2.2678454E-1,-1.1651934E-2,-2.8479362E-1,1.1097573E0,1.3300838E0,8.458806E-1,5.01543E-1,6.3950175E-1,7.823367E-1,9.226994E-3,2.3938315E-3,-2.6061115E-1,1.631094E-1,-4.0256488E-1,-9.004398E-1,-0E0,7.809719E-3,-2.7702653E-1,-1.9864392E-1,-7.904038E-2,-2.5453833E-1,-2.1056572E-3,-4.927588E-3,3.0494127E-2,5.8322763E-3,-1.5723637E-4,-7.2509367E-3,7.7373483E-3,1.6561704E-4,-3.658601E-3,1.5750333E-3,-6.7750766E-4,-4.9272096E-3,-2.1221838E-3,7.316353E-3,2.549203E-3,-1.902858E-3,4.8090713E-3,-1.6388975E-4,4.843622E-3,-2.70713E-3,2.6198441E-2,3.657415E-2,3.907006E-2,1.3177462E-2,-5.0218366E-3,5.936854E-3,-8.781692E-4,-8.798101E-3,-3.8250473E-3,8.490492E-3,-1.0847604E-3,-7.2386847E-3,-0E0,1.0666994E-2,7.900602E-5,-4.5592533E-3,-9.440931E-3,-7.0790355E-3,-8.517899E-3,-1.0116748E-2,-6.954358E-3,2.0151323E-2,-1.0220559E-2,5.6571383E-3,-5.276146E-3,-9.323227E-3,3.592967E-2,2.5331557E-2,3.3109404E-2,4.385071E-2,2.7443942E-2,1.5095692E-2,1.2012909E-2,1.691118E-2,1.6672987E-2,2.1203008E-2,2.6779711E-2,1.6608879E-2,2.234276E-3,-1.0767676E-2,1.0680549E-3,6.374808E-3,-2.0836225E-2,-2.2647232E-3,-1.2865799E-3,-4.523651E-2,-8.969852E-3,-5.12563E-3,-1.6568081E-3,-6.832799E-3,-1.0414287E-3,-7.677322E-3,-8.717667E-3,-1.4621788E-3],"categories":[],"categories_nodes":[],"categories_segments":[],"categories_sizes":[],"default_left":[0,0,0,0,0,0,0,0,0,0,0,0,0,0,0,0,0,0,0,0,0,0,0,0,0,0,0,0,0,0,0,0,0,0,0,0,0,0,0,0,0,0,0,0,0,0,0,0,0,0,0,0,0,0,0,0,0,0,0,0,0,0,0,0,0,0,0,0,0,0,0,0,0,0,0,0,0,0,0,0,0,0,0,0,0,0,0,0,0,0,0,0,0,0,0,0,0,0,0,0,0,0,0,0,0,0,0,0,0,0,0,0,0,0,0,0,0,0,0,0,0,0,0,0,0,0,0,0,0,0,0,0,0,0,0,0,0,0,0,0,0,0,0,0,0,0,0,0,0,0,0,0,0,0,0,0,0,0,0,0,0,0,0,0,0,0,0,0,0,0,0,0,0,0,0,0,0,0,0,0,0],"id":8,"left_children":[1,3,5,7,9,11,13,15,17,19,21,23,25,27,29,31,33,35,37,39,41,43,45,47,49,51,53,55,-1,57,59,61,63,65,67,69,71,73,75,77,79,-1,81,-1,83,85,87,89,91,-1,93,95,-1,97,99,-1,101,103,105,-1,-1,107,109,111,113,115,117,119,121,-1,123,125,-1,127,-1,129,131,-1,133,135,137,139,141,143,145,147,149,-1,151,153,155,157,159,161,163,-1,-1,165,167,169,171,-1,-1,173,175,177,179,-1,-1,-1,-1,-1,-1,-1,-1,-1,-1,-1,-1,-1,-1,-1,-1,-1,-1,-1,-1,-1,-1,-1,-1,-1,-1,-1,-1,-1,-1,-1,-1,-1,-1,-1,-1,-1,-1,-1,-1,-1,-1,-1,-1,-1,-1,-1,-1,-1,-1,-1,-1,-1,-1,-1,-1,-1,-1,-1,-1,-1,-1,-1,-1,-1,-1,-1,-1,-1,-1,-1,-1,-1,-1],"loss_changes":[4.5049713E2,7.9180115E1,1.3625558E2,4.9601635E1,5.1437225E0,5.182379E1,3.9349222E-1,4.885039E1,1.7527107E1,3.1806383E0,4.5737457E-1,2.5623169E1,2.7415903E0,2.0858304E-1,2.3355103E-1,4.4207237E1,1.4948555E1,8.260145E-1,1.5213051E1,7.7048683E-1,1.2527617E0,1.2284088E-1,3.7545452E0,2.6061676E1,2.2574158E0,1.769686E-1,2.4916644E0,2.7180776E-1,0E0,9.4774246E-2,6.473248E-1,2.0816933E1,1.3315236E1,6.3763714E-1,9.962723E0,4.8513776E-1,7.0440465E-1,1.0961304E0,4.3785863E0,1.3287449E-1,7.274995E-1,0E0,1.1120393E0,0E0,1.4274597E-2,4.6823354E0,3.2392883E-1,1.4323425E0,2.8245125E0,0E0,1.1484222E0,2.3239613E-2,0E0,9.4654286E-1,4.9873018E-1,0E0,9.0684965E-2,3.952408E-2,2.3594183E-1,0E0,0E0,5.245369E0,1.2183924E0,4.6083236E0,1.17435665E1,1.1926028E0,4.3020296E-1,3.4949265E0,1.4320338E0,0E0,1.0293492E-1,4.1495335E-1,0E0,3.3462524E-1,0E0,2.3005629E0,7.808746E-1,0E0,2.5742495E-1,3.844996E-1,4.4674397E-1,5.5133563E-1,1.0204537E0,2.0255089E-1,1.0269928E-1,4.43244E0,2.3976128E0,0E0,2.1928406E-1,2.1900787E0,1.5871277E0,4.6066666E-1,1.5555763E-1,1.2720795E0,2.3132095E0,0E0,0E0,5.493188E-1,1.8000156E-2,8.2554305E-1,3.4266667E0,0E0,0E0,9.222984E-3,1.595583E-1,1.423731E-1,7.061088E-2,0E0,0E0,0E0,0E0,0E0,0E0,0E0,0E0,0E0,0E0,0E0,0E0,0E0,0E0,0E0,0E0,0E0,0E0,0E0,0E0,0E0,0E0,0E0,0E0,0E0,0E0,0E0,0E0,0E0,0E0,0E0,0E0,0E0,0E0,0E0,0E0,0E0,0E0,0E0,0E0,0E0,0E0,0E0,0E0,0E0,0E0,0E0,0E0,0E0,0E0,0E0,0E0,0E0,0E0,0E0,0E0,0E0,0E0,0E0,0E0,0E0,0E0,0E0,0E0,0E0,0E0,0E0,0E0,0E0,0E0,0E0,0E0,0E0,0E0],"parents":[2147483647,0,0,1,1,2,2,3,3,4,4,5,5,6,6,7,7,8,8,9,9,10,10,11,11,12,12,13,13,14,14,15,15,16,16,17,17,18,18,19,19,20,20,21,21,22,22,23,23,24,24,25,25,26,26,27,27,29,29,30,30,31,31,32,32,33,33,34,34,35,35,36,36,37,37,38,38,39,39,40,40,42,42,44,44,45,45,46,46,47,47,48,48,50,50,51,51,53,53,54,54,56,56,57,57,58,58,61,61,62,62,63,63,64,64,65,65,66,66,67,67,68,68,70,70,71,71,73,73,75,75,76,76,78,78,79,79,80,80,81,81,82,82,83,83,84,84,85,85,86,86,88,88,89,89,90,90,91,91,92,92,93,93,94,94,97,97,98,98,99,99,100,100,103,103,104,104,105,105,106,106],"right_children":[2,4,6,8,10,12,14,16,18,20,22,24,26,28,30,32,34,36,38,40,42,44,46,48,50,52,54,56,-1,58,60,62,64,66,68,70,72,74,76,78,80,-1,82,-1,84,86,88,90,92,-1,94,96,-1,98,100,-1,102,104,106,-1,-1,108,110,112,114,116,118,120,122,-1,124,126,-1,128,-1,130,132,-1,134,136,138,140,142,144,146,148,150,-1,152,154,156,158,160,162,164,-1,-1,166,168,170,172,-1,-1,174,176,178,180,-1,-1,-1,-1,-1,-1,-1,-1,-1,-1,-1,-1,-1,-1,-1,-1,-1,-1,-1,-1,-1,-1,-1,-1,-1,-1,-1,-1,-1,-1,-1,-1,-1,-1,-1,-1,-1,-1,-1,-1,-1,-1,-1,-1,-1,-1,-1,-1,-1,-1,-1,-1,-1,-1,-1,-1,-1,-1,-1,-1,-1,-1,-1,-1,-1,-1,-1,-1,-1,-1,-1,-1,-1,-1],"split_conditions":[1E0,1E0,1E0,2.4E1,-5E-1,2.4E2,0E0,1E0,1.2246469E-16,1E0,3E0,-2.4492937E-16,-5E-1,-5E-1,1E0,1E0,3E0,2.3E1,1E0,-8.660254E-1,3.6E1,0E0,1E0,6.123234E-17,1.2246469E-16,6.234898E-1,2.3E1,6.123234E-17,-4.3169362E-3,8.660254E-1,9.749279E-1,1E0,1.2246469E-16,-1.8369701E-16,1.05E2,1E0,1E0,9.2E1,8.660254E-1,9.749279E-1,0E0,-1.0464762E-2,4E1,-8.117331E-3,4.8E1,4.8E1,-1.8369701E-16,-8.660254E-1,2.4E1,-1.26034E-3,5.8E1,2.8E1,-0E0,2E1,1E0,-2.872677E-3,1.07E2,7.818315E-1,7.818315E-1,-6.5324684E-3,6.8455203E-3,2.5E1,9.749279E-1,-2.4492937E-16,1E0,6.234898E-1,0E0,1E0,5E-1,1.3630779E-2,4.3388373E-1,1E0,-8.726468E-3,8.660254E-1,8.711106E-3,5E-1,1E0,-1.02298455E-2,6.3E1,1E0,3.6E1,3E0,3E0,1E0,-2.2252093E-1,6.234898E-1,8.660254E-1,-1.1651934E-2,0E0,1E0,1E0,-5E-1,3.2E1,-1.8369701E-16,5E-1,9.226994E-3,2.3938315E-3,0E0,2.2E1,3.1E1,3.2E1,-0E0,7.809719E-3,6.123234E-17,-8.660254E-1,1.08E2,1.2246469E-16,-2.1056572E-3,-4.927588E-3,3.0494127E-2,5.8322763E-3,-1.5723637E-4,-7.2509367E-3,7.7373483E-3,1.6561704E-4,-3.658601E-3,1.5750333E-3,-6.7750766E-4,-4.9272096E-3,-2.1221838E-3,7.316353E-3,2.549203E-3,-1.902858E-3,4.8090713E-3,-1.6388975E-4,4.843622E-3,-2.70713E-3,2.6198441E-2,3.657415E-2,3.907006E-2,1.3177462E-2,-5.0218366E-3,5.936854E-3,-8.781692E-4,-8.798101E-3,-3.8250473E-3,8.490492E-3,-1.0847604E-3,-7.2386847E-3,-0E0,1.0666994E-2,7.900602E-5,-4.5592533E-3,-9.440931E-3,-7.0790355E-3,-8.517899E-3,-1.0116748E-2,-6.954358E-3,2.0151323E-2,-1.0220559E-2,5.6571383E-3,-5.276146E-3,-9.323227E-3,3.592967E-2,2.5331557E-2,3.3109404E-2,4.385071E-2,2.7443942E-2,1.5095692E-2,1.2012909E-2,1.691118E-2,1.6672987E-2,2.1203008E-2,2.6779711E-2,1.6608879E-2,2.234276E-3,-1.0767676E-2,1.0680549E-3,6.374808E-3,-2.0836225E-2,-2.2647232E-3,-1.2865799E-3,-4.523651E-2,-8.969852E-3,-5.12563E-3,-1.6568081E-3,-6.832799E-3,-1.0414287E-3,-7.677322E-3,-8.717667E-3,-1.4621788E-3],"split_indices":[37,9,26,0,2,0,4,18,2,0,0,2,2,2,2,8,0,43,13,2,43,4,35,3,2,5,43,3,0,3,4,39,2,3,43,12,5,43,2,4,4,0,43,0,43,43,3,2,0,0,43,43,0,43,5,0,43,4,4,0,0,43,4,2,35,5,4,43,3,0,4,12,0,2,0,2,2,0,43,30,43,0,0,0,5,5,2,0,4,20,20,2,43,3,3,0,0,4,43,43,43,0,0,3,2,43,2,0,0,0,0,0,0,0,0,0,0,0,0,0,0,0,0,0,0,0,0,0,0,0,0,0,0,0,0,0,0,0,0,0,0,0,0,0,0,0,0,0,0,0,0,0,0,0,0,0,0,0,0,0,0,0,0,0,0,0,0,0,0,0,0,0,0,0,0,0,0,0,0,0,0],"split_type":[0,0,0,0,0,0,0,0,0,0,0,0,0,0,0,0,0,0,0,0,0,0,0,0,0,0,0,0,0,0,0,0,0,0,0,0,0,0,0,0,0,0,0,0,0,0,0,0,0,0,0,0,0,0,0,0,0,0,0,0,0,0,0,0,0,0,0,0,0,0,0,0,0,0,0,0,0,0,0,0,0,0,0,0,0,0,0,0,0,0,0,0,0,0,0,0,0,0,0,0,0,0,0,0,0,0,0,0,0,0,0,0,0,0,0,0,0,0,0,0,0,0,0,0,0,0,0,0,0,0,0,0,0,0,0,0,0,0,0,0,0,0,0,0,0,0,0,0,0,0,0,0,0,0,0,0,0,0,0,0,0,0,0,0,0,0,0,0,0,0,0,0,0,0,0,0,0,0,0,0,0],"sum_hessian":[9.932E3,8.891E3,1.041E3,7.179E3,1.712E3,8.65E2,1.76E2,7.007E3,1.72E2,4.06E2,1.306E3,8.16E2,4.9E1,3.5E1,1.41E2,5.624E3,1.383E3,5.1E1,1.21E2,2.06E2,2E2,1.047E3,2.59E2,3.79E2,4.37E2,1.3E1,3.6E1,1.5E1,2E1,1.29E2,1.2E1,3.976E3,1.648E3,2.82E2,1.101E3,1.6E1,3.5E1,6E1,6.1E1,1.04E2,1.02E2,1.5E1,1.85E2,1.51E2,8.96E2,6.9E1,1.9E2,2.6E2,1.19E2,4E0,4.33E2,8E0,5E0,2.1E1,1.5E1,9E0,6E0,9.2E1,3.7E1,8E0,4E0,3.958E3,1.8E1,8.93E2,7.55E2,1.54E2,1.28E2,8.42E2,2.59E2,4E0,1.2E1,2.5E1,1E1,5.7E1,3E0,3.9E1,2.2E1,8.6E1,1.8E1,7E0,9.5E1,1.7E1,1.68E2,3.1E2,5.86E2,2.1E1,4.8E1,7.7E1,1.13E2,1.45E2,1.15E2,4.4E1,7.5E1,3.17E2,1.16E2,5E0,3E0,1.4E1,7E0,9E0,6E0,3E0,3E0,4.5E1,4.7E1,2.2E1,1.5E1,7.34E2,3.224E3,1.5E1,3E0,8.02E2,9.1E1,4.33E2,3.22E2,7.8E1,7.6E1,3E1,9.8E1,3.6E1,8.06E2,1.21E2,1.38E2,5E0,7E0,1E1,1.5E1,2.4E1,3.3E1,3E0,3.6E1,1.3E1,9E0,7E0,1.1E1,3E0,4E0,1.4E1,8.1E1,9E0,8E0,7.8E1,9E1,2.37E2,7.3E1,1.21E2,4.65E2,8E0,1.3E1,3.8E1,1E1,2.4E1,8.9E1,1.06E2,3.9E1,4.6E1,6.9E1,3.5E1,9E0,3.2E1,4.3E1,1.46E2,1.71E2,7.6E1,4E1,3E0,1.1E1,3E0,4E0,4E0,5E0,3E0,3E0,3.5E1,1E1,9E0,3.8E1,1.9E1,3E0,1.2E1,3E0],"tree_param":{"num_deleted":"0","num_feature":"44","num_nodes":"181","size_leaf_vector":"1"}},{"base_weights":[-3.0143098E-3,-7.232847E-2,5.856949E-1,-1.0873682E-1,1.2537257E-1,4.0990165E-1,8.500656E-1,-1.5484205E-1,5.8514763E-2,-8.445102E-2,1.7895812E-1,-1.6741286E-1,6.385893E-1,3.4595042E-2,6.705937E-1,-1.6678154E-1,6.9383454E-1,-2.6042722E-2,1.5565886E-1,1.579943E-1,-1.1469743E-1,2.1541299E-1,6.400118E-2,-6.488211E-2,-2.4394737E-1,7.422589E-1,-2.1868443E-1,8.155657E-1,4.4154418E-1,-1.22124635E-1,-2.40633E-1,-1.02254905E-1,9.758368E-1,-1.6157546E-3,-2.3650987E-1,2.6667014E-1,7.309496E-3,2.3986416E-1,-6.193225E-3,-8.125626E-2,-1.8307617E-1,2.6466048E-1,1.5069485E-1,2.3609513E-2,1.7920043E-1,-1.2096074E-2,-1.2989649E-1,-1.3162646E-1,-7.8709535E-3,9.217143E-1,6.2932926E-1,-6.202167E-1,-5.3680643E-2,6.5676177E-1,3.2371677E-2,4.9845487E-1,3.122501E-1,-1.2517071E-1,7.174841E-1,-2.4473213E-1,6.5761286E-1,-5.6265043E-3,-1.0269786E-2,3.1136444E-2,2.1415321E-2,6.2050745E-2,-6.0010117E-2,-4.5556396E-2,-2.4856004E-1,1.9829416E-1,5.696612E-1,9.163422E-2,-7.287606E-2,-9.912767E-3,3.7856448E-1,1.3335584E-2,-1.4388722E-1,-2.6441094E-2,-2.3318051E-1,2.2618537E-1,3.40251E-1,3.646327E-2,2.8707996E-1,1.1827409E-1,-2.494622E-2,-4.6664122E-3,2.2809254E-1,-3.007028E-2,4.6397126E-3,-1.9937244E-1,-6.6294715E-2,-6.537849E-2,-6.0792277E-3,4.148871E-2,6.0478467E-1,5.735824E-1,7.5450546E-1,-2.9359713E-2,-9.03697E-3,1.8136774E-1,-1.6835664E-1,2.4978831E-1,7.122771E-1,3.075571E-1,5.5199647E-1,2.2087325E-1,6.3191843E-1,-3.1223602E-3,-7.1883635E-3,5.0702607E-3,2.5653774E-2,-7.4554724E-3,1.1720931E-2,2.6211016E-2,2.7016846E-3,2.1301315E-3,-6.7122453E-3,4.247255E-3,-2.749433E-3,1.2499294E-3,-3.329863E-3,-3.1905512E-3,4.884051E-5,-5.0073476E-3,-8.433616E-3,7.5547984E-3,1.812283E-3,3.8003076E-2,1.5405294E-2,-4.409189E-3,4.4846176E-3,1.2783157E-3,-4.481053E-3,2.4192003E-3,-3.0116385E-3,4.4511002E-3,1.8194608E-2,6.3012703E-3,-7.966781E-4,-6.221209E-3,-1.6568927E-3,3.450104E-3,-3.9006788E-3,-5.310256E-3,-8.303782E-3,9.71208E-3,6.0151E-3,1.1677064E-2,4.9422076E-3,7.789958E-5,4.039696E-3,-2.2445484E-3,1.079037E-2,4.7249603E-3,-6.952631E-3,3.7719935E-4,-5.9073404E-3,7.850835E-3,1.3658898E-3,1.6833493E-3,-1.9706045E-3,-2.4076384E-3,-7.227177E-3,-1.0895674E-4,-5.0359187E-3,-2.6298356E-3,-0E0,2.4061643E-2,1.3070738E-2,2.0464825E-2,1.620939E-2,1.7464675E-2,2.5397584E-2,-1.0311549E-3,8.046335E-3,-7.970184E-3,-9.7374176E-4,1.3441134E-2,2.3626976E-3,2.798738E-2,1.7822064E-2,1.3952976E-2,3.7504046E-3,5.615315E-3,1.752047E-2,7.5581027E-3,-3.3773587E-4,6.142222E-3,2.6283495E-2],"categories":[],"categories_nodes":[],"categories_segments":[],"categories_sizes":[],"default_left":[0,0,0,0,0,0,0,0,0,0,0,0,0,0,0,0,0,0,0,0,0,0,0,0,0,0,0,0,0,0,0,0,0,0,0,0,0,0,0,0,0,0,0,0,0,0,0,0,0,0,0,0,0,0,0,0,0,0,0,0,0,0,0,0,0,0,0,0,0,0,0,0,0,0,0,0,0,0,0,0,0,0,0,0,0,0,0,0,0,0,0,0,0,0,0,0,0,0,0,0,0,0,0,0,0,0,0,0,0,0,0,0,0,0,0,0,0,0,0,0,0,0,0,0,0,0,0,0,0,0,0,0,0,0,0,0,0,0,0,0,0,0,0,0,0,0,0,0,0,0,0,0,0,0,0,0,0,0,0,0,0,0,0,0,0,0,0,0,0,0,0,0,0,0,0,0,0,0,0,0,0,0,0,0,0,0,0,0,0],"id":9,"left_children":[1,3,5,7,9,11,13,15,17,19,21,23,25,-1,27,29,31,33,35,37,39,41,43,45,47,49,51,53,55,57,59,61,63,65,67,69,71,73,-1,75,77,79,81,83,85,87,89,91,-1,93,95,97,99,101,-1,103,105,107,109,111,113,115,-1,-1,-1,117,119,121,123,125,127,129,131,133,135,137,139,141,143,145,147,149,151,153,155,-1,157,159,-1,161,163,165,-1,-1,167,169,171,-1,-1,173,175,177,179,181,183,185,187,-1,-1,-1,-1,-1,-1,-1,-1,-1,-1,-1,-1,-1,-1,-1,-1,-1,-1,-1,-1,-1,-1,-1,-1,-1,-1,-1,-1,-1,-1,-1,-1,-1,-1,-1,-1,-1,-1,-1,-1,-1,-1,-1,-1,-1,-1,-1,-1,-1,-1,-1,-1,-1,-1,-1,-1,-1,-1,-1,-1,-1,-1,-1,-1,-1,-1,-1,-1,-1,-1,-1,-1,-1,-1,-1,-1,-1,-1,-1,-1,-1,-1],"loss_changes":[4.0172498E2,6.341888E1,4.7719666E1,5.738981E1,1.5428173E1,8.266948E1,2.1510864E1,5.916751E1,1.3225545E1,2.0597267E0,4.534561E0,1.350081E0,4.0029877E1,0E0,8.214096E0,1.8907608E1,1.837156E1,4.3971295E0,1.2305527E1,9.777839E-1,5.2807E-1,2.5575905E0,1.2085569E0,2.5191393E-1,1.35005E-1,7.37117E0,3.1457798E0,5.7708206E0,5.2854156E-1,9.206951E0,8.09491E0,4.7362822E-1,5.9261322E-2,2.873634E0,1.640563E-1,8.677252E0,2.185797E0,9.4136524E-1,0E0,1.0221186E0,5.957203E-1,1.2275047E0,5.5813723E0,9.2239183E-1,1.1556566E0,1.270684E-1,1.1045498E-1,3.9927304E-2,0E0,2.1184433E1,1.1719894E0,1.1779237E0,9.995921E-1,2.0303879E0,0E0,4.597416E-1,7.975068E-1,8.572449E0,7.344737E-1,5.2687683E0,1.0513625E0,3.1530422E-1,0E0,0E0,0E0,4.5281763E0,2.105855E0,3.0725652E-2,1.2893105E-1,2.544403E0,2.2246704E0,2.2032778E0,1.4746244E0,9.199788E-2,7.264602E-1,5.5751795E-1,5.420265E-1,3.241269E-1,5.2612066E-2,6.693287E-1,1.2130623E0,6.443689E-1,4.3642473E0,9.6269673E-1,8.661283E-1,0E0,3.2543135E-1,1.3356242E-1,0E0,2.2760749E-2,1.0953308E-1,1.4458071E-2,0E0,0E0,2.5956306E0,1.4855576E-1,5.2279663E-1,0E0,0E0,2.574295E-1,2.9219192E-1,3.867321E-1,1.614296E0,4.0049446E-1,4.326687E-1,2.360177E-1,4.4274926E-1,0E0,0E0,0E0,0E0,0E0,0E0,0E0,0E0,0E0,0E0,0E0,0E0,0E0,0E0,0E0,0E0,0E0,0E0,0E0,0E0,0E0,0E0,0E0,0E0,0E0,0E0,0E0,0E0,0E0,0E0,0E0,0E0,0E0,0E0,0E0,0E0,0E0,0E0,0E0,0E0,0E0,0E0,0E0,0E0,0E0,0E0,0E0,0E0,0E0,0E0,0E0,0E0,0E0,0E0,0E0,0E0,0E0,0E0,0E0,0E0,0E0,0E0,0E0,0E0,0E0,0E0,0E0,0E0,0E0,0E0,0E0,0E0,0E0,0E0,0E0,0E0,0E0,0E0,0E0,0E0,0E0,0E0],"parents":[2147483647,0,0,1,1,2,2,3,3,4,4,5,5,6,6,7,7,8,8,9,9,10,10,11,11,12,12,14,14,15,15,16,16,17,17,18,18,19,19,20,20,21,21,22,22,23,23,24,24,25,25,26,26,27,27,28,28,29,29,30,30,31,31,32,32,33,33,34,34,35,35,36,36,37,37,39,39,40,40,41,41,42,42,43,43,44,44,45,45,46,46,47,47,49,49,50,50,51,51,52,52,53,53,55,55,56,56,57,57,58,58,59,59,60,60,61,61,65,65,66,66,67,67,68,68,69,69,70,70,71,71,72,72,73,73,74,74,75,75,76,76,77,77,78,78,79,79,80,80,81,81,82,82,83,83,84,84,86,86,87,87,89,89,90,90,91,91,94,94,95,95,96,96,99,99,100,100,101,101,102,102,103,103,104,104,105,105,106,106],"right_children":[2,4,6,8,10,12,14,16,18,20,22,24,26,-1,28,30,32,34,36,38,40,42,44,46,48,50,52,54,56,58,60,62,64,66,68,70,72,74,-1,76,78,80,82,84,86,88,90,92,-1,94,96,98,100,102,-1,104,106,108,110,112,114,116,-1,-1,-1,118,120,122,124,126,128,130,132,134,136,138,140,142,144,146,148,150,152,154,156,-1,158,160,-1,162,164,166,-1,-1,168,170,172,-1,-1,174,176,178,180,182,184,186,188,-1,-1,-1,-1,-1,-1,-1,-1,-1,-1,-1,-1,-1,-1,-1,-1,-1,-1,-1,-1,-1,-1,-1,-1,-1,-1,-1,-1,-1,-1,-1,-1,-1,-1,-1,-1,-1,-1,-1,-1,-1,-1,-1,-1,-1,-1,-1,-1,-1,-1,-1,-1,-1,-1,-1,-1,-1,-1,-1,-1,-1,-1,-1,-1,-1,-1,-1,-1,-1,-1,-1,-1,-1,-1,-1,-1,-1,-1,-1,-1,-1,-1],"split_conditions":[1E0,1E0,1E0,1E0,3E0,1E0,-5E-1,1E0,1.2246469E-16,-7.0710677E-1,5E-1,-7.0710677E-1,2.4E2,3.4595042E-2,5E-1,1E0,1.2246469E-16,-2.4492937E-16,1E0,1E0,5E-1,5E-1,8.660254E-1,-2.4492937E-16,0E0,-2.4492937E-16,-5E-1,8.660254E-1,8.660254E-1,1E0,1E0,2.5881904E-1,8.660254E-1,6.234898E-1,0E0,1E0,-7.0710677E-1,7.5E-1,-6.193225E-3,4.3388373E-1,1.2246469E-16,1.2246469E-16,1.2246469E-16,-5E-1,-8.660254E-1,9.749279E-1,-5E-1,8.660254E-1,-7.8709535E-3,-1.8369701E-16,-5E-1,4.3388373E-1,-5E-1,-8.660254E-1,3.2371677E-2,4.3388373E-1,8.660254E-1,8.660254E-1,-8.660254E-1,1E0,-5E-1,-2.4492937E-16,-1.0269786E-2,3.1136444E-2,2.1415321E-2,1E0,-8.660254E-1,-5E-1,1E0,1E0,-9.659258E-1,5E-1,4.3388373E-1,-8.660254E-1,-8.660254E-1,-5E-1,-7.0710677E-1,-2.2252093E-1,7.0710677E-1,-8.660254E-1,9.749279E-1,2.5881904E-1,-9.659258E-1,1E0,9.749279E-1,-4.6664122E-3,8.660254E-1,1.2246469E-16,4.6397126E-3,-2.5881904E-1,-8.660254E-1,-5E-1,-6.0792277E-3,4.148871E-2,-8.660254E-1,5E-1,-1.8369701E-16,-2.9359713E-2,-9.03697E-3,-8.660254E-1,6.234898E-1,-8.660254E-1,-2.4492937E-16,2.4E1,-9.659258E-1,7.0710677E-1,6.234898E-1,-3.1223602E-3,-7.1883635E-3,5.0702607E-3,2.5653774E-2,-7.4554724E-3,1.1720931E-2,2.6211016E-2,2.7016846E-3,2.1301315E-3,-6.7122453E-3,4.247255E-3,-2.749433E-3,1.2499294E-3,-3.329863E-3,-3.1905512E-3,4.884051E-5,-5.0073476E-3,-8.433616E-3,7.5547984E-3,1.812283E-3,3.8003076E-2,1.5405294E-2,-4.409189E-3,4.4846176E-3,1.2783157E-3,-4.481053E-3,2.4192003E-3,-3.0116385E-3,4.4511002E-3,1.8194608E-2,6.3012703E-3,-7.966781E-4,-6.221209E-3,-1.6568927E-3,3.450104E-3,-3.9006788E-3,-5.310256E-3,-8.303782E-3,9.71208E-3,6.0151E-3,1.1677064E-2,4.9422076E-3,7.789958E-5,4.039696E-3,-2.2445484E-3,1.079037E-2,4.7249603E-3,-6.952631E-3,3.7719935E-4,-5.9073404E-3,7.850835E-3,1.3658898E-3,1.6833493E-3,-1.9706045E-3,-2.4076384E-3,-7.227177E-3,-1.0895674E-4,-5.0359187E-3,-2.6298356E-3,-0E0,2.4061643E-2,1.3070738E-2,2.0464825E-2,1.620939E-2,1.7464675E-2,2.5397584E-2,-1.0311549E-3,8.046335E-3,-7.970184E-3,-9.7374176E-4,1.3441134E-2,2.3626976E-3,2.798738E-2,1.7822064E-2,1.3952976E-2,3.7504046E-3,5.615315E-3,1.752047E-2,7.5581027E-3,-3.3773587E-4,6.142222E-3,2.6283495E-2],"split_indices":[37,18,21,8,0,20,2,14,2,6,6,7,0,0,3,1,2,2,35,5,3,3,6,2,4,2,6,2,2,39,39,6,3,5,4,0,7,0,0,4,6,6,2,2,2,4,3,6,0,3,7,4,2,6,0,4,6,6,7,13,7,2,0,0,0,30,7,7,31,5,7,2,4,6,6,2,7,5,6,6,4,6,7,5,4,0,2,6,0,6,7,6,0,0,2,2,3,0,0,7,5,3,2,0,7,6,5,0,0,0,0,0,0,0,0,0,0,0,0,0,0,0,0,0,0,0,0,0,0,0,0,0,0,0,0,0,0,0,0,0,0,0,0,0,0,0,0,0,0,0,0,0,0,0,0,0,0,0,0,0,0,0,0,0,0,0,0,0,0,0,0,0,0,0,0,0,0,0,0,0,0,0,0,0,0,0,0,0,0],"split_type":[0,0,0,0,0,0,0,0,0,0,0,0,0,0,0,0,0,0,0,0,0,0,0,0,0,0,0,0,0,0,0,0,0,0,0,0,0,0,0,0,0,0,0,0,0,0,0,0,0,0,0,0,0,0,0,0,0,0,0,0,0,0,0,0,0,0,0,0,0,0,0,0,0,0,0,0,0,0,0,0,0,0,0,0,0,0,0,0,0,0,0,0,0,0,0,0,0,0,0,0,0,0,0,0,0,0,0,0,0,0,0,0,0,0,0,0,0,0,0,0,0,0,0,0,0,0,0,0,0,0,0,0,0,0,0,0,0,0,0,0,0,0,0,0,0,0,0,0,0,0,0,0,0,0,0,0,0,0,0,0,0,0,0,0,0,0,0,0,0,0,0,0,0,0,0,0,0,0,0,0,0,0,0,